77 16
11 -0.386232 -0.029255776 0.43254927 0.38576978 -0.3575457 0.1535557 0.2965379 0.09765153 0.29305097 0.10575379 0.09545797 0.038084943 -0.24501607 -0.26651093 -0.26737997 -0.49416578
49 -0.186359 -0.641084 0.22028743 0.46186492 -0.12371161 0.3258195 0.7473933 -0.041529648 0.28670147 -0.1825808 0.16902277 -0.022187963 0.26779595 -0.44595551 -0.3848241 -0.39647198
56 -0.26524147 -0.59093475 0.39294118 0.4250427 -0.14097364 0.048988894 0.67219156 -0.068692915 0.007948549 -0.14471748 -0.09199786 -0.08891517 0.24501532 -0.7450039 -0.34485042 -0.31166497
28 -0.13578817 -0.48503685 0.018600022 0.5429962 -0.21966265 0.3299083 0.3815853 0.3551981 0.44501492 -0.23817612 -0.13394846 -0.07902751 -0.2169239 -0.35586593 -0.25550115 -0.58090764
26 -0.19125755 -0.5330542 0.039539542 0.695279 -0.2339192 0.12649442 0.450095 0.37626675 0.2247527 -0.2413739 0.06284916 -0.020886756 0.12376052 -0.2922628 -0.36757395 -0.5309234
59 -0.22884664 -0.60908383 0.37201944 0.4642686 -0.17470795 0.2349699 0.6600726 -0.15615663 0.18256514 -0.022738105 -0.02971582 0.060013324 0.1866756 -0.6000411 -0.35145184 -0.29326016
24 -0.547764 -0.5444033 0.71072483 0.26341742 -0.5189679 -0.43112755 0.14076553 0.18260905 0.06835204 -0.3593002 0.46232817 0.052199237 0.10466391 -0.33970538 -0.03724081 -0.63293844
65 -0.2216866 -0.5462861 0.39807978 0.3205164 -0.030509476 0.37801123 0.81891155 -0.20370975 0.34109724 0.02973327 0.039901786 0.029535655 0.23711148 -0.57736945 -0.5804577 -0.20986146
63 -0.28377014 -0.53838235 0.48406148 0.16496058 -0.11608629 0.20143649 0.64671135 -0.30497402 0.31731895 0.06365739 0.0049099904 0.12395077 0.21057044 -0.61100835 -0.5126569 -0.3656239
2 -0.9114731 0.7026444 1.1081114 0.3552366 -0.7489713 0.19226988 0.4739783 -0.13565609 0.31220084 0.51444775 0.48468208 0.23287609 -0.41808942 -0.18002032 -0.27864394 -0.65436375
64 -0.31137615 -0.38151443 0.4820728 0.14368716 -0.20216838 0.24338678 0.778976 -0.35191083 0.30937222 0.21278375 -0.027198257 0.112048775 0.13602205 -0.53416437 -0.5920946 -0.2639525
66 -0.19180745 -0.719685 0.17721856 0.51981235 -0.12156087 0.48352814 0.8709498 -0.17569102 0.3380362 -0.040373735 -0.031531293 -0.13953833 0.25074595 -0.5554101 -0.52881783 -0.3124585
25 -0.29143274 -0.41805422 0.14540803 0.785627 -0.3060721 0.22013673 0.37341994 0.34432083 0.24793413 -0.09949151 0.08482494 -0.023123419 0.061238345 -0.16538222 -0.34035668 -0.46883816
27 -0.22129759 -0.6149164 -0.1313064 0.8549948 -0.46812448 -0.11848703 0.38666123 0.38610584 0.019582821 -0.061869103 -0.23115593 -0.0677856 -0.17953779 -0.62633103 -0.36297566 -0.3345524
58 -0.15570998 -0.6184966 0.4741644 0.38677832 -0.11695084 0.2780221 0.7993798 -0.21598083 0.25332323 -0.060064614 0.023872806 0.09758154 0.26542377 -0.47525716 -0.48728654 -0.29733267
42 -0.24468489 -0.45412448 0.061730977 0.78618205 -0.1426134 0.33424866 0.4375652 0.30303976 0.2334767 -0.1332958 0.2439724 -0.0912841 0.09897126 -0.16813073 -0.42512542 -0.48498827
60 -0.22744013 -0.61375463 0.36017686 0.2922283 0.080856234 0.5349236 0.89937395 -0.386776 0.34816077 0.1150268 -0.07390335 0.044206932 0.18910964 -0.62218076 -0.5110426 -0.34244862
62 -0.17183794 -0.51746297 0.41087162 0.34729195 -0.025057612 0.399078 0.96611995 -0.3136293 0.32694498 0.07529211 -0.13022035 0.1163444 0.26090452 -0.71285504 -0.73776335 -0.18247095
71 -0.25328317 -0.5112205 0.21547474 0.75713897 -0.18913126 0.14050296 0.33759108 0.32690018 0.2795506 -0.19482826 0.25167495 -0.11908705 0.034004796 -0.09263273 -0.17068687 -0.51272625
67 -0.2366238 -0.5209839 0.61140406 0.38153183 0.16753937 0.45611048 0.9780766 -0.26515633 0.3481675 -0.0036519128 0.13063483 0.010651583 0.49989033 -0.50982124 -0.6199882 -0.17724498
70 -0.2435431 -0.4303267 0.11920525 0.95402586 -0.25252092 0.41289896 0.43226567 0.441769 0.3383979 -0.098300345 0.19107753 -0.08611749 0.008455649 -0.053405315 -0.3351505 -0.4216622
69 -0.25594327 -0.30380335 0.20020913 0.8063029 -0.30222717 0.3262765 0.53244776 0.36466327 0.27846143 -0.028158152 0.19797827 -0.016946798 -0.00012780959 -0.2221708 -0.32122213 -0.32401213
72 -0.29562408 -0.32290053 0.055630125 0.6699813 -0.15337175 0.4844531 0.3859029 0.26011395 0.3773641 0.01759723 0.25073466 -0.094722815 -0.072744235 -0.08384343 -0.28889865 -0.48051137
61 -0.30042017 -0.5564999 0.638477 0.2074358 -0.069908105 0.55673194 0.91887176 -0.43670312 0.35851008 0.16906014 0.007605696 0.14166659 0.23858742 -0.54460675 -0.56031895 -0.26038855
18 -0.49303818 -0.95669127 0.6097756 0.45130384 -0.39557758 -0.56680065 0.053244427 -0.06567416 -0.06630319 -0.4256534 0.3754718 -0.061364785 0.33683443 -0.5432076 0.05481651 -0.80520064
30 -0.6654109 -0.36185208 0.23000082 0.4065079 -0.39358982 -0.07383357 -0.27347866 -0.041623883 0.18515582 0.10187178 -0.067705855 -0.08957835 -0.5575588 -0.3280785 -0.029163636 -1.2195898
52 -0.34877345 -0.14598805 0.14890207 0.589768 -0.51072216 -0.1082035 0.76603746 0.38099465 -0.06804675 0.11513813 -0.5442896 0.022262363 -0.2572392 -0.9944136 -0.5158671 0.03956742
77 -0.243356 -0.32005695 0.5786536 0.27183786 -0.03581462 0.60610855 0.9690259 -0.28685072 0.34526485 0.11473201 -0.12715626 0.06531268 0.28733674 -0.67315775 -0.52413416 -0.14651786
17 -0.6049403 -0.87677234 0.8958081 0.39352152 -0.5881358 -0.75974876 0.086525366 0.13934141 -0.15458207 -0.5962077 0.5870304 0.012982506 0.26394516 -0.51096284 0.1443563 -0.79077876
76 -0.27432868 -0.36342934 0.23170692 0.836931 -0.24669413 0.3367608 0.45908844 0.45951343 0.13058232 -0.11970587 0.25237688 -0.0007689656 0.19392717 -0.06855314 -0.2707688 -0.32613826
22 -0.66021943 -0.7794562 0.8468153 0.37986138 -0.5685721 -0.65529704 0.18552643 0.007672095 -0.11230954 -0.49578694 0.5907732 -0.054875158 0.2882834 -0.424293 0.16744196 -0.8455865
50 -0.2670468 -0.3524026 -0.0723106 0.8810274 -0.6768874 -0.07885101 0.41023165 0.2992929 -0.13863274 0.058085453 -0.5081951 -0.041124906 -0.30980712 -0.9303416 -0.47382116 -0.21861456
23 -0.66980463 -1.0494494 0.7825733 0.35117334 -0.5211035 -0.65174127 0.16730893 0.010742149 -0.092351004 -0.54389143 0.53113467 -0.021434994 0.28795895 -0.5292955 0.15438786 -0.8917192
20 -0.52796394 -0.8568574 0.7855791 0.33079448 -0.5526435 -0.7118542 0.09877547 0.2625094 -0.03350131 -0.55243695 0.4884483 -0.021200325 0.33876547 -0.5339347 0.054107968 -0.7620074
36 -0.7047004 -0.16983591 0.26673403 0.35947028 -0.3780603 0.017684149 -0.32170418 -0.3606157 0.41779405 0.35810414 -0.19674566 -0.013939964 -0.6229751 -0.41656518 -0.07895514 -1.5038524
21 -0.6113273 -0.9771079 0.835548 0.4313711 -0.3221273 -0.44529864 0.15491934 0.08741318 -0.0024182315 -0.6601084 0.49775606 -0.11877106 0.37156442 -0.3661467 0.1872051 -0.93358284
39 -0.75868064 -0.2247024 0.14224887 0.49767593 -0.25491437 0.052726068 -0.31258938 -0.23221141 0.38652927 0.18053585 -0.24828167 -0.0715657 -0.667575 -0.32623872 0.011796975 -1.4256887
19 -0.7390728 -0.8522428 1.0175394 0.3368133 -0.51464176 -0.7243093 0.18144199 -0.0600466 0.039304845 -0.5546709 0.5500477 -0.03570613 0.30780926 -0.5013028 0.15324743 -0.84748226
37 -0.7367117 -0.20271383 0.22993912 0.42153823 -0.20463838 0.20312051 -0.44152772 -0.4812273 0.40451604 0.39434904 -0.27296022 -0.19656096 -0.5712994 -0.39459658 0.035681292 -1.4622623
35 -0.6664234 -0.27700183 0.25365815 0.33766 -0.25409728 0.033603832 -0.28138655 -0.26717433 0.32725534 0.19443853 -0.063633494 -0.07412301 -0.51815027 -0.3531922 -0.05393386 -1.484187
38 -0.6863665 -0.30017906 0.2617303 0.41502392 -0.2859565 0.12409804 -0.4095253 -0.25025147 0.24960448 0.20387949 -0.27353278 -0.2394094 -0.6905133 -0.42916378 -0.112165704 -1.3932661
32 -0.5199304 -0.624934 0.50131094 0.26219878 -0.49852228 -0.31853807 0.2144589 0.22682878 0.11776629 -0.13618203 0.200512 -0.045739885 -0.12611201 -0.38017273 -0.12269508 -0.60596424
29 -0.26763576 -0.11119424 0.4120976 0.15748447 -0.42025593 0.3158366 0.2961394 0.83838326 0.5485255 -0.29204342 -0.11300537 -0.17279193 -0.7632602 -0.46117005 0.06585439 -0.50358397
55 -0.28941837 -0.43736935 0.03675165 0.8053189 -0.5971169 -0.061915554 0.58322966 0.44217995 -0.04144518 -0.10587699 -0.3967316 -0.030396316 -0.026390292 -0.8609624 -0.38954684 0.038886447
3 -0.70861137 0.691174 0.76807797 0.2926033 -0.7098307 0.1042549 0.1885562 0.060329728 0.28648958 0.4196172 0.4628548 0.15886432 -0.50998986 -0.084791996 -0.22485827 -0.637629
4 -0.7381308 0.66833955 0.80585766 0.34413514 -0.82037485 0.19171672 0.27433982 0.1446435 0.19881795 0.47579882 0.43684298 0.19599679 -0.5312648 -0.20934777 -0.31402308 -0.62539506
40 -0.2456293 -0.6053243 -0.08315451 0.6574066 -0.22331464 0.067931995 0.54038155 0.4473278 0.22167802 -0.2580583 -0.35243815 -0.09624097 0.08567661 -0.59259224 -0.59145135 -0.32965112
43 -0.12521967 -0.4935392 0.000563527 0.7484153 -0.41556627 0.33061874 0.47179085 0.38913205 0.3630616 -0.103963986 0.09453564 0.05309448 -0.06328647 -0.21453512 -0.48868537 -0.34761792
44 -0.34623417 -0.35460833 0.049989887 0.5782393 -0.27384752 0.19539553 0.089297734 0.23179384 0.38565516 0.0043515954 -0.19968797 -0.21447316 -0.48593265 -0.39912826 -0.26777625 -0.728765
73 -0.21730165 -0.45034033 0.1271833 0.59040385 -0.3557128 -0.08343378 0.39190102 0.24890767 0.026160773 -0.057004265 -0.2218508 -0.07040458 -0.21316218 -0.64610505 -0.27120084 -0.35156032
47 -0.68875355 -0.22882351 0.6379578 1.0984452 0.60501236 1.1649395 0.7905902 0.22619303 0.32418388 -0.14503595 -0.07348945 -0.5314981 0.84743804 -0.16468261 -0.14462847 -0.53550154
75 -0.28070194 -0.4462203 0.09591323 0.67595416 0.05086173 0.93930227 1.0010427 -0.38578585 0.38610834 0.04302595 -0.018000744 -0.37781462 0.38336754 -0.54213846 -0.20026009 -0.6111603
74 -0.12727046 -0.43564355 0.18659075 0.7890528 0.066351324 1.0695535 1.1536003 -0.47139424 0.41279954 0.09182203 -0.05003032 -0.36063635 0.3762222 -0.60702646 -0.35885152 -0.5209968
45 -0.28124508 -0.24307281 0.34794468 0.23428436 -0.29441637 0.3090725 0.3290141 0.44040912 0.50226265 -0.153166 0.043704927 -0.17455044 -0.48023602 -0.35488263 -0.030668568 -0.5340525
57 -0.29557952 -0.53797215 -0.004040269 0.7813924 -0.47122768 0.07026793 0.4592854 0.25625542 0.0429323 -0.030199695 -0.44507688 -0.10880777 -0.07148829 -0.86277896 -0.4498904 -0.20493728
34 -0.31472084 -0.2648699 0.34202293 0.37024608 -0.2570365 0.2184552 0.2753073 0.18066615 0.28807607 0.033235997 -0.012279659 -0.016992917 -0.2802076 -0.3141691 -0.20796883 -0.4926405
53 -0.23370114 -0.35496512 0.019174187 0.6347489 -0.48732823 -0.077724434 0.59111136 0.53861487 -0.033203892 -0.1111769 -0.5953905 0.021412859 -0.10894506 -0.8590734 -0.65332633 -0.07523219
13 -0.41539702 -0.5589693 0.3487686 0.57704496 -0.40359735 -0.31098843 0.22536652 0.22495596 0.09919359 -0.19540659 0.233996 -0.071009494 0.041885648 -0.32083416 -0.17626941 -0.5580007
31 -0.44777206 -0.83452743 0.6433478 0.32611126 -0.47398606 -0.3800348 0.11988754 0.27018932 0.0802355 -0.32285663 0.32042488 0.059232853 0.16392222 -0.35524195 -0.09770609 -0.6299555
51 -0.351069 -0.36965153 -0.0046112747 0.77083856 -0.5437211 -0.067757614 0.1565589 0.2631304 -0.027071513 0.091157615 -0.20732805 -0.080845684 -0.2952395 -0.6430959 -0.26317632 -0.4327272
5 -0.9316226 0.9974441 1.2010006 0.23250705 -0.8503155 0.18894929 0.24997751 -0.09583186 0.27942342 0.54217255 0.575392 0.25473878 -0.6269535 -0.24689107 -0.18345267 -0.7057042
48 -0.7111833 -0.36708176 0.79837406 1.0986845 0.62755835 1.2153089 0.80358154 0.27664995 0.3668509 -0.2203451 -0.27557468 -0.51678777 0.9093051 -0.20782444 -0.3462497 -0.47871462
8 -0.9580124 0.93321437 1.2880116 0.19441399 -0.86816955 0.2641642 0.4254108 -0.15084918 0.3480605 0.60465544 0.58961767 0.19951822 -0.60133773 -0.28419954 -0.27015093 -0.6944245
10 -0.87585396 0.8402077 1.1905863 0.24949178 -0.743413 0.29156366 0.5735508 -0.043611385 0.32415393 0.5744723 0.48968363 0.20646837 -0.5188998 -0.34469774 -0.32131353 -0.5139244
7 -0.95854336 0.83584565 1.2165567 0.2743075 -0.81034255 0.17338932 0.45325804 0.0031550247 0.28846067 0.5453306 0.601901 0.28612244 -0.43241847 -0.31891814 -0.34000406 -0.54132307
9 -0.9971567 0.99290794 1.2068272 0.3850257 -0.9228096 0.31439403 0.44944224 -0.0032012844 0.33025467 0.62130773 0.59961724 0.21823002 -0.6758398 -0.20520574 -0.28225064 -0.68727154
54 -0.41746917 0.11641073 0.37821653 0.6148533 -0.71640146 -0.10042677 0.67434806 0.5295055 -0.2137881 0.15248148 -0.5747171 -0.06066907 -0.28606576 -0.9916598 -0.5010506 0.21656753
6 -0.99447274 1.0187098 1.2798969 0.36387262 -0.879114 0.12478098 0.46556884 0.0016829809 0.25991678 0.64899194 0.6125532 0.29941696 -0.5868025 -0.27163035 -0.32314855 -0.48583657
14 -0.37220728 -0.032697126 0.35852778 0.42604506 -0.33405763 0.26662818 0.23195957 0.059436843 0.31576833 0.15839057 0.0121582 -0.086548455 -0.26308495 -0.2988738 -0.28169766 -0.5420587
16 -0.36941832 -0.18594882 0.17250831 0.49994174 -0.29421145 0.23346521 0.22838522 0.27570885 0.30887982 0.06866461 -0.021845948 -0.15289597 -0.38011265 -0.3152541 -0.2936972 -0.63557845
12 -0.49441117 -0.10655565 0.42912272 0.35565007 -0.4713807 0.05680421 0.11343491 0.21595818 0.27450526 0.07533192 0.15774876 -0.12412794 -0.34864223 -0.27132595 -0.124841966 -0.67090905
41 -0.28377622 -0.53555506 0.07746824 0.66783696 -0.24833742 0.26938438 0.44719556 0.36077535 0.26074523 -0.160562 0.12442441 -0.062462192 0.043390147 -0.18650793 -0.37046003 -0.5064306
33 -0.3908376 0.023334902 0.23176298 0.52836734 -0.36600336 0.27105042 0.20349056 0.13484551 0.29257265 0.18010812 0.0638787 -0.043816652 -0.38173625 -0.20143598 -0.20577946 -0.58867365
15 -0.47154668 -0.2767499 0.37920552 0.42882037 -0.39746925 -0.100302435 0.1900455 0.20805053 0.1179312 -0.0159674 0.11457561 -0.06932129 -0.20563681 -0.32206982 -0.18682997 -0.59305376
1 -0.970821 0.96154845 1.1361681 0.3391605 -0.8135647 0.3350683 0.36673006 -0.053821724 0.27788094 0.6445844 0.5498096 0.18066001 -0.69899803 -0.2500712 -0.32298177 -0.7715329
46 -0.40688318 0.09413082 0.49947768 0.11329154 -0.39882952 0.39020038 0.14118157 0.6151886 0.6122247 -0.07177397 0.01250675 -0.16353346 -0.8438765 -0.29079628 -0.051851965 -0.73641694
68 -0.22752722 -0.5049518 0.39665604 0.45538917 -0.030721454 0.3603571 0.6857343 -0.055421382 0.22817929 0.013670505 -0.065388106 0.013161362 0.28522336 -0.4001437 -0.46461573 -0.2948296
