77 16
11 -0.3448152 0.10522654 0.35538957 0.2817939 -0.3823597 -0.024550496 0.79174227 -0.35531685 -0.27026033 -0.13783838 -0.09859983 -0.38288733 -0.24054441 -0.031296726 -0.09444014 0.095719956
49 -0.5345931 0.030222336 -0.04766415 0.3327007 0.13491026 -0.114462435 1.0896364 0.004963815 0.21057071 0.23664518 0.16480687 -0.15924916 -0.20104943 -0.39271653 -0.5951992 -0.28025192
56 -0.2541088 -0.550108 0.33382308 0.2037976 0.082368076 -0.08220164 0.91890407 0.13710806 0.017005648 0.019538376 -0.110327944 -0.055483308 -0.22015764 -0.37460697 -0.62583965 -0.6065315
28 -0.03716204 -0.23354691 0.14186677 0.40451908 -0.40780324 -0.08157019 1.0188141 -0.17242494 -0.22679287 -0.3115044 0.06340416 -0.09893862 0.09619314 -0.37058267 -0.2248803 -0.01934446
26 -0.06532633 -0.29343325 0.04383731 0.76605713 -0.23019779 -0.11213133 0.73893374 -0.06888311 -0.113555536 -0.28100702 0.29130352 -0.2099541 0.22498038 -0.59318703 -0.17067935 0.007553254
24 -0.10214391 -0.42436004 0.33930522 0.18835834 -0.7853478 -0.13095784 0.76591766 -0.37134627 -0.6715741 -0.23306033 0.31687853 0.1054769 0.16551773 -0.64272887 -0.0151540665 -0.04318986
59 -0.45745692 -0.21382117 -0.06598389 0.21706767 -0.08970586 -0.0832555 1.0814215 -0.22137915 0.03749178 0.0974534 0.006812366 -0.17108618 -0.12991749 -0.38433224 -0.49023867 -0.35184205
2 -0.8475583 0.50502366 1.4324731 0.094853014 -0.44613484 -0.10861778 0.29442498 0.2494064 0.1650667 0.0003521277 0.43766937 -1.1535287 -0.1873193 -0.306646 -0.72123396 0.20107006
65 -0.5111139 -0.16068646 -0.07876411 0.03825728 0.14677748 -0.12272916 1.1455462 -0.15134592 0.18523604 0.29893005 0.006297398 -0.11320356 -0.1944986 -0.3511104 -0.7967229 -0.62486386
63 -0.47876757 -0.16096056 0.13578933 -0.035094976 0.009897204 -0.12864578 0.91715753 -0.16498017 0.013245939 0.19897759 0.014099269 -0.09037812 -0.12739938 -0.2996053 -0.57829326 -0.46887195
64 -0.39135528 -0.30567303 -0.17533122 0.020279001 0.12024921 -0.0911161 1.1490482 -0.18114473 0.14819002 0.1711781 -0.04160464 -0.2896058 -0.073194325 -0.30236796 -0.7222266 -0.57887715
66 -0.46277672 -0.2158823 -0.16318329 0.07845693 0.078071035 -0.099294014 1.174121 -0.24195717 0.11325441 0.22532941 -0.020979237 -0.21382815 -0.1427244 -0.3544653 -0.6282528 -0.5457949
58 -0.50575143 -0.15934362 -0.02329671 0.070745155 0.1401043 -0.12480594 0.9162345 -0.08738036 0.21378213 0.2686284 -0.051161554 -0.3961093 -0.12572579 -0.23837018 -0.8013158 -0.48742753
60 -0.5129038 -0.09420532 0.029288037 -0.05484089 0.12637724 -0.10093269 1.0653198 -0.08455633 0.1996876 0.2652265 -0.056030776 -0.41718236 -0.24728508 -0.28710365 -0.82792115 -0.532176
27 -0.07728346 -0.45033345 0.6148993 0.36978084 -0.22943367 0.019647792 0.85990405 0.050304975 -0.08566904 -0.27200845 -0.15892628 -0.057923757 -0.11539997 -0.22101517 -0.28526375 -0.26257974
62 -0.5091366 -0.18480517 0.01634277 0.071394704 0.2437119 -0.08862955 1.0924424 -0.13588059 0.16926658 0.23844534 -0.018828921 -0.24403808 -0.34372774 -0.31010535 -0.80599236 -0.6765558
42 -0.099092625 -0.44142094 0.060452376 0.6874137 0.08342324 -0.05822766 1.0061247 0.02621963 0.1549799 -0.098879606 0.08472454 -0.37592903 -0.04549126 -0.36405793 -0.36135048 -0.10660879
25 -0.055713862 -0.44297186 0.3272765 0.6288495 -0.22869107 0.030449446 0.67506856 -0.12530658 -0.21369593 -0.34419712 -0.03948696 -0.24492672 0.04174682 -0.495945 -0.1888127 -0.060567442
67 -0.49093965 -0.16206366 -0.023320675 0.10528931 0.22204265 -0.11043176 1.0456518 -0.20300606 0.21478112 0.2476292 -0.0340428 -0.4762692 -0.3115018 -0.22039934 -0.7079378 -0.50099015
69 -0.14114508 -0.20736966 -0.019258808 0.7543162 0.036639433 -0.19781576 0.9159333 -0.06673333 0.0806114 -0.080609955 0.26132405 -0.37809306 0.17061022 -0.4757013 -0.42908573 0.04754684
70 -0.1675091 -0.13785239 0.058084868 0.84126186 -0.036994983 -0.039204936 0.8427378 -0.010692602 0.21127163 -0.013016306 0.1730384 -0.33844197 0.08077271 -0.42840838 -0.29491934 0.10668761
71 -0.101056114 -0.21750046 0.1572585 0.67261237 -0.10028401 -0.04750363 0.7375791 -0.0668996 0.1242332 -0.1433344 0.19448338 -0.50170225 0.07904035 -0.42433438 -0.28578654 0.109621525
18 -0.22514255 -0.5098618 0.30221066 -0.043617208 -0.72245425 -0.1846918 0.7372765 -0.23930807 -0.6694321 -0.1756216 0.5586635 0.1506844 0.1359549 -0.78147334 -0.3742457 -0.26503584
61 -0.4748393 -0.19884601 -0.15463799 -0.032780636 0.048928086 -0.11328816 1.1555176 -0.24506453 0.022948053 0.33622488 0.038217276 -0.20846362 -0.16512212 -0.33228776 -0.74665093 -0.52031493
72 -0.24714 -0.31301856 0.07174021 0.82684785 0.05638625 -0.13908105 0.85954475 -0.11293595 0.07976136 -0.06117876 0.07860828 -0.2978948 0.048092846 -0.46227172 -0.28548783 -0.09115938
30 -0.5122222 -0.23135273 0.6369324 0.37075242 -0.33333924 0.20932008 0.58080465 -0.64944047 -0.43218923 -0.15292718 -0.34987926 -0.41327897 -0.40295234 -0.2850404 0.15424909 0.08185441
77 -0.5825411 -0.0948896 -0.069986805 0.052090492 0.26055267 -0.1588398 1.1855212 -0.1808866 0.19468673 0.31140998 -0.03594006 -0.24826358 -0.39816725 -0.31252375 -0.6372719 -0.5893421
22 -0.09880635 -0.4030107 0.44607314 -0.12088281 -0.9478583 -0.27402648 0.82474667 -0.26129323 -0.717696 -0.35435188 0.40873083 0.15555081 0.31080112 -0.74907273 -0.32838467 -0.10003358
52 -0.015540253 -0.76490647 0.8027076 0.46538904 -0.04108266 0.03214191 0.91601646 0.2545573 -0.032505043 -0.47174484 -0.16898674 -0.0039285887 -0.16752319 -0.32286114 -0.23821442 -0.3859232
50 -0.12433183 -0.6863753 0.77107936 0.43079838 -0.15078886 0.19292359 0.90187985 0.36656636 0.03994736 -0.322917 -0.25912443 0.10130766 -0.21266137 -0.18246637 -0.24757922 -0.4821707
23 -0.18131381 -0.38944814 0.29024696 -0.23232584 -0.86933416 -0.39743513 0.63325423 -0.2073235 -0.74797434 -0.19749366 0.63859886 0.13701652 0.26762134 -0.8082828 -0.40794167 -0.29423374
17 -0.18101855 -0.34177533 0.49867195 -0.09192537 -0.91159093 -0.30766505 0.66019547 -0.18900046 -0.77324784 -0.22314398 0.5613472 0.24246982 0.10397457 -0.7869827 -0.37241167 -0.2843424
20 -0.23806047 -0.5055545 0.59881365 -0.13706599 -0.98603344 -0.3336749 0.63905466 -0.13666643 -0.8009903 -0.31517282 0.5630403 0.20236894 0.1262364 -0.81472355 -0.30229875 -0.2839922
19 -0.17219575 -0.4199115 0.30705255 0.022549119 -0.8608779 -0.365486 0.8294402 -0.2567841 -0.7579745 -0.22252278 0.5480855 0.30289987 0.22155158 -0.8432732 -0.23626803 -0.2685406
76 -0.16292602 -0.29653427 0.046279762 0.71806735 0.08088246 -0.12317014 0.8155138 -0.0698186 0.2070171 0.02542687 0.09773707 -0.3172961 0.07457781 -0.5066888 -0.4085157 -0.17306797
21 -0.16851142 -0.42358682 0.58462286 -0.03598806 -0.9192336 -0.29420525 0.7180073 -0.15184432 -0.82633805 -0.3383057 0.6217943 0.24452235 0.29856262 -0.82130325 -0.31918427 -0.13870387
36 -0.51726633 -0.2561395 0.5894369 0.32611495 -0.26491442 0.11286641 0.7185059 -0.68152195 -0.37018108 -0.20667705 -0.32721815 -0.32044318 -0.4433652 -0.28390133 0.17042409 0.080928534
39 -0.6258657 -0.23307078 0.5159021 0.3864887 -0.27671474 0.15761524 0.7098607 -0.8598407 -0.31507817 -0.12018032 -0.46162814 -0.4423859 -0.50353193 -0.26461723 0.32401055 0.103948124
37 -0.5513942 -0.2585065 0.4559863 0.3952266 -0.3204984 0.20115666 0.69723755 -0.83159864 -0.42429173 -0.063567355 -0.32565463 -0.31194618 -0.36354434 -0.35329103 0.32620704 0.076063775
35 -0.5848313 -0.19772768 0.69339657 0.32882142 -0.23932773 0.21085225 0.6998544 -0.76523006 -0.39738178 -0.11800985 -0.5587076 -0.47734198 -0.5713377 -0.23984893 0.22612482 0.087202534
38 -0.45805043 -0.17494312 0.6005861 0.27741897 -0.38320306 0.13794532 0.61222255 -0.80838615 -0.4901866 -0.1590765 -0.25000143 -0.3874704 -0.4216048 -0.29206562 0.16149747 0.09848108
29 0.17181273 -0.14861977 -0.22502351 0.13116945 -0.35981727 -0.076780275 1.4166194 -0.3770473 -0.09523824 -0.23994808 -0.20997906 -0.6735554 0.27132842 -0.09043428 -0.27589345 0.69072306
55 -0.18958415 -0.55173784 0.65841746 0.3525295 -0.035581514 0.06285098 0.9439523 0.31534645 0.123050034 -0.28351393 -0.19154638 0.0082908925 -0.17839943 -0.2900604 -0.302509 -0.41195607
32 -0.16531643 -0.28222364 0.24629624 0.37623703 -0.61737096 -0.17800483 0.75899255 -0.3124272 -0.4359203 -0.34452167 0.20294926 -0.09621225 0.25571382 -0.56718856 -0.0015250782 0.17640366
4 -0.55886763 0.25063893 1.000296 0.16830936 -0.47438663 -0.12373656 0.22388355 0.01189546 0.020526934 -0.091603145 0.18846399 -0.76493746 -0.09815488 -0.23831777 -0.3129733 0.23686658
3 -0.43084076 0.23313011 0.859011 0.38390303 -0.27183524 -0.049930047 0.29587364 0.2369617 0.14215565 0.0063888486 0.19233347 -0.81382734 -0.014393542 -0.2809648 -0.3910817 0.2773899
73 -0.25196683 -0.2162444 0.5529353 0.3968613 -0.28010046 0.03848818 0.7004218 -0.0635991 -0.09717534 -0.28383636 -0.1885298 -0.3380228 0.008631532 -0.1932161 -0.14443712 0.1673465
44 -0.31623527 -0.25844702 0.37053445 0.4155886 -0.23493083 0.07616749 0.7801458 -0.23529997 -0.053280115 -0.1523924 -0.2516277 -0.2266901 -0.16685103 -0.21358661 -0.18614174 0.025236199
40 0.047412124 -0.79570377 0.5315191 0.53631586 -0.08320195 0.012144053 0.87968415 0.14483885 0.10235312 -0.5379862 -0.089544505 -0.32404542 -0.18250906 -0.3857809 -0.20708908 -0.07434955
43 -0.10369276 -0.4757454 0.11107274 0.5800853 0.012659928 -0.058364235 0.9130313 -0.07059823 -0.049310192 -0.098483324 0.055750027 -0.20337442 0.050403554 -0.46787617 -0.37094447 -0.2595694
47 -0.94417644 0.68083704 -0.0834276 1.0664866 0.37001717 -0.3411181 1.2898747 -0.04568622 0.12083443 0.7542597 0.5403899 -0.050539248 -0.02877598 -0.36116442 -0.3981893 -0.0711893
75 -0.6942266 -0.0781535 -0.37765086 0.4031977 0.13027166 -0.087173894 1.2192391 -0.13415103 0.27406043 0.41367084 0.22782274 -0.20834887 -0.10434489 -0.6147057 -0.5694146 -0.44286865
45 0.056697253 0.10812098 0.12096657 0.17672534 -0.38972205 0.054708038 1.1160705 -0.37528142 -0.019524464 -0.226015 -0.044639733 -0.7004653 0.23732042 -0.095863216 -0.3332246 0.54505855
53 -0.003098798 -0.84755415 0.66465056 0.5109217 -0.13811298 0.047055483 0.9319886 0.22009535 0.09516886 -0.50925916 -0.13473968 -0.15353797 -0.231123 -0.37396902 -0.02769456 -0.22514142
74 -0.7229769 -0.00083232997 -0.52867967 0.4926612 0.0006956728 -0.1714998 1.1581327 -0.16986866 0.19634953 0.54938275 0.30565137 -0.07069926 -0.08338432 -0.67585427 -0.6157816 -0.34945685
34 -0.08224066 -0.25172138 0.34406048 0.3416076 -0.35228947 -0.034793124 0.86271495 -0.19638772 -0.20552404 -0.19426663 -0.010485357 -0.2807506 0.16123451 -0.2650528 -0.13596956 0.25690043
57 -0.19104572 -0.56779134 0.43460912 0.33799306 0.0016489421 0.060580328 1.0570776 0.11136097 0.03536853 -0.22373763 -0.28128767 -0.01038244 -0.31660143 -0.3028885 -0.3712377 -0.5083938
13 -0.18885198 -0.103821546 0.40698665 0.26213682 -0.55237406 -0.23944099 0.6217819 -0.13555506 -0.37653112 -0.20093484 0.291092 -0.09387556 0.18083578 -0.48186234 -0.24344663 0.11053079
51 0.0007494951 -0.6828803 0.6293977 0.6359037 -0.2524682 0.16787858 0.90671283 0.048749726 -0.20999001 -0.36539096 -0.10881255 -0.015860375 0.038758248 -0.2871611 -0.203488 -0.21467994
31 -0.1770525 -0.24090016 0.48648313 0.21057166 -0.901202 -0.13582508 0.65612096 -0.1999556 -0.77105504 -0.3385138 0.37865773 -0.08582766 0.19971721 -0.6383191 0.013854523 0.118832916
6 -0.81360835 0.6243904 1.4540873 0.31497693 -0.52970773 -0.20150474 0.33561924 0.20766994 0.2417328 0.0018977823 0.38776222 -1.1945351 -0.22492063 -0.3588068 -0.57298213 0.40769595
7 -0.91313714 0.5507086 1.4829988 0.11838722 -0.5234828 -0.22146295 0.325697 0.2951526 0.16709097 0.097534895 0.35808232 -1.2024548 -0.20830612 -0.3356919 -0.7606966 0.30939794
1 -0.81716 0.5724232 1.505164 0.11584986 -0.6217471 -0.08787911 0.30814964 0.15163545 0.13224998 -0.007884376 0.3603913 -1.1872889 -0.3404646 -0.3448021 -0.52286494 0.37221083
5 -0.83848274 0.52433074 1.4054366 0.09369451 -0.49009836 -0.25614566 0.21212225 0.3459104 0.20545721 0.06265528 0.45953327 -1.180517 -0.24240018 -0.3457797 -0.5951356 0.26638427
10 -0.6988806 0.45939994 1.2940043 0.004278585 -0.6007247 -0.21620493 0.11397769 0.30157748 0.05745243 0.06301655 0.54630566 -0.86854875 -0.088141076 -0.37428722 -0.58854365 0.24315743
8 -0.78111166 0.49239734 1.1974872 0.1874551 -0.495131 -0.24466644 0.3738395 0.2809616 0.13483238 0.11122158 0.35550562 -1.0411925 -0.2884643 -0.2874123 -0.64217496 0.19776616
9 -0.86455804 0.58669937 1.3777803 0.18987532 -0.5558447 -0.23977952 0.29136392 0.35840812 0.15834881 0.16439153 0.4201961 -1.1313165 -0.18190245 -0.3694053 -0.6496498 0.32190627
48 -0.9290701 0.64092946 -0.065596774 1.2840674 0.34240186 -0.5136813 1.2944297 0.10205772 0.19012094 0.75105035 0.6992071 0.16408266 -0.138099 -0.40808454 -0.5426029 -0.069870174
46 0.22970383 0.01603549 -0.063499495 0.034662776 -0.5141349 -0.0051910104 1.4502486 -0.4196243 0.001058887 -0.3843062 0.008980243 -0.7613528 0.45386764 -0.06307425 -0.4290635 0.6379401
68 -0.5912317 0.09348335 0.099732615 0.28319022 0.22502537 -0.15690437 0.8628397 -0.040803034 0.25766876 0.34637737 0.05773894 -0.47821024 -0.37697792 -0.24622785 -0.70414364 -0.47721663
14 -0.44030568 0.022430653 0.43674758 0.33009034 -0.24261083 -0.021301417 0.5393313 -0.2236024 0.028538203 -0.029391298 -0.10770187 -0.6664192 -0.13509269 -0.20314848 -0.15485683 0.20699348
12 -0.3418697 -0.0035153555 0.4691993 0.28015536 -0.34017292 0.050921123 0.697654 -0.09358692 0.0075731617 -0.13018881 -0.071541004 -0.5683935 -0.12816101 -0.110642426 -0.14027515 0.18637997
15 -0.31375983 0.03771382 0.63645416 0.24639474 -0.42977485 0.099724844 0.6167567 -0.30937013 -0.1085558 -0.19571584 -0.15777296 -0.70230633 -0.15708648 -0.13797498 -0.011817239 0.412986
33 -0.3325697 -0.10036349 0.5446811 0.49990687 -0.321691 0.067297295 0.69477713 -0.24003287 -0.27849182 -0.15492445 -0.12201191 -0.37788862 -0.11080056 -0.1735285 -0.028338574 0.19926235
41 -0.048432373 -0.4041728 0.12196577 0.47172642 -0.12970218 -0.051394224 0.9102522 -0.06944135 -0.15758242 -0.1721163 0.2021408 -0.16321364 0.010135741 -0.488185 -0.2952968 -0.12955222
16 -0.26878467 -0.060531653 0.42976284 0.21718965 -0.38779905 -0.015757494 0.67983973 -0.22661482 -0.14416899 -0.16616616 0.0032425986 -0.45017368 -0.012562177 -0.28172645 -0.14749753 0.1987836
54 0.037495207 -0.8882969 0.8016012 0.42755893 -0.23397991 0.09616254 0.9959889 0.25593156 -0.11355676 -0.4374901 -0.24908775 0.23237798 -0.13470678 -0.30544168 -0.22908004 -0.41782594
