77 16
11 -0.35685483 -0.25742492 0.69240737 0.190662 -0.18181354 -0.49717999 0.47124937 0.21247642 0.039483387 -0.22905037 -0.039942775 0.23349889 -0.5263536 -0.14857592 -0.41108677 -0.0667747
49 -0.5114241 -0.1496534 0.16149858 0.6697169 0.32324278 0.1683726 0.9637851 0.025013868 0.033787478 0.0846234 0.19724286 -0.102169245 -0.042622507 -0.35249627 -0.16296323 -0.17808977
56 -0.27629387 -0.15404187 0.47360036 0.463105 0.18102618 -0.2346272 0.62862265 -0.17204836 0.37707043 0.12888327 0.2501965 0.2796909 0.21604878 -0.27105418 0.016483562 -0.043756608
28 -0.28919387 -0.22538975 0.28729284 0.6951102 -0.094989635 -0.3737716 0.5156666 0.08407969 0.15081072 -0.21610029 -0.112109415 0.47355792 0.04527919 -0.28916094 -0.118232965 -0.21387996
26 -0.33628237 -0.30526057 0.252825 0.9102633 -0.032600556 -0.25042033 0.5456464 0.068991475 0.09709647 -0.2579185 0.09326016 0.38807246 0.2933275 -0.2944845 -0.10730797 -0.2528991
59 -0.40450397 -0.16352516 0.33911398 0.60242563 0.2367557 -0.022405095 0.8930704 -0.14548697 0.1322137 0.10439351 0.3545247 -0.052248918 0.05274604 -0.30727786 -0.090532966 -0.0819414
24 -0.6214052 -0.14647977 0.6655441 0.5184243 -0.28150204 -0.15359466 0.1979354 0.05516269 0.45919135 -0.10528415 0.16731018 0.79814523 0.10331398 -0.3529746 0.14967217 -0.58228785
63 -0.43643165 -0.06339345 0.33416972 0.38358474 0.29301962 -0.011799035 0.85091186 -0.27395093 0.41584313 0.22057766 0.6203255 0.0047325417 0.1385054 -0.23172161 0.009153249 -0.024620153
65 -0.37050232 -0.15971684 0.25388625 0.42090374 0.2663117 -0.05940499 0.98509264 -0.24403314 0.16284114 0.24566548 0.45736876 -0.06423728 -0.009308041 -0.2568457 -0.10644278 -0.019870486
27 -0.15411888 -0.083061256 0.50399315 0.5573054 0.16264714 -0.4356301 0.64108163 0.012863328 0.28161547 -0.20871267 -0.09078822 0.3537436 0.25265574 -0.19816402 -0.18665367 0.14062838
64 -0.43567562 -0.26503724 0.23703046 0.39902988 0.36165243 -0.005653123 1.1542987 -0.40663356 -0.03259798 0.17454539 0.5871698 -0.093688585 -0.14290737 -0.15989701 -0.17847279 -0.04250382
66 -0.34335327 -0.3064245 0.22049071 0.50225556 0.17026916 -0.11136657 0.9034016 -0.4060017 0.10332716 0.1076434 0.5350166 0.11550849 0.018995756 -0.21049303 -0.09094387 -0.036033675
42 -0.31270555 -0.22678342 0.3337965 0.73180455 0.16703147 -0.15246563 0.6629169 0.115023635 0.27105856 0.016731817 0.063891046 0.029104482 0.25434318 -0.24855147 -0.115911834 -0.019668909
2 -0.5751297 0.068132356 1.306233 -0.25618708 0.06537535 -0.38729417 0.7241326 0.5777118 0.6618798 -0.03806266 -0.5995357 -0.25757495 -0.8581201 -0.5224654 -0.62341195 -0.17587878
25 -0.1645081 -0.2673774 0.35611066 0.96229345 0.12830003 -0.29415807 0.68265784 0.10680642 0.10011682 -0.27967936 -0.18629608 0.23798276 0.2511557 -0.25030828 -0.23902874 -0.012187453
58 -0.42532992 -0.1329912 0.23904052 0.4673285 0.39664206 -0.035616428 1.0722362 -0.41504502 0.261467 0.33576408 0.7000663 -0.078892164 0.08179919 -0.27814302 0.014081861 0.004010642
62 -0.43460852 -0.19444083 0.20454884 0.5467267 0.34754023 -0.030946357 1.0997322 -0.24344298 0.14835675 0.26349214 0.5383232 -0.046634953 0.045562577 -0.2102663 -0.013789256 -0.024244234
71 -0.39734393 -0.17843723 0.4612429 0.7723121 0.018211316 -0.13959454 0.28456745 0.14185773 0.23265147 -0.26148826 -0.110181965 0.41782922 0.21408357 -0.40670207 -0.016906288 -0.43221065
60 -0.39641884 -0.11763578 0.24065515 0.46099874 0.451753 0.08223149 1.1206914 -0.30364597 0.29652563 0.34412512 0.67436606 -0.28675956 0.027865333 -0.20323314 0.041073214 -0.1516296
69 -0.41085798 -0.30523154 0.26850805 0.84893024 0.13973904 -0.07560996 0.6267337 -0.019005788 -0.084433645 -0.21357739 0.2511224 0.25940368 0.14615296 -0.33339995 -0.1640084 -0.2781627
70 -0.36616728 -0.29768342 0.2263871 1.0167023 0.15437298 -0.03799335 0.694902 0.022252416 -0.025996754 -0.18603362 0.18426636 0.0981079 0.25414354 -0.34855565 -0.10139958 -0.16982996
67 -0.29595 -0.19865751 0.21595351 0.51988864 0.38536647 -0.06914007 1.145459 -0.2752334 0.26519307 0.26631585 0.4823402 -0.15105385 0.015739046 -0.23897389 -0.008798702 0.14302583
72 -0.47487012 -0.38134152 0.30953532 0.836464 0.07154456 -0.025676116 0.4949231 0.13240701 -0.036281556 -0.24355833 0.0123097375 0.10047573 0.10731761 -0.37194753 -0.21238972 -0.20238438
61 -0.5076858 -0.10194878 0.36929968 0.4427118 0.23992161 0.12574857 0.87867844 -0.23718801 0.342644 0.40191257 0.5333671 0.06953269 0.093085214 -0.20940824 0.13965285 -0.17582883
18 -0.6129128 -0.013130025 0.6365052 0.65865415 -0.12557513 -0.29248062 0.24155036 -0.046597168 0.66126835 0.14629644 0.21188639 0.7470847 0.42028457 -0.46166265 0.41538933 -0.59990215
30 -0.5044359 -0.33884886 0.5566635 0.37576115 -0.14959669 -0.26714897 0.28858206 -0.101312675 -0.12035832 -0.20175764 0.18065083 0.628737 -0.32369393 -0.21865207 -0.30594128 -0.39158997
50 0.044671234 -0.06420866 0.5363407 0.54820734 0.37147123 -0.5976294 0.8669066 -0.129105 0.27786702 -0.20994109 0.16156279 0.4629571 0.31585106 -0.119717985 -0.14302975 0.46704683
52 0.14655586 -0.2707654 0.66433656 0.4900585 0.3230474 -0.5750734 0.840275 -0.1411725 0.27338707 -0.3639362 0.055705164 0.4656661 0.2892292 -0.15694422 -0.32871312 0.59442455
76 -0.31578538 -0.38238946 0.18104954 1.1503708 0.22622128 -0.119695574 0.74985236 0.11580958 -0.1032286 -0.36118874 -0.034955155 -0.065106034 0.31362823 -0.4052976 -0.22885926 -0.030056043
19 -0.81688905 0.027903952 0.7594636 0.73912305 -0.25619957 -0.07100762 0.17866197 0.15124232 0.7207287 0.24370328 0.053342476 0.7731691 0.31006306 -0.47277537 0.563355 -0.8508753
77 -0.4419375 -0.15893829 0.23567897 0.5077484 0.25740105 0.009024946 1.0016416 -0.20043558 0.15065959 0.24719992 0.48611516 -0.045349393 0.13051702 -0.27692035 0.11035633 -0.12863392
37 -0.42709216 -0.32545415 0.7428081 0.14747158 -0.14721291 -0.25001028 0.4033949 -0.2810985 -0.45326024 -0.26823565 0.41728142 0.66813004 -0.7313831 -0.22673897 -0.54039365 -0.4203332
39 -0.43718383 -0.47217464 0.7246549 0.19367638 -0.08235846 -0.3833856 0.43980345 -0.27703562 -0.42049572 -0.3096466 0.44740126 0.7762397 -0.66241145 -0.2114643 -0.48151106 -0.4653812
17 -0.80813956 0.09166169 0.8383019 0.602985 -0.24770865 -0.21481621 0.21114823 -0.010363642 0.8277487 0.2602415 0.30525282 1.0154368 0.47676253 -0.5235863 0.5602022 -0.8495631
20 -0.82837015 0.016791468 0.88688207 0.6729759 -0.27472305 -0.19285017 0.16509141 0.013982946 0.77660555 0.2184539 0.05818712 0.9864958 0.34274963 -0.5611734 0.47822195 -0.93213314
38 -0.44939294 -0.43161806 0.83758074 0.0011645004 -0.098322414 -0.27323765 0.44787958 -0.10966982 -0.44009927 -0.33957204 0.3432836 0.5730954 -0.8282957 -0.14745264 -0.6285856 -0.33151066
23 -0.8617038 0.10698193 0.84696233 0.6095858 -0.18798041 -0.18026844 0.24746604 0.0057318034 0.7834351 0.18546389 0.18173677 0.90726966 0.2751803 -0.4878762 0.57061017 -0.8291913
36 -0.4227654 -0.47458458 0.5943886 0.2632539 0.013701387 -0.33252725 0.49904823 -0.38186944 -0.4317288 -0.27794382 0.43714362 0.61205816 -0.58743566 -0.13434055 -0.38428435 -0.30307844
22 -0.72393453 0.05332559 0.848793 0.67765296 -0.25694484 -0.14080174 0.11421616 0.14214471 0.7811404 0.13457833 0.030473256 0.8324318 0.34924972 -0.5247617 0.4617213 -0.771928
21 -0.7948076 0.05319248 0.6890521 0.64131176 -0.21562041 -0.08688205 0.2604518 0.10614643 0.7736341 0.2672687 0.14953443 0.76029444 0.31408873 -0.54311514 0.4808657 -0.87497944
35 -0.3606422 -0.5224329 0.8222111 0.22126848 -0.07445745 -0.35509253 0.36072615 -0.27448103 -0.3997203 -0.34877267 0.31617117 0.70848453 -0.6793053 -0.17988461 -0.541519 -0.46360067
29 -0.46408698 -0.68344724 0.1611683 0.46968412 -0.19508862 -0.7878793 0.7519756 0.15765288 -0.170993 -0.27455774 -0.39568824 0.270251 -0.4857027 -0.4076395 -0.25664407 0.23187323
55 -0.060963705 -0.1824578 0.42502588 0.6389211 0.3880477 -0.44175327 0.8916575 -0.11691031 0.25073138 -0.26167777 0.062328532 0.3710958 0.29539204 -0.23855819 -0.11893411 0.36571097
32 -0.6330445 -0.23494707 0.63090485 0.44089916 -0.294884 -0.2637205 0.2586075 0.07512228 0.3571248 -0.10945151 0.11034749 0.69462186 -0.03202101 -0.28891724 0.07219566 -0.3608745
73 -0.26355496 -0.17705731 0.40776476 0.654276 0.0156646 -0.38663653 0.4758902 0.04451581 0.22106206 -0.24710104 -0.02796125 0.46228883 0.20139262 -0.22561924 -0.18932693 -0.06758067
3 -0.43333238 -0.08404159 1.1746783 -0.15534212 -0.10679353 -0.45643058 0.62623614 0.6030853 0.2865612 -0.21070053 -0.5158342 -0.02310241 -0.7996581 -0.4866808 -0.6526694 -0.025492316
44 -0.34459928 -0.3068076 0.27401903 0.6189224 0.15902334 -0.31511557 0.6646743 -0.054823723 0.058725193 -0.22623643 0.114740714 0.24955434 0.034821603 -0.23900081 -0.31754798 -0.07542262
4 -0.42069316 -0.11755336 1.0743346 -0.1311511 -0.17322883 -0.35996714 0.5475791 0.5328605 0.42551535 -0.18012562 -0.40204567 -0.030041829 -0.7701154 -0.36918637 -0.5907999 -0.07427555
40 -0.1086693 -0.34200898 0.40160185 0.9447741 0.26234782 -0.40893105 0.70334125 -0.14440662 0.29259863 -0.25171554 0.2402658 0.4551599 0.44678837 -0.17472424 -0.21104056 0.32102337
43 -0.31395772 -0.25507694 0.33205876 0.9923669 0.08051378 -0.29803413 0.5356617 0.17780691 0.20010097 -0.15480345 -0.11246985 0.3532361 0.34882718 -0.35360807 -0.015015446 -0.14284712
74 -0.93141985 -0.14444199 0.10807754 0.8364096 0.3254023 0.20827347 1.2794359 -0.124598384 -0.3417534 0.109220006 0.26562795 -0.4986771 -0.034023043 -0.5593614 0.20557342 -0.18243246
75 -0.8489564 -0.24263099 0.014466437 0.86969787 0.27556163 0.26028803 1.237955 -0.15767473 -0.21902817 0.05073719 0.16616747 -0.35935265 0.024156766 -0.57671404 0.20197983 -0.22508436
53 0.08007201 -0.20642139 0.5677281 0.9899321 0.3210703 -0.5146306 0.89871377 -0.3192545 0.25712413 -0.30659068 0.24916774 0.68792886 0.5487777 -0.16801932 -0.25993317 0.5775278
45 -0.46262655 -0.5971174 0.36850154 0.38568184 -0.25084698 -0.7549313 0.62228024 0.09724772 -0.16246822 -0.3104564 -0.2031818 0.37315312 -0.6092175 -0.30798718 -0.28514186 0.104110315
34 -0.4744281 -0.28118014 0.4320927 0.54910153 -0.16564757 -0.23265472 0.3990266 0.15018451 0.12760672 -0.17855823 -0.066128984 0.2546312 -0.16160183 -0.2993839 -0.3075656 -0.18886517
13 -0.6802442 -0.13127235 0.8336093 0.2285347 -0.23339649 -0.22000915 0.1821378 0.06345901 0.35164437 0.018649513 0.054198835 0.6735628 -0.19538091 -0.37688744 0.12070757 -0.55949855
57 -0.030904787 -0.059749693 0.55300987 0.54913765 0.31156138 -0.5220372 0.77705324 -0.18021071 0.2797642 -0.15617627 0.25310865 0.5422128 0.294854 -0.15359282 -0.15115821 0.3324403
51 -0.03425085 -0.15976144 0.541305 0.86091805 0.22665213 -0.6232179 0.64057684 -0.08236986 0.27047592 -0.25561514 -0.005622075 0.7311439 0.45621285 -0.20190865 -0.22136647 0.21182653
31 -0.6435378 -0.15346749 0.6724803 0.42607966 -0.24509327 -0.112382405 0.18136972 0.2261044 0.4519202 0.030848255 0.04384981 0.5309523 0.06192448 -0.26373866 0.12413467 -0.4808351
47 -0.5829336 0.030703075 0.22417273 0.89184004 0.40920037 0.45734984 1.1474283 0.18836667 -0.14616829 0.62403643 0.24108988 -0.044211026 -0.26717657 -0.19173688 0.08559066 -0.1672486
10 -0.5351472 0.046650954 1.1958538 -0.24050467 -0.05746732 -0.30076846 0.6956491 0.60229504 0.5039828 -0.119447656 -0.4586501 -0.3746942 -0.7980929 -0.51571757 -0.5340309 -0.13528605
1 -0.57659394 -0.04680058 1.329765 -0.30219942 -0.008622776 -0.29662305 0.7677026 0.6769844 0.50008076 -0.119870685 -0.45885667 -0.36785552 -0.9003755 -0.42753735 -0.6441834 -0.09197339
5 -0.51885873 0.014601513 1.2806695 -0.11258235 -0.10651807 -0.33806235 0.74561226 0.6181544 0.5178163 -0.15967496 -0.37924576 -0.17529637 -0.753122 -0.50872654 -0.5385954 -0.10935493
7 -0.5731445 -0.06613782 1.319182 -0.3307743 -0.049162295 -0.41273636 0.6830222 0.6575593 0.4595823 -0.15607694 -0.44532698 -0.2589474 -0.9412201 -0.47085702 -0.53376687 -0.16210015
33 -0.30119616 -0.2414015 0.70176184 0.09014435 0.07381571 -0.39313895 0.60027313 0.07308887 -0.06715928 -0.25289616 0.10264855 0.3561611 -0.5704384 -0.19290067 -0.63929754 0.017798414
46 -0.56132907 -0.7570021 0.2622451 0.49193797 -0.3731658 -0.88867044 0.7204289 0.04847534 -0.2550298 -0.2801873 -0.2784671 0.40938392 -0.77276766 -0.3343938 -0.30022725 0.12621151
8 -0.5653242 -0.032529138 1.2393813 -0.14285848 -0.05274316 -0.35255012 0.79421747 0.5946526 0.39872694 -0.05150742 -0.4737077 -0.34901106 -0.7889767 -0.47687146 -0.51911706 -0.02634287
15 -0.44250393 -0.25030908 0.62225115 0.24917588 -0.14501765 -0.5153185 0.37943134 0.051610794 0.07432008 -0.115378074 0.12779698 0.59266615 -0.50291353 -0.22060445 -0.3062673 -0.19199482
54 -0.0075262305 -0.17555399 0.63365114 0.5940542 0.2570504 -0.4407343 0.6621244 -0.2141514 0.17189433 -0.35700688 0.1843176 0.5461304 0.31110647 -0.11163358 -0.22720785 0.41978025
16 -0.3091089 -0.32300597 0.57670313 0.34217983 -0.109354235 -0.39203578 0.43604654 0.03905751 -0.037958637 -0.2586571 0.10355622 0.48064622 -0.33557022 -0.23596893 -0.37127912 -0.17578362
14 -0.4781976 -0.3481817 0.572126 0.20648737 -0.15545276 -0.33938858 0.4016578 0.13447109 -0.050709162 -0.21595581 0.01189572 0.29466203 -0.4613749 -0.27666906 -0.35779417 -0.23444855
6 -0.5429485 0.040425852 1.2553179 -0.27763054 -0.11675702 -0.33462918 0.6277912 0.7546088 0.5553408 -0.1323822 -0.46277666 -0.24463373 -0.77630574 -0.44904235 -0.48016477 -0.20223309
68 -0.3378232 -0.2443349 0.21361263 0.6955798 0.34491593 -0.016955402 1.1439614 -0.19505407 0.080287434 0.14661305 0.39764738 -0.15655513 -0.0018883618 -0.20576268 -0.08870616 0.1185902
41 -0.36435848 -0.30306062 0.24564561 0.99143404 0.085539654 -0.23978874 0.5670681 0.11349631 0.01085377 -0.17744426 -0.028143855 0.3687293 0.2238451 -0.23050353 -0.15709795 -0.118017
12 -0.26759622 -0.17979556 0.5793812 0.16317976 0.015181562 -0.3803419 0.50960416 0.03173472 0.1128083 -0.10232814 0.021077324 0.39274377 -0.3205444 -0.2594659 -0.24566644 -0.087449506
9 -0.63946986 -0.055419236 1.3420333 -0.31388265 -0.025139188 -0.25818592 0.7630016 0.6579522 0.5412475 -0.09003304 -0.40698442 -0.32513356 -0.9636873 -0.5166029 -0.57523406 -0.26218927
48 -0.52873397 0.005490805 0.24894519 0.8126778 0.43434542 0.3507884 1.2800539 0.0999193 -0.12084764 0.60383826 0.24042496 -0.026463237 -0.21404526 -0.10778257 -0.066284135 -0.030388514
