77 16
11 -0.11932268 -0.047784016 0.45764318 0.49921697 -0.02944503 0.3061629 0.53448623 -0.10677166 0.5646936 0.1016989 -0.19767094 -0.040659994 -0.2483964 0.06888844 -0.62861204 -0.32941616
49 -0.09170673 0.31253907 0.22449802 0.42289728 0.38942364 0.48350134 0.6938164 -0.13449821 0.51748335 -0.24989295 0.34151432 -0.15510646 0.7703804 -0.13948587 -0.29598156 -0.23592721
56 -0.101896614 -0.1667941 0.33608705 0.43173513 0.3298512 0.092510745 0.0874607 -0.27858204 0.41065252 0.03521561 0.0044728997 0.09566905 0.4411799 -0.2367144 -0.7314679 -0.30718383
28 -0.0015203971 0.03482455 0.24248883 0.5426235 -0.0054481174 0.33094686 0.6234139 0.012427805 0.50501287 0.021075137 -0.18171524 0.14681381 0.17732246 -0.058219396 -0.5880404 -0.2836609
24 -0.043349676 -0.36172166 0.5237094 0.75434786 0.1709775 0.08948357 0.8073984 0.038497694 -0.3081231 -0.20209661 -0.11501588 0.30099422 0.43191615 -0.3648958 -0.26272607 -0.43282253
26 -0.09899193 0.040199876 -0.0045805457 0.753963 0.4030685 0.3388812 0.8350279 0.0024120314 0.60194 0.21513799 0.08304625 -0.04475014 0.22728705 -0.0046767024 -0.56974167 0.036615994
59 -0.1298779 0.24690484 0.23193265 0.45101392 0.31887868 0.5527794 0.47846356 -0.08693226 0.70368654 -0.1996018 0.3266541 0.03699462 0.6001325 0.043373533 -0.45250008 -0.19018401
63 -0.10032128 0.2191399 0.28491905 0.57609344 0.57746106 0.49259773 0.32011893 -0.31103882 0.55136627 -0.2916404 0.40421218 0.10446733 0.79486275 0.084303714 -0.4855816 -0.28809166
65 -0.18598874 0.3160711 0.28456572 0.31586215 0.43647236 0.3571087 0.33441067 -0.15215285 0.5274433 -0.11122631 0.49894804 0.06928129 0.9246865 -0.16184594 -0.58707345 -0.21687855
64 -0.12684122 0.17444986 0.43429795 0.4791978 0.42046613 0.39752564 0.33062384 -0.3077739 0.50442207 -0.2028489 0.37601575 0.11648175 0.78532815 0.0042138314 -0.48773727 -0.2486092
66 -0.14904058 0.24626812 0.2507187 0.448838 0.59338725 0.5223273 0.30536518 -0.34052172 0.5478006 -0.16914167 0.30004936 0.18693474 0.7703977 0.12753877 -0.57860225 -0.3597453
2 -0.26387906 -0.0812696 0.99418956 -0.23519538 -0.65161383 0.37254998 0.56030184 -0.21857454 -0.030827168 0.056283496 -0.35394993 -0.5865105 0.08959627 -0.8991667 -0.8819786 -0.36348787
27 -0.11179878 -0.20611589 0.39562953 0.4615921 0.0954302 0.14846243 0.31082824 -0.1020183 0.48034692 0.15125042 -0.20395644 0.13278496 0.16040811 -0.17123495 -0.7017237 -0.31573123
25 -0.12909114 -0.10781103 0.05075795 0.47330695 0.21066506 0.018471422 0.80324787 0.044687904 0.20185459 0.39767298 -0.29432794 -0.18094052 0.07754167 -0.4480668 -0.7933439 -0.11263623
60 -0.075485304 0.1618057 0.36917096 0.4986852 0.45959058 0.49395356 0.27747118 -0.30937108 0.54978454 -0.1690874 0.28219622 0.13791873 0.6342244 0.09455774 -0.6347626 -0.28142953
58 -0.22182399 0.43999803 0.3628227 0.38744587 0.53032774 0.6376058 0.3023245 -0.30297652 0.68980837 -0.2901751 0.513208 -0.034847416 0.8095456 0.014286158 -0.60315466 -0.29093874
42 -0.08656389 0.1897319 0.084807955 0.52454996 0.36104295 0.4748322 0.8185592 0.010576038 0.67967653 0.10605404 0.20832504 -0.10381936 0.18374833 0.12170029 -0.6241929 0.0030140695
62 -0.09456979 0.30001542 0.36846456 0.36448267 0.47802216 0.556354 0.16891721 -0.26542446 0.70137084 -0.21759225 0.27575228 0.14817314 0.7508601 0.040399045 -0.66899514 -0.31463215
70 0.0019296578 0.11633149 0.3103516 0.47327706 0.08494626 0.47370192 0.8461272 0.08606796 0.54329646 0.05754848 -0.024780866 -0.17496471 0.051997982 0.039716467 -0.5695343 -0.050911944
69 0.023247682 0.13665877 0.07307176 0.6433518 0.2812516 0.38540262 0.9267964 0.09708187 0.61454743 0.08807541 0.010678159 -0.12421655 0.16966657 0.06474565 -0.61662185 0.05373963
71 -0.06456923 -0.080329895 0.20152317 0.6424928 0.12749611 0.31394053 0.8041254 0.029533857 0.43362638 0.22071889 -0.16996685 -0.02183582 -0.078782655 -0.08810824 -0.611239 -0.04781385
18 0.042079035 -0.37649357 0.3110693 0.80049795 0.44884855 -0.045424335 0.7201228 -0.18616773 -0.32798785 -0.236278 0.113894075 0.15780537 0.79854053 -0.5737475 -0.30982965 -0.46430704
67 -0.12392606 0.08241783 0.46355927 0.40283042 0.279694 0.49899727 0.20690838 -0.34714162 0.64227265 -0.28414539 0.3745364 0.015935067 0.6179962 -0.006552909 -0.42598078 -0.31075525
30 0.08833682 -0.35293558 0.9023263 0.5631313 -0.08918051 0.5958643 0.6450996 -0.4166163 0.5131323 -0.20471439 -0.359153 0.16556704 -0.3605414 0.07640243 -0.17924978 -0.5218626
61 -0.07048367 0.22713575 0.31415534 0.48931432 0.45777026 0.41002828 0.2430488 -0.23808327 0.65587 -0.19372623 0.43732703 0.17186241 0.7200743 0.051178876 -0.5838926 -0.27358902
72 0.025156323 0.09954358 0.18048431 0.6477066 0.2496682 0.48609883 0.80026543 -0.026208926 0.49291024 -0.070223406 0.038280748 0.0007366305 0.12725973 0.15976463 -0.44525984 -0.17033376
21 -0.008993307 -0.40704364 0.47760954 0.9227524 0.4468435 -0.14733747 0.95169574 -0.013727838 -0.61489564 -0.29930016 0.05911533 0.22592063 0.8708692 -0.6612721 -0.17434283 -0.46563178
23 0.0107632745 -0.5222266 0.6103382 0.85086834 0.30670884 -0.03526476 0.8573531 -0.1393468 -0.52116483 -0.31601295 -0.13071993 0.29952538 0.8015418 -0.67906535 -0.15528311 -0.51184344
17 0.029227681 -0.51646304 0.43170044 0.9544774 0.4376497 -0.07851435 0.90213287 -0.09692821 -0.5495771 -0.2700212 -0.032639407 0.22874239 0.84192216 -0.6394275 -0.30529687 -0.46462908
20 -0.03940114 -0.42577475 0.5281224 0.98648983 0.3399761 0.039690297 0.9183659 -0.013074918 -0.5750856 -0.13501205 -0.03951832 0.2658855 0.80857813 -0.59469986 -0.25005895 -0.48673216
19 -0.041538004 -0.5242131 0.5734939 1.0007446 0.3837376 -0.09915592 1.014984 -0.101712644 -0.6182322 -0.29983765 0.01514841 0.16502693 0.8534423 -0.61762106 -0.12300076 -0.5024001
22 0.034379657 -0.36886874 0.4933315 0.838987 0.2587532 0.0150602665 0.9118824 -0.12559272 -0.7073796 -0.27354485 -0.017590253 0.25192872 0.83658504 -0.6850371 -0.20518833 -0.4884935
52 -0.37731013 -0.4416877 0.10439021 0.5083073 0.21776918 -0.15625618 0.21281393 -0.17513704 0.5716771 0.4690085 -0.06983537 0.14098331 -0.009408824 -0.4832959 -1.0909207 -0.35357147
77 -0.074496984 0.20821795 0.3273938 0.41627398 0.42227733 0.36245131 0.26806745 -0.23384513 0.75549525 -0.16862307 0.39236012 0.021322314 0.6394558 0.057566687 -0.4765474 -0.28830266
50 -0.17716275 -0.29884174 0.13360003 0.5445818 0.22685924 -0.19119547 0.17099512 -0.22707193 0.58828527 0.4740221 -0.32491267 0.112038985 0.1964816 -0.44480842 -0.9815189 -0.32934675
76 0.027315015 0.0019256203 0.15023136 0.57390845 0.26963136 0.30034116 0.86663914 0.064834625 0.39369595 0.04526759 -0.0009947318 -0.08102013 0.23333216 -0.024031842 -0.5301506 0.0017932814
36 0.009145466 -0.1439936 0.93771225 0.4528712 -0.19326153 0.5614052 0.6290572 -0.46705306 0.580321 -0.37363893 -0.36087 0.093709156 -0.36257672 0.07410633 -0.096158415 -0.4594934
38 -0.011109436 -0.23574643 1.1100868 0.36872357 -0.42153788 0.57242996 0.5129732 -0.35215345 0.7607094 -0.21136665 -0.48839355 0.011817381 -0.55932134 0.048582904 -0.27166566 -0.5128653
39 0.021052826 -0.17764093 0.8765389 0.46801013 -0.15740082 0.64042526 0.5068733 -0.37672356 0.75431556 -0.18034546 -0.35227835 -0.023859233 -0.43300837 0.0971019 -0.27254117 -0.46155998
35 0.021956826 -0.23265631 1.0012592 0.4727918 -0.30394775 0.6386932 0.6933987 -0.3545895 0.67370427 -0.19503255 -0.48182836 -0.010914072 -0.56255615 -0.060902234 -0.27814886 -0.5752628
37 0.13825327 -0.4003696 0.9276207 0.59972686 -0.18782105 0.53716403 0.6004954 -0.39968652 0.5626696 -0.2324427 -0.43714553 0.060672842 -0.5881243 0.069133565 -0.29971316 -0.65248656
55 -0.16652998 -0.4110227 0.11680278 0.69094855 0.40398976 -0.18869396 0.27037147 -0.22512537 0.5593277 0.31797513 -0.12631924 0.17124915 0.18817656 -0.30245215 -0.84191346 -0.279299
32 0.00565318 -0.2444014 0.6150613 0.54006064 -0.061267477 0.18420501 0.7484193 0.08536011 -0.036706917 -0.25977692 -0.29376885 0.035004422 0.2729055 -0.42425606 -0.14574617 -0.4074356
29 -0.19144079 -0.12938505 0.676007 0.44645238 -0.39586216 0.4199618 0.44105065 0.38281313 0.3682758 -0.026641127 -0.3946705 0.2994417 0.37760276 -0.2355597 -0.4411705 -0.111628145
44 -0.0502166 -0.26736352 0.30541342 0.63089633 0.019510504 0.08977594 0.53892523 -0.0142962765 0.35149005 0.039642666 -0.20070562 0.14576733 0.098896906 -0.14456138 -0.52221185 -0.35976803
4 -0.21424572 0.13552506 0.8395659 -0.27542192 -0.59094214 0.46945906 0.51477134 -0.020158581 0.23172216 0.12622878 -0.26380414 -0.6159083 0.13092695 -0.80628556 -0.948659 -0.21263541
3 -0.33335343 0.06670714 0.6440113 -0.17450687 -0.3855694 0.24526805 0.37832958 -0.008410249 0.21817622 0.1654825 -0.26733753 -0.54557467 0.26907894 -0.7921243 -1.0463108 -0.18221204
73 0.03434785 -0.07631558 0.40912384 0.31770298 -0.2593534 0.3413194 0.5302332 0.080557115 0.36551318 -0.012403774 -0.2019548 -0.07161011 0.13190591 -0.21058197 -0.6280655 -0.14630675
40 -0.22247118 -0.35759118 -0.07292576 0.8509627 0.57828814 -0.122576185 0.3948233 -0.0628776 0.52428895 0.22978297 0.060247336 0.024209067 0.17400438 -0.26825705 -0.87392044 -0.15899378
43 -0.11711858 0.06490474 0.047525823 0.6354066 0.40218395 0.2822574 0.7548446 -0.015014637 0.4364068 0.21086207 0.021810561 -0.13379376 0.3051203 -0.112613775 -0.57302576 -0.0512683
75 -0.32862464 0.52530825 0.082509674 0.44656706 0.46627203 0.72743165 0.8517426 -0.20348215 0.68131065 -0.021710986 0.38795722 -0.37722978 0.8274971 -0.12193286 -0.1790883 -0.095257305
74 -0.2868862 0.40527323 -0.047037058 0.40731764 0.4282636 0.7974727 0.79591703 -0.23183762 0.93143785 0.031231489 0.3689073 -0.42881072 0.6274835 -0.06655305 -0.32783714 -0.11467634
13 -0.009883352 -0.21081541 0.5247103 0.48166856 -0.1387341 0.18380126 0.64884585 -0.11083022 -0.12361961 -0.04961577 -0.25516006 0.059466563 0.20484729 -0.48705953 -0.34254327 -0.34920686
47 0.025787827 0.18643093 0.40566775 0.6273003 0.25945807 0.13182847 0.4634153 -0.21792656 1.2127007 -0.42035013 0.7316342 -1.0841045 0.7599681 -0.11060385 -0.107198276 -0.17650492
53 -0.37749636 -0.45085752 -0.18767726 0.9636 0.5291717 -0.2256428 0.16500992 -0.14173146 0.6693032 0.4730327 -0.06082116 0.021431843 0.06103028 -0.41479236 -1.1289474 -0.2505182
51 -0.20931122 -0.22605932 0.13808398 0.57499826 0.28272668 -0.034751296 0.43056214 -0.08584953 0.51935655 0.43554553 -0.17458187 0.0165387 0.1579867 -0.2734722 -0.79128504 -0.058465328
57 -0.20618492 -0.1263193 0.23990668 0.436217 0.29130647 -0.075405106 0.096423805 -0.14513221 0.6073384 0.234799 -0.042972263 0.065258875 0.345308 -0.34915793 -0.85666895 -0.27369404
31 -0.0057951594 -0.2770475 0.6067456 0.6833247 -0.06919646 0.070177265 0.8609263 -0.022836626 -0.24381822 -0.2587325 -0.3221953 0.061664812 0.3969698 -0.48506337 -0.20049791 -0.3908544
45 -0.16126306 -0.18102714 0.817176 0.3757174 -0.46784607 0.4760687 0.28756765 0.31444684 0.28259903 0.09081555 -0.42428982 0.25682455 0.19473468 -0.16008762 -0.48995492 -0.3035299
34 -0.019864993 -0.052516695 0.43050718 0.50285184 -0.114359386 0.43468675 0.671171 0.096284255 0.41720447 0.039671082 -0.14507055 -0.16476063 0.0028158803 -0.14042693 -0.3693765 -0.21823204
8 -0.31087455 0.048538752 1.030003 -0.34562838 -0.6879453 0.2865376 0.40820155 -0.13333254 0.15877879 0.17676069 -0.36617967 -0.59871835 0.08763705 -1.043232 -1.1088512 -0.27212214
1 -0.35042784 0.0002047204 1.0770639 -0.35371777 -0.6459278 0.3112418 0.46760717 0.0036378223 0.17737424 0.20679925 -0.4073931 -0.7122699 0.18643321 -1.0324639 -1.2925636 -0.16289102
6 -0.32150435 0.10425857 1.1355588 -0.44733962 -0.72402847 0.35930726 0.5433572 -0.06736969 0.172406 0.19923697 -0.25583777 -0.7844403 0.21232088 -1.1816009 -1.2316358 -0.1890538
12 -0.13152872 -0.18462607 0.46373895 0.40449816 -0.0736127 0.295899 0.52258354 0.007032671 0.4810342 0.09297391 -0.25560895 -0.022940345 -0.11725813 -0.17845841 -0.5544079 -0.2939803
5 -0.35410917 0.08469536 1.0667543 -0.35962504 -0.65316707 0.4275757 0.514479 -0.074555136 0.37860775 0.24994545 -0.3497022 -0.7100353 0.046626013 -0.9677613 -1.2253126 -0.22375102
14 -0.066883385 -0.11755715 0.4805746 0.4942867 -0.18704519 0.30230758 0.6487381 0.0050351657 0.17156366 -0.07242929 -0.24238966 0.041566253 0.06428678 -0.25284877 -0.37374252 -0.2903995
7 -0.35377014 0.06947631 1.0928941 -0.3718146 -0.73379743 0.3478065 0.5773278 -0.052708384 0.0063188244 0.20439738 -0.34862167 -0.8538837 0.24097815 -1.111652 -1.122088 -0.15353729
54 -0.36837414 -0.15806922 -0.03426519 0.6627692 0.4393333 -0.16830087 0.21308456 -0.12050037 0.7492813 0.572573 0.02793346 0.10611864 0.057895284 -0.30481404 -1.1656944 -0.18596336
48 0.13239378 0.33589965 0.4878878 0.58207625 0.31786382 0.30664316 0.3868867 -0.25898626 1.3424678 -0.52864957 0.8004959 -1.1624421 1.0484084 0.0066754734 -0.25003603 -0.1738689
15 -0.039074328 -0.17578 0.6422504 0.34424484 -0.24970801 0.35756576 0.471333 -0.06398223 0.24213733 -0.13741916 -0.2273356 0.015346993 -0.010969522 -0.2519533 -0.37400466 -0.4103475
9 -0.36516675 0.056192618 1.0702745 -0.4355868 -0.75887096 0.40478235 0.4784468 -0.05432091 0.33338976 0.20339817 -0.35481483 -0.8165578 0.10140097 -0.9951907 -1.2149123 -0.24142282
16 -0.03916642 -0.13343242 0.5336319 0.3496295 -0.20327522 0.38037747 0.6100676 -0.039259326 0.35649368 -0.062451452 -0.18924886 -0.07537929 -0.06551265 -0.14502987 -0.41283545 -0.3372096
33 -0.042192448 -0.057064272 0.52288336 0.41320488 -0.08441595 0.48444664 0.5775017 -0.20249869 0.50931865 -0.051670432 -0.1896559 -0.061462764 -0.09769063 -0.11146577 -0.39877883 -0.30133742
41 -0.13208745 0.004125978 0.08071864 0.8019837 0.34532794 0.3951553 0.78674054 0.05114444 0.5426796 0.1920904 -0.06537536 -0.032892205 0.14785115 0.10143233 -0.5655961 -0.1361801
10 -0.28221187 0.0071275933 0.9082682 -0.38206953 -0.55901045 0.30509165 0.39991578 -0.101493336 0.11027038 0.2147076 -0.27324188 -0.67587364 0.08020737 -1.0086418 -1.1397136 -0.24591625
68 -0.23416382 0.3111316 0.19485363 0.32582223 0.587693 0.50717247 0.24643397 -0.1466967 0.9207508 -0.10429299 0.38423294 -0.08393142 0.6718069 0.023809005 -0.74613416 -0.2260581
46 -0.12858257 -0.07922337 0.7603606 0.42647606 -0.46884504 0.45854056 0.4145752 0.5086225 0.30452856 0.10349835 -0.42363164 0.26522762 0.27360174 -0.06782339 -0.5666864 -0.14608338
