77 16
11 -0.26965773 -0.18157063 0.2431908 0.55942994 0.044331603 0.22642359 0.7733133 0.122559205 0.00082020974 0.205222 0.0067708613 -0.43399328 -0.34280935 0.015826795 -0.21752644 -0.055400018
49 -0.372606 0.012505842 0.19715804 0.2463972 0.25974554 0.43521333 0.75291014 -0.06967301 0.26345184 0.3397112 0.26334685 -0.47439015 -0.23862316 0.10157456 -0.12931524 0.12612532
56 -0.41511774 -0.1934907 0.36163276 0.6216227 0.20624328 0.024294902 0.7381253 -0.20588776 -0.12259547 0.31439573 -0.14272588 -0.39022088 0.15143003 -0.15827009 0.089269325 0.19715068
28 -0.2243192 -0.02144282 0.038731374 0.59693366 0.24743563 -0.12935339 0.87675744 0.062137645 0.3509188 0.16366033 0.30852884 -0.17805533 -0.34557554 -0.06839126 -0.39298645 0.051485945
26 -0.18002447 -0.33194765 0.033588864 0.73971426 0.30320397 -0.020610565 0.84460366 0.101157576 0.03707129 0.0706354 -0.012454751 -0.2934768 -0.24919291 -0.21933003 -0.32189137 -0.06469517
59 -0.34497812 -0.18364848 0.16205707 0.49170762 0.23884566 0.4950127 0.74201363 -0.24833402 0.12763458 0.36074433 0.020280538 -0.584839 -0.08045957 0.17802767 0.0027555912 0.1724687
24 -0.6154569 -0.22613488 0.51607335 0.70535564 -0.17055511 0.003591911 0.6531368 -0.13287142 0.37250227 0.053185347 0.05766734 -0.069073096 -0.21951085 -0.43910152 -0.40249118 -0.4556707
65 -0.4635142 -0.13248056 0.28046048 0.5682184 0.31821266 0.4586975 0.65442276 -0.3229797 0.0139189 0.3648699 0.05429475 -0.6292673 0.19679783 0.17821215 0.042846374 0.21616723
2 -0.47125012 0.6060671 1.3746562 0.18928896 0.26607856 -0.2310182 0.6061709 0.47380686 0.7329808 0.49764022 0.63772833 -0.09182444 -0.46692133 -0.06722934 -0.6833144 0.24753565
63 -0.3824311 -0.14222491 0.16914813 0.55550045 0.4699771 0.60956454 0.9044511 -0.25859803 -0.16802342 0.48880818 -0.124636434 -0.7622632 0.19536118 0.34969833 0.18836792 0.42502823
64 -0.54256546 -0.049168356 0.28422263 0.4055838 0.30528492 0.6990652 0.7334452 -0.32136226 0.017149173 0.51695126 -0.026475629 -0.79985255 0.16398712 0.28870234 0.16024625 0.15823619
66 -0.49430978 -0.16035612 0.26953006 0.62278414 0.31697106 0.47200656 0.76316124 -0.34265175 -0.08187506 0.42528108 -0.10320056 -0.6739822 0.34757584 0.19922486 0.12700756 0.32749388
58 -0.4180481 -0.2033354 0.38986018 0.56300265 0.3885044 0.57637227 0.5814987 -0.29902962 -0.037178915 0.3992461 -0.16108085 -0.6766415 0.15906247 0.29298612 0.015238565 0.12992509
60 -0.47630835 -0.10822151 0.27729592 0.49535245 0.41301665 0.5722758 0.71192425 -0.36229858 -0.07089896 0.46660453 -0.08419186 -0.6880681 0.17188841 0.2427719 0.10283775 0.18463753
62 -0.44862944 -0.036770634 0.3406795 0.5545441 0.2015949 0.41327652 0.75139856 -0.29722118 0.00469455 0.39068237 0.034155715 -0.5275048 0.21723013 0.22456507 0.07968673 0.25367394
42 -0.1172788 -0.31425977 0.090863466 0.6936134 0.5835195 0.17495166 0.76227516 -0.03734655 -0.09524861 0.21582398 0.030285243 -0.5138754 -0.33710343 0.019720735 -0.32086107 0.053163372
25 -0.21384747 -0.33399156 0.17692159 0.70535547 0.35862795 -0.31290865 0.97350377 0.095912136 -0.11040838 0.09219385 0.0026929248 -0.13098249 -0.33239812 -0.32708967 -0.17101891 -0.028668037
27 -0.28390884 -0.10116608 0.20799628 0.8076435 0.34249395 -0.2736706 0.9100909 0.15637183 -0.12536436 0.050279815 -0.2723383 -0.20226963 -0.08006898 -0.49871686 -0.020473877 0.028901562
70 -0.11806816 -0.31350037 -0.026878014 0.7015934 0.4917742 0.16311085 0.80761445 -0.10805232 0.10765252 0.16367762 0.03231038 -0.39267033 -0.34311202 -0.011589952 -0.33112445 -0.06758777
71 -0.08159016 -0.3914946 -0.044502575 0.75399256 0.50049454 0.12164226 0.83669263 -0.038962964 -0.0337566 0.08575368 -0.0003844808 -0.45605925 -0.23074245 -0.024965744 -0.30740613 0.030361209
67 -0.5328355 -0.2518053 0.16055176 0.66657287 0.17499943 0.5714002 0.859879 -0.39283273 0.011542324 0.42423376 0.0035029957 -0.64168566 0.18693352 0.11347341 0.16229887 0.21303312
69 -0.076817974 -0.30685648 -0.08447417 0.69276154 0.54931116 0.26648605 0.9072685 -0.13709429 0.02535528 0.16897663 0.039217774 -0.5110333 -0.26263362 -0.017301703 -0.13448057 0.08450538
61 -0.49057186 -0.07526116 0.23118122 0.470233 0.3266862 0.48016155 0.71363616 -0.18755895 0.03424601 0.5449352 0.071637854 -0.5728876 0.18502206 0.20798802 0.028855147 0.40532482
72 0.03450168 -0.30157384 -0.08670732 0.5758485 0.58478856 0.0677739 0.86953616 0.11733963 0.18825698 0.19460225 0.17255548 -0.27958187 -0.56785923 0.06655153 -0.4277831 0.20306781
18 -0.814662 -0.26628786 0.41333506 0.8892897 -0.10797414 -0.25763887 0.8239887 -0.4429543 0.20426567 0.04460941 0.14085753 -0.06881269 0.07866221 -0.6537072 -0.148888 -0.46687418
30 -0.26694205 -0.3119766 0.69855136 0.22042452 -0.018738331 0.45968524 0.3592555 0.1998612 0.20542 0.11953789 -0.33962262 -0.39415455 -0.9380147 -0.21027993 -0.34229034 -0.42755014
52 -0.25618237 0.05082471 0.6012663 0.49183413 0.2587617 -0.2652392 0.7713203 0.42979366 -0.36779714 0.20795022 -0.40406042 -0.31744543 -0.10778105 -0.2994498 0.28065756 0.31303152
50 -0.23582472 -0.230184 0.6365915 0.56760174 0.2621539 -0.07187404 0.88161767 0.3497875 -0.36252862 0.13713858 -0.4873737 -0.3537709 -0.12709272 -0.32639316 0.31335896 0.227616
76 -0.08304558 -0.14763653 0.21371174 0.615639 0.5266171 -0.15889952 0.6454623 0.024706917 0.09601838 0.13715178 0.24798776 -0.3260973 -0.28986126 0.018602662 -0.48309413 0.09184331
77 -0.5716274 -0.058899347 0.331266 0.58387536 0.23652834 0.61337584 0.6858942 -0.37334147 0.0702921 0.470989 0.20682183 -0.5879115 0.20706166 0.32232288 0.13572553 0.102301404
19 -0.85453653 -0.30267364 0.5541214 0.8363526 -0.1569784 -0.27602875 0.90154684 -0.3787675 0.10074769 0.03538896 0.11310267 -0.08656499 -0.009680562 -0.6617597 -0.15475422 -0.60605294
22 -0.77237535 -0.2054635 0.5250325 0.97903943 -0.16827081 -0.26616773 0.94626623 -0.46591324 0.16438873 0.033987634 0.15725881 -0.008316042 0.004931936 -0.7085189 -0.28563118 -0.5411906
21 -0.9332378 -0.2289098 0.57923913 0.8589703 -0.16763474 -0.34901622 0.8512802 -0.39117578 0.23685586 0.10015205 0.18047222 0.08398784 -0.015641153 -0.69870543 -0.219273 -0.5323338
23 -0.77216035 -0.23533458 0.49586946 0.882565 -0.11721892 -0.31249884 0.8885383 -0.36656317 0.23288284 0.047984842 0.10419706 -0.00156215 0.05302294 -0.72176975 -0.25680846 -0.5624646
20 -0.87467754 -0.32800797 0.4712898 0.9210931 -0.27771 -0.18306878 0.74901444 -0.53745204 0.26105243 0.10439864 -0.0544907 -0.016192386 0.059686854 -0.7113529 -0.22270219 -0.7210686
38 -0.26317266 -0.47586992 0.72567964 0.26764607 -0.058991022 0.66935736 0.46639365 0.03768255 0.040970095 0.046312004 -0.39496586 -0.55911815 -0.79104316 -0.21864238 -0.19058771 -0.46837005
17 -0.83948624 -0.10428365 0.6022218 0.9568014 -0.031937934 -0.605343 0.92574525 -0.23759662 0.22117054 0.01781247 0.10249465 0.17988735 -0.01673703 -0.70797944 -0.23548396 -0.3511442
39 -0.21590586 -0.27132872 0.8718485 0.076384865 -0.019107958 0.5337633 0.28013846 0.19995517 0.32074305 0.14459412 -0.28359917 -0.53868115 -0.97002524 -0.08215652 -0.20680586 -0.319151
35 -0.24470487 -0.21239243 0.78073233 0.16592519 0.018437725 0.4541023 0.3397082 0.19847259 0.19175021 0.18705113 -0.28292632 -0.5365337 -0.77302057 -0.24381974 -0.058648527 -0.24086529
36 -0.22721133 -0.35708812 0.81415415 0.1708071 -0.038503487 0.4690758 0.34457323 0.20099108 0.10672302 0.12710156 -0.4341336 -0.52575594 -0.8813018 -0.2552202 -0.2433413 -0.4748466
37 -0.27968878 -0.35024554 0.8146476 0.18552563 -0.05107803 0.577576 0.35989317 0.045393042 0.13991143 0.06921001 -0.32742244 -0.5693068 -0.9261149 -0.21475883 -0.24174704 -0.49386767
29 -0.13692945 -0.5830381 -0.00350643 0.38288683 -0.05816132 -0.0032700938 0.72979915 0.5210889 0.39146945 0.28813067 -0.18177459 -0.39086115 -0.8224631 -0.14745964 -0.53451145 0.19546968
55 -0.45208296 -0.14428516 0.54032385 0.6321761 0.08971232 -0.30098236 0.8878557 0.26313758 -0.2783404 0.09950735 -0.48514125 -0.20061539 0.026354864 -0.58857507 0.33259004 0.08839713
32 -0.42345598 -0.36854762 0.0012759394 0.774851 0.04483985 0.11160253 0.7868924 -0.12022508 0.2839292 0.07355933 -0.107616104 -0.2475874 -0.28886467 -0.33323506 -0.24417134 -0.13045235
4 -0.33538234 0.44155613 1.0819916 0.11971262 0.20804228 -0.0281142 0.47091058 0.41570264 0.5747812 0.36012635 0.40152735 -0.27419937 -0.5186393 0.050791286 -0.49196106 0.17582782
3 -0.3081684 0.42952806 0.94796646 0.10928748 0.16977821 0.09997448 0.49830756 0.38483864 0.45404118 0.40993297 0.34265915 -0.2453174 -0.50580215 0.003867107 -0.4704905 0.19817603
43 -0.11132171 -0.29752162 -0.04463093 0.837606 0.63815856 -0.13984111 0.8757102 0.0048230654 -0.0039561056 -0.0013974188 0.0030151147 -0.34921998 -0.2949544 -0.1681311 -0.36484313 -0.05265459
73 -0.20709135 -0.22552297 0.2703114 0.60162646 0.12587576 -0.02417862 0.74588096 0.18630221 0.097317494 0.14967956 -0.09919905 -0.20751727 -0.26194125 -0.21071714 -0.19001988 0.13542311
44 -0.23478179 -0.058308177 0.4721388 0.44933176 0.16571333 -0.21089345 0.59634864 0.31851363 0.15601102 0.14351106 -0.008088105 -0.24829422 -0.35887188 -0.28131342 -0.24024574 0.15000583
40 -0.2574327 -0.18064603 0.29024604 0.84029615 0.40948254 -0.12646179 0.81112313 0.057823982 -0.42899433 0.32258427 -0.33407688 -0.35946319 0.042773787 -0.27650943 0.23581162 0.16373664
74 -0.28731397 -0.16051018 -0.18479602 0.3862081 0.61067915 1.033855 1.0468119 -0.158724 -0.08602713 0.4721233 -0.046109106 -1.129774 -0.31363386 0.11762325 0.26310772 0.19939256
75 -0.34161848 -0.15055971 -0.18780307 0.38224685 0.570981 0.8976481 1.0886791 -0.13404605 0.029843744 0.43262395 -0.0053813783 -1.0785297 -0.22698173 0.007171322 0.21936028 0.1428757
34 -0.26630625 -0.0691082 0.15808798 0.6381935 0.25812852 0.038885776 0.83745795 -0.094666705 0.044646297 0.18823461 0.022326402 -0.26030335 -0.14423029 -0.20178795 -0.09236065 0.08019135
47 -0.35961574 -0.31197518 -0.073117085 0.27792814 0.41507155 0.7706948 1.169741 -0.02975272 0.026217712 0.57038397 0.4204799 -1.1784776 -0.4181488 0.4718943 0.58726895 0.3801871
31 -0.5822863 -0.40685928 0.026170887 0.9639028 -0.07315208 -0.05109657 0.8211451 -0.1757463 0.2179924 0.14667206 -0.11942426 -0.22627741 -0.265883 -0.49508673 -0.38291162 -0.3021452
13 -0.42927152 -0.23301525 0.4459486 0.4866105 0.056667395 0.07381797 0.5910861 -0.09176901 0.24068126 0.17982589 -0.021627946 -0.2268559 -0.29194337 -0.2506284 -0.1553033 -0.109045446
51 -0.08889221 -0.18274133 0.3626211 0.5018549 0.42005888 -0.044064056 0.8303632 0.35020253 -0.33375484 0.08898282 -0.44186097 -0.45032048 -0.28235206 -0.19868922 0.22168003 0.23154116
57 -0.32172397 -0.09182606 0.32962704 0.5916959 0.34618223 -0.036867194 0.9249852 0.16670792 -0.41808426 0.29878345 -0.4042471 -0.5002292 0.1690759 -0.15714061 0.41282365 0.43776983
45 -0.11684417 -0.3872731 0.25539917 0.4054736 0.16875826 0.11269521 0.5860788 0.48753694 0.25695005 0.2698438 -0.17332648 -0.33446962 -0.60023004 -0.069957234 -0.37726972 0.14975101
53 -0.13407409 -0.21061574 0.2975708 0.79022056 0.45117548 -0.07699574 0.8300673 0.38122565 -0.5478427 0.30316767 -0.4815996 -0.5236731 -0.118455805 -0.38444263 0.33532748 0.24260247
1 -0.413056 0.6210984 1.2514315 0.21959174 0.2936148 -0.26927748 0.4954446 0.37863034 0.71852684 0.37483758 0.6725524 -0.15999168 -0.5664495 0.014302157 -0.6220767 0.25157785
5 -0.5046195 0.54680383 1.459054 0.29206288 0.17732084 -0.39881596 0.61055046 0.57282287 0.8174757 0.32384804 0.58729124 -0.07257232 -0.6364656 -0.13997892 -0.7894662 0.17797533
9 -0.44189274 0.5512239 1.2495065 0.23744741 0.14030486 -0.38822395 0.6129888 0.41378382 0.71327764 0.29372922 0.65882176 -0.087885246 -0.5613468 -0.20510946 -0.65446424 0.13900112
8 -0.39432138 0.5345819 1.3080761 0.23632757 0.32486674 -0.4576962 0.57854205 0.6040504 0.6284619 0.34607464 0.55460274 -0.16750509 -0.5151087 -0.094585374 -0.5311728 0.30994588
10 -0.49162242 0.60642534 1.2666703 0.2055206 0.24180351 -0.27236655 0.47226208 0.427124 0.7984705 0.4070871 0.6909901 -0.06797755 -0.5791891 -0.09975676 -0.7221578 0.12546162
7 -0.5264247 0.6001699 1.2108566 0.30337265 0.18759447 -0.34534 0.5685186 0.42280576 0.69418347 0.4395825 0.67092395 -0.17069674 -0.49702823 0.031607706 -0.6105075 0.2974766
54 -0.20503728 0.016087256 0.58387256 0.53898513 0.2751624 -0.25051135 0.77036995 0.50716287 -0.4952028 0.30828574 -0.5206104 -0.4569876 0.005030048 -0.37557274 0.32703924 0.48343295
6 -0.5649649 0.6569147 1.2152053 0.44885695 0.27121133 -0.49816352 0.67102593 0.4201819 0.71082956 0.4274735 0.7155882 -0.0066286214 -0.43757403 -0.11625896 -0.6141853 0.23503621
12 -0.23969802 -0.09949671 0.4802644 0.37769347 0.14052191 0.16306782 0.5643288 0.11506327 0.2926282 0.14122178 0.03938023 -0.3851224 -0.4179631 -0.08979982 -0.21068142 -0.042483393
46 0.0031013894 -0.53938884 0.18346494 0.40039745 0.049796764 0.0073653786 0.62485874 0.62479776 0.36971018 0.22993894 -0.14074735 -0.3876072 -0.9171848 -0.11932556 -0.63682526 0.055320706
33 -0.230134 -0.13386305 0.39729598 0.42408323 0.22828738 -0.04786767 0.64670503 0.2433007 0.21078445 0.17477511 0.04536268 -0.3597343 -0.49205318 -0.15909417 -0.32684064 0.007445765
48 -0.4759232 -0.23050866 0.027480785 0.31552136 0.3596018 0.8244033 1.2753445 0.037868895 0.032885246 0.63895315 0.4164815 -1.1859397 -0.3323571 0.5192566 0.5480551 0.4222164
16 -0.16055161 -0.12272285 0.35217875 0.3876954 0.24142626 0.1881778 0.5773526 0.10482247 0.23782064 0.17421444 0.02152776 -0.37894702 -0.55123824 -0.04710242 -0.22996926 0.03004568
68 -0.40574828 -0.119193286 0.23549211 0.5621411 0.37427667 0.506363 0.6414104 -0.16190316 -0.12974373 0.43810353 -0.043368008 -0.6614659 0.09724666 0.274952 0.01269777 0.21062206
41 -0.16309047 -0.23531553 0.19748203 0.5147756 0.36958966 0.18691073 0.70197415 0.013005815 -0.06783471 0.18325987 -0.07592102 -0.46198592 -0.4060798 -0.14146842 -0.17748402 -0.033520855
15 -0.23794852 -0.09537319 0.59530115 0.28358433 0.16245729 0.07932801 0.5540143 0.2751576 0.17938553 0.11305457 -0.16911918 -0.34863135 -0.45331773 -0.23964626 -0.15586929 -0.05295874
14 -0.26822484 -0.2564546 0.49756384 0.48481035 0.036338437 -0.057268023 0.6173928 0.21260887 0.14569397 0.10918284 -0.24036232 -0.17008984 -0.5431361 -0.30541268 -0.28273022 -0.17951877
