77 16
11 -0.4755655 -0.39679947 0.7185994 0.3371109 -0.15461823 0.02048719 0.080338575 0.09494472 0.23330894 -0.23094817 -0.6249025 -0.061791178 0.046120543 -0.017430514 -0.22405219 -0.361508
49 0.12519298 -0.40397054 0.41108555 0.46289364 0.23786582 0.27062973 1.0814373 -0.012682243 0.36665997 -0.36070058 0.043158945 -0.16534536 0.15014717 -0.3983987 -0.3310599 -0.4075391
56 -0.3723481 -0.9660839 0.10310835 0.19450855 0.12458354 0.13846649 0.6963007 -0.028827272 0.14834812 -0.111933306 -0.057297584 -0.23048736 0.32052281 -0.12069776 -0.2638117 -0.52159894
26 0.19366044 -0.43008396 0.41740713 0.62741727 0.017342716 0.25806007 0.52977663 0.18619199 0.4180999 -0.52001053 -0.16715801 0.05522876 0.3005945 -0.28999215 -0.22464485 -0.3874997
28 0.10253648 -0.3244099 0.47723246 0.67858744 -0.0235977 0.3460377 0.29203668 0.10342701 0.3925186 -0.46584523 -0.4684935 -0.01160422 0.14160687 -0.20473936 -0.14653315 -0.3827435
24 -0.03507783 -0.5504541 0.7245265 0.38199228 -0.16088201 0.15958938 0.22757494 -0.0187895 -0.2808082 -0.41511 -0.34634995 0.21222422 0.12230795 -0.11183478 0.53454655 -0.4615054
59 -0.2153911 -0.6570807 0.34607783 0.093627036 0.15852472 0.24658976 0.93517 -0.005073542 0.3374875 -0.25378656 -0.070319824 -0.04220409 0.107255824 -0.15381859 -0.18953127 -0.57038575
2 -0.9487652 0.0062916223 1.723714 0.14261445 -0.326574 0.20423913 -0.08754937 0.15435511 0.1894854 -0.48494178 -0.2522142 -0.5899221 0.5238129 -0.6084701 -0.18096519 -0.02062311
63 -0.109197676 -0.5752862 0.29034007 0.33976346 0.23958288 0.18401094 0.96212155 -0.082841024 0.4068384 -0.18904613 -0.07601653 -0.0126814 0.22593397 -0.22284095 -0.3613856 -0.54788715
65 -0.13718644 -0.60977876 0.39462167 0.11299294 0.31288505 0.25685427 1.0187786 -0.24319498 0.47296107 -0.10447493 -0.3084256 0.020035 0.10071011 -0.0037280093 -0.416414 -0.40267968
66 -0.3591817 -0.6668938 0.34609985 -0.07131904 0.2805272 0.23609853 1.2491033 -0.09434512 0.2721236 -0.05253247 0.13777313 -0.23173122 0.24056965 -0.13126959 -0.2895352 -0.6182186
64 -0.059547592 -0.6120309 0.3796433 0.023169933 0.2557529 0.31933546 1.2276337 -0.08431393 0.412389 -0.18957499 0.12955621 -0.229119 0.24924897 -0.20527694 -0.35750723 -0.41794127
27 -0.32916898 -1.1062092 0.26499772 0.4960293 -0.12845765 0.15115789 -0.13536678 0.16225104 0.14361936 -0.38252205 -0.4766043 0.08654109 0.31463772 0.047483645 0.08163142 -0.541219
42 0.12859617 -0.42646164 0.3416505 0.6294301 0.07763766 0.28577322 0.57339656 0.13302645 0.44734812 -0.32780555 -0.20776166 -0.15932468 0.26615027 -0.3079004 -0.23737384 -0.3442023
58 -0.14286028 -0.81648165 0.32739812 0.04588466 0.12630692 0.27864945 0.80024165 -0.024814589 0.18566845 -0.17382225 -0.031323362 -0.08283757 0.28260258 -0.04588986 -0.17876148 -0.48172435
60 -0.13121007 -0.7124307 0.33088216 -0.019859003 0.3365533 0.29492962 1.1596521 -0.12610278 0.33104184 -0.19087274 0.14319837 -0.04676687 0.14362085 -0.080105856 -0.45411098 -0.55454206
62 -0.18341586 -0.8124082 0.19772154 0.100448474 0.29094636 0.23464651 1.0326487 -0.05253938 0.39025474 -0.17533098 -0.0349267 -0.018077223 0.14492679 -0.06937858 -0.36366796 -0.56391203
25 0.06914069 -0.45463958 0.53128046 0.5770627 0.013235074 0.24355543 0.17108919 0.11790457 0.25341192 -0.5044229 -0.28654838 0.05287998 0.253603 -0.24879587 -0.14404537 -0.3924989
67 -0.11819033 -0.5553531 0.35059074 0.20733191 0.40457532 0.20928274 1.465126 -0.15847458 0.18426666 -0.18660723 0.26606077 -0.20660189 0.1654674 -0.23375814 -0.28410894 -0.6885022
70 0.36027315 -0.21938093 0.5941175 0.7816734 0.07039503 0.16861469 0.4831353 0.19129823 0.48892832 -0.5147785 -0.20610686 -0.09019997 0.27751735 -0.38041246 -0.32080328 -0.12226768
69 0.30634287 -0.47823834 0.38250715 0.8477371 -0.023015765 0.2686303 0.57385474 0.14502463 0.4042996 -0.42993957 -0.24182801 -0.013586529 0.17599928 -0.29266492 -0.14076225 -0.29388696
71 0.16242427 -0.4643342 0.40040177 0.6791307 0.08567693 0.24317421 0.603389 0.048958037 0.46501315 -0.3908897 -0.18793462 -0.0669515 0.2746045 -0.30255374 -0.25021237 -0.3362754
61 -0.012762632 -0.7531425 0.26672906 0.15151685 0.31705067 0.30193582 1.1614499 -0.0715666 0.4111266 -0.23505345 0.058032513 -0.0791574 0.21195513 -0.1826355 -0.39439642 -0.4713572
18 -0.17026955 -0.74701226 0.80717456 0.13224201 -0.15228017 0.16293044 0.33293974 -0.10001005 -0.5511545 -0.35595748 -0.13168432 0.2553839 0.094344065 0.028841833 0.62576085 -0.47766042
72 0.12635815 -0.35039276 0.42277157 0.6281671 0.06796933 0.14409709 0.5405663 -0.016160196 0.4041388 -0.34503135 -0.17850904 -0.061887424 0.21481867 -0.33953446 -0.2176411 -0.3874043
30 -0.4646486 -0.34572726 0.59747666 0.5154977 0.06096079 0.12029879 0.1732387 -0.36897224 -0.0028360626 -0.16526994 -0.7913687 0.14397492 -0.16616616 -0.16621837 -0.048801903 -0.58895606
19 -0.077831924 -0.8797514 0.8736411 0.16519651 -0.14872667 0.06681086 0.52410275 -0.08622887 -0.7485202 -0.5391588 -0.0757024 0.46693224 0.070135035 0.022152474 1.0140425 -0.6209074
22 -0.002144458 -0.6785337 0.9632123 0.13885534 -0.15192497 0.13602757 0.4267097 -0.1753364 -0.6874823 -0.55846614 -0.2076123 0.4372316 0.060549468 -0.10273007 0.9107375 -0.5648872
17 0.001208609 -0.8103758 0.9442899 0.19746536 -0.13527639 0.079379186 0.43358478 -0.10401316 -0.8401772 -0.6079995 -0.044791557 0.32435226 0.23779656 -0.108857006 0.9802348 -0.59272707
20 -0.14468987 -0.9390243 0.8208127 0.17795275 -0.25577098 0.16015144 0.36543527 0.013486178 -0.700204 -0.52419406 0.027349284 0.41191345 0.24305825 0.051837716 0.9064538 -0.6708872
21 -0.11733857 -0.76982063 0.9498554 0.17784525 -0.26683298 0.035152126 0.34784734 -0.029210355 -0.679903 -0.57736653 -0.11822809 0.30809376 0.20053579 -0.080088295 0.86345696 -0.60518205
23 0.003997346 -0.93749243 0.8020387 0.20394519 -0.17150746 0.16994594 0.50823694 -0.13634388 -0.76660955 -0.55421686 -0.05157859 0.43813154 0.15388969 -0.015855834 0.86175305 -0.71220505
52 -0.7687334 -1.1982138 0.09244057 0.3316891 -0.32008606 -0.0053753704 -0.17242762 0.1860027 0.20212616 -0.3084228 -0.15184563 -0.178696 0.42884135 -0.19284368 -0.20695469 -0.5412438
77 -0.13580512 -0.5222735 0.36388737 0.16299188 0.28503087 0.19202393 1.2652812 -0.021405078 0.38943234 -0.15940675 0.119733356 -0.19291134 0.23093042 -0.29697925 -0.4574177 -0.58265096
39 -0.4997746 -0.45678395 0.5672787 0.4194961 0.09223211 0.026361976 0.12806858 -0.57830924 0.013505662 -0.10942745 -0.9223242 0.31291243 -0.16775542 -0.08354561 -0.008988129 -0.6757306
76 0.25850603 -0.54084 0.37525496 0.56063926 0.14089957 0.28613684 0.6717358 0.080448195 0.48738578 -0.4379434 -0.18970156 -0.054510277 0.29432228 -0.24641082 -0.36573738 -0.34045586
38 -0.7278012 -0.20998225 0.80471075 0.17131025 0.15040493 -0.068287164 0.31893334 -0.6031723 0.09876202 -0.1423586 -0.80519605 0.15914111 -0.22536255 -0.14303122 -0.19963719 -0.4819125
36 -0.633106 -0.37263548 0.6915804 0.3461408 0.12195676 -0.012274693 0.18334498 -0.624489 0.1635193 -0.16368657 -0.87262267 0.19960688 -0.25447166 -0.074434385 -0.19248916 -0.59525204
50 -0.52975917 -0.9137797 0.1878489 0.35034856 -0.05026097 0.22202612 0.116114914 0.062129296 0.35081473 -0.207114 -0.18880488 -0.14077793 0.3275402 -0.15644759 -0.2420434 -0.5930671
37 -0.71408004 -0.50466967 0.6215603 0.25278598 0.0838183 -0.008948873 0.1474108 -0.60503006 -0.018884968 -0.12158149 -1.0429212 0.26143596 -0.34861302 -0.07056526 -0.1200806 -0.75178427
35 -0.6200417 -0.34202132 0.61885035 0.294359 0.19315334 0.084588625 0.30741474 -0.68557936 0.1649259 -0.05048294 -0.9359728 0.098769374 -0.38890666 -0.09649208 -0.4257222 -0.70127034
29 -0.14111017 -0.75080854 0.70196605 0.28274268 -0.41486126 0.3463004 -0.11986813 0.16944623 0.33272284 -0.12383842 -1.1940241 -0.29224962 -0.060717974 0.002303599 0.13299832 -0.052806016
32 0.094341256 -0.59443 0.487326 0.21249494 0.06106308 0.21658076 0.47046873 0.09908075 -0.2493866 -0.4464304 -0.33589053 0.40400165 0.10030262 -0.08590664 0.6263521 -0.6260185
55 -0.64845645 -0.92229295 0.09609825 0.37766272 -0.09562333 0.13617258 0.109117635 0.12595984 0.45332694 -0.2334641 -0.28201485 -0.19283962 0.43944666 -0.15965673 -0.34150416 -0.49343628
4 -0.83003163 -0.05273628 1.325558 0.10759569 -0.39026377 0.030627236 -0.062437348 0.090190455 0.16853197 -0.29563078 -0.40208694 -0.45536444 0.35968474 -0.48368695 -0.19998646 -0.111044854
3 -0.78411454 -0.093463026 1.2387127 0.12432542 -0.33919662 0.1639142 -0.14541776 0.08975498 0.16513164 -0.27493694 -0.48736945 -0.33475938 0.30369064 -0.49069715 -0.17794368 -0.20232444
73 -0.23983891 -0.53977257 0.44091815 0.54060733 -0.13083357 0.16463041 -0.076502286 0.14061038 0.24547303 -0.3510983 -0.5960288 -0.061027374 0.24556874 -0.11498163 -0.054253373 -0.37316418
43 0.21612991 -0.45930952 0.5344446 0.54491097 0.0694005 0.2757505 0.64682674 0.1642417 0.3823209 -0.42227682 -0.033930846 0.030299572 0.35492045 -0.22237284 -0.31813228 -0.1957169
40 -0.07335582 -1.0824491 0.048215132 0.50367737 0.028126141 0.13714953 0.39221984 0.13169533 0.12235608 -0.46326822 0.049716264 0.038661793 0.31178877 -0.09373706 -0.07660544 -0.53221965
44 -0.2629872 -0.6670428 0.42967105 0.5442536 0.0011022092 0.179407 0.052639265 0.015618086 0.21121202 -0.25317705 -0.5710086 0.016791997 0.09692266 -0.11375926 -0.06485159 -0.48292992
47 -0.3445486 -0.07415336 -0.030371381 1.1455667 0.2853695 0.19945991 1.4600239 -0.084608406 -0.116996996 0.0031988965 0.25349846 -0.6324565 0.3857118 -0.7352608 -0.3177131 -0.5887876
13 -0.2061648 -0.50796014 0.7184639 0.28511855 -0.14617798 0.18477368 0.16264433 -0.09435067 -0.2363789 -0.3648174 -0.44965762 0.15028818 0.07767735 -0.14090516 0.4686908 -0.47037444
75 -0.24113566 -0.41424975 0.2686498 0.5889867 0.16936384 0.2598289 1.0007973 -0.2506144 0.17021853 -0.19221427 -0.05983852 -0.36758006 0.09483213 -0.37714574 -0.15027282 -0.58087206
74 -0.21694455 -0.55135447 0.1577064 0.5417249 0.19635178 0.19793555 1.0185927 -0.21647508 0.29075173 -0.19333093 -0.012110103 -0.40413907 0.036371566 -0.35981065 0.011818101 -0.5815338
45 -0.27499282 -0.6325274 0.634749 0.49439564 -0.41692066 0.33341032 -0.20056498 0.09017826 0.33270296 -0.17570588 -1.0028183 -0.24504812 0.021048345 -0.07728799 0.03289297 -0.24376328
34 -0.4455983 -0.47250077 0.69157517 0.36882576 -0.032595757 0.17537375 -0.04955238 -0.1337919 0.20894678 -0.17362116 -0.8820678 0.038964245 -0.010870043 -0.08956468 0.0069024484 -0.34064522
31 0.100248225 -0.5897872 0.5541167 0.2786117 -0.08268555 0.13969706 0.51957643 0.08659042 -0.60884863 -0.5036486 -0.27156645 0.40491992 0.07858638 -0.15572931 0.8221402 -0.75903344
53 -0.3595088 -1.1926626 0.05653991 0.5454519 -0.16533852 0.03375856 0.1665407 0.18184322 0.115609705 -0.41931003 -0.0036194867 -0.055731907 0.5846536 -0.1358712 -0.007865244 -0.4375672
51 0.016864005 -0.7830676 0.35581782 0.5348706 0.022794439 0.3115771 0.300387 0.1052712 0.108288184 -0.36247006 -0.22922966 0.12097504 0.32231113 -0.04710356 0.0653208 -0.5215561
57 -0.42600116 -0.9143922 -0.027764931 0.48414248 0.084554754 0.20382369 0.45144638 0.06056946 0.25157577 -0.13311777 -0.167401 -0.14514591 0.21630043 -0.14140703 -0.20438439 -0.6611955
1 -0.9319742 0.033219006 1.7302424 0.0045114057 -0.43939373 0.050860327 -0.090200305 0.15013717 0.1418977 -0.42405638 -0.25713497 -0.5038007 0.41240045 -0.6550163 -0.11675669 -0.0340241
6 -0.9191084 -0.051354103 1.8903967 0.08364267 -0.4270672 0.090015344 -0.057038523 0.25189856 0.20288669 -0.49187604 -0.41056424 -0.58216965 0.4653133 -0.6275833 -0.22487286 0.056954693
10 -0.9188204 0.0881104 1.7769059 0.018425273 -0.4325754 0.10589915 0.01683845 0.122656554 0.28476545 -0.3970564 -0.37329102 -0.6426289 0.29027334 -0.69120985 -0.30191788 -0.0075544133
9 -0.98784935 -0.010576872 1.6713848 0.076705694 -0.32229248 0.031509258 -0.0051775496 0.2295504 0.28370768 -0.3914416 -0.25766185 -0.74667674 0.42222098 -0.6819881 -0.2877686 0.035365805
5 -1.0290878 0.045272484 1.7364181 0.08854081 -0.32202157 0.11847681 -0.05702781 0.1140397 0.3207722 -0.34051928 -0.42636478 -0.54925656 0.37593922 -0.64664996 -0.3229006 -0.021250362
8 -1.0412854 -0.062237006 1.6578685 0.10912958 -0.4769329 0.026402187 -0.09184138 0.23377708 0.25615004 -0.40317246 -0.3552002 -0.70224184 0.44261527 -0.67545265 -0.31220126 0.015761236
7 -0.98697585 0.07746648 1.8569295 0.0019789273 -0.43675208 0.0286021 0.07712385 0.17278409 0.12185737 -0.39495176 -0.3184491 -0.6082508 0.42472923 -0.6938013 -0.22983879 0.025900919
16 -0.32208803 -0.33788574 0.64912915 0.48049724 -0.018021952 0.15008862 0.17916924 -0.022958942 0.23871668 -0.21176578 -0.60061747 0.025740681 -0.0031401538 -0.14114213 -0.09618764 -0.39882433
46 0.01866702 -0.7181959 0.72564554 0.47361484 -0.41173488 0.38242522 -0.17696454 0.14261912 0.32068425 -0.30155033 -1.0454599 -0.21750116 0.0975585 0.12274249 0.27878356 -0.19906929
48 -0.42874858 -0.25976706 -0.09886801 1.2338668 0.17122923 0.14040524 1.5314513 -0.06520835 -0.051291008 -0.00048175966 0.29960912 -0.77448076 0.30948097 -0.861643 -0.56786484 -0.7530671
41 0.23477495 -0.66498905 0.5162935 0.5675356 -0.110049255 0.17173949 0.32030496 0.31442228 0.25812766 -0.5493911 -0.18064246 -0.046592407 0.32559615 -0.2410791 -0.027992044 -0.24130107
54 -0.63433105 -1.0232877 0.24397038 0.2920745 -0.25210807 0.06592267 0.07248512 0.13468139 0.12137884 -0.34635603 -0.12694845 -0.14690964 0.40833524 -0.103873774 -0.01123612 -0.54030216
33 -0.39578122 -0.30066323 0.6170007 0.35036144 -0.021759532 0.18813172 0.20334211 -0.192957 0.15567644 -0.1882827 -0.5370886 -0.0704717 -0.059968866 -0.15267394 -0.0355947 -0.32004258
12 -0.39733306 -0.35264483 0.5696139 0.51584774 -0.037356727 0.16422525 0.15975042 -0.08022768 0.07680866 -0.19845034 -0.585886 -0.055338252 -0.029932925 -0.12813596 -0.07145939 -0.39624408
14 -0.36160943 -0.34030893 0.64383537 0.35167998 -0.011047131 0.1860288 0.06119767 -0.19695348 0.16914737 -0.1863373 -0.7065288 -0.05911486 -0.09847749 -0.17054074 -0.14641766 -0.34404504
68 -0.13415033 -0.62906694 0.39725107 0.009895768 0.22958905 0.28152758 1.1266072 0.08691835 0.14802323 -0.21314783 0.22882704 -0.21402237 0.23381789 -0.21854112 -0.16065186 -0.48814636
15 -0.41077983 -0.45121986 0.6474086 0.37630633 -0.10702866 0.1857226 0.07486715 -0.024106355 0.15031229 -0.18419829 -0.6053828 -0.028777767 0.051928997 -0.08244865 -0.07989409 -0.36168283
