77 16
11 -0.33770788 -0.28454354 0.33917478 0.5019289 -0.1452503 0.3647108 0.7564959 0.20260891 0.25371692 -0.2545518 0.210988 0.100308076 -0.35819495 -0.10799314 -0.21624254 -0.24852304
56 0.039787315 0.1803973 0.110231206 0.32050714 0.05364337 0.21002741 0.8527569 0.111172035 0.31013724 -0.2876847 0.39465362 0.2112144 0.022955794 -0.059999056 -0.5595009 0.01493317
59 0.1713474 0.567114 0.27602947 0.5004386 -0.16189599 0.086567804 0.9479643 -0.10028122 0.24937557 -0.025576288 0.13566132 0.20791864 0.37183362 -0.22059135 -0.33373857 -0.07947023
63 0.23071948 0.7670763 0.22524151 0.5191259 -0.11536032 -0.05500643 1.0678945 -0.2815447 0.17276819 0.15043645 0.13176703 0.23266788 0.56439286 -0.3218561 -0.47640532 -0.02715417
27 -0.2414718 -0.2560126 0.24849457 0.3926034 0.08062877 0.19132723 0.74216074 0.049250294 0.17590664 -0.29931235 0.10928133 0.063515924 -0.088028416 -0.20930639 -0.5217248 -0.41169795
60 0.15629867 0.60225356 0.30324772 0.5115388 -0.12602876 0.0464887 0.9955924 -0.1584037 0.13364938 0.116334625 0.26344702 0.16498789 0.5471202 -0.20150335 -0.36701766 0.1754547
26 -0.13127095 0.13135274 0.27202523 0.661476 -0.023770608 0.39763236 0.65607566 0.3253416 0.3755255 -0.3659611 0.21549225 0.11839522 0.17808226 -0.03562579 -0.08612289 -0.40290853
65 0.049969263 0.5034838 0.33063194 0.41216868 -0.14841357 0.08644858 1.000975 -0.20800374 0.15841986 0.15420048 0.25535712 0.15668827 0.33800906 -0.2705414 -0.490866 0.1051872
49 0.073198706 0.6107244 0.39581218 0.6553805 0.17935129 -0.1416325 0.926933 -0.2045998 0.13422278 0.15485817 0.06665497 0.11607729 0.73074305 -0.3084877 -0.47412482 -0.16982727
24 -0.5351761 -0.4401668 0.40311697 0.5967851 -0.39395788 0.5817731 0.7321118 0.41904122 0.36428288 0.10289164 0.35777968 0.48915997 -0.31131557 -0.26733056 0.23143478 0.31059915
28 -0.30779514 -0.06407159 0.20503815 0.44912642 -0.12605572 0.39181188 0.68467706 0.1388936 0.25095946 0.06458997 0.07327683 0.13349836 -0.008672512 -0.15328494 0.015995877 -0.13432568
66 0.10557633 0.66654885 0.36379027 0.45223662 -0.18775931 0.0014630217 1.0985812 -0.24844101 0.10503815 0.2208923 0.17650889 0.09517645 0.6077369 -0.30267367 -0.36580154 0.13020407
2 -0.366783 -0.75714296 0.32457694 1.23032 0.6356962 0.24662413 0.65244484 -0.08585767 -0.33038148 0.3821675 -0.30172923 -0.12556711 0.24960133 0.06035123 -0.4214815 0.08039785
64 0.05521542 0.5579851 0.23567244 0.4423979 0.0005621067 0.09000153 1.0469011 -0.20511428 0.2039488 0.06168442 0.13319471 0.10269798 0.39687225 -0.21069466 -0.4711707 -0.14483051
62 0.15267842 0.43266758 0.24978094 0.44121346 -0.32409126 0.07962243 1.0139706 -0.14326595 0.036606535 0.16373785 0.24545468 0.25513828 0.34487695 -0.14579609 -0.35757524 0.39459208
25 -0.28858194 -0.25559336 0.3210933 0.7014557 0.0012017377 0.48318806 0.5954542 0.47181398 0.4583961 -0.4319288 0.34266162 0.18726818 -0.1433071 -0.18772614 -0.11014663 -0.4203923
50 -0.010995113 -0.22764431 0.14270405 0.48502636 0.22250316 0.08664014 0.84727424 0.16627984 0.19315061 -0.3574312 0.47579417 0.15118934 -0.08645877 -0.020913867 -0.7103002 -0.12520717
70 -0.1095451 0.20755978 0.41308603 0.8831317 0.21571004 0.48236874 0.51577747 0.40457723 0.34235108 -0.5118436 0.18499564 0.053485494 0.26134235 0.0040486567 0.05496393 -0.58469915
69 -0.093358606 0.24974659 0.4400525 0.7524096 0.07041204 0.42683336 0.67516965 0.30643398 0.5308674 -0.36163294 0.15395553 -0.001606111 0.1689323 -0.11321589 0.07966226 -0.753091
52 -0.05739283 -0.30499652 0.20642455 0.3054375 0.15811759 0.08423701 0.82525486 0.05038568 0.27754357 -0.43705755 0.37711874 0.0841794 -0.15150817 -0.1634004 -0.7606486 -0.18826143
18 -0.28754815 -0.33423305 0.33419102 0.6954318 -0.59266937 0.38328764 0.8168919 0.59120715 0.3772244 0.27135918 0.58524173 0.60360014 -0.20816271 -0.37935972 0.22414595 0.76751566
20 -0.36699957 -0.5561305 0.2753847 0.74988604 -0.6304283 0.59717387 0.8934949 0.6382825 0.5009121 0.2304517 0.5389944 0.5947928 -0.38899636 -0.406971 0.32271284 0.5492757
22 -0.43952194 -0.43922362 0.29669082 0.69960135 -0.47782576 0.61183846 0.7608202 0.555111 0.38763094 0.18313822 0.55676436 0.49357402 -0.23623154 -0.36446565 0.30295116 0.50454754
4 -0.36672208 -0.71662146 0.34331876 1.2392302 0.70474696 0.35187694 0.6339983 -0.116461635 -0.37340683 0.24377027 -0.28445947 -0.1761488 0.118984595 0.18946575 -0.368347 -0.064068824
21 -0.4924867 -0.6414189 0.39748868 0.79030836 -0.5287777 0.5493219 0.7225255 0.6667676 0.42618418 0.1703999 0.52271706 0.566355 -0.34639522 -0.39125356 0.28268927 0.41211373
19 -0.45943815 -0.46914577 0.3238602 0.7147583 -0.67508423 0.5872801 0.9235342 0.6821903 0.437056 0.3132653 0.5803547 0.71796525 -0.35932696 -0.39466542 0.25107947 0.7094603
23 -0.4449908 -0.5199179 0.3633594 0.7507768 -0.54115134 0.47902772 0.88401693 0.67876786 0.39347637 0.21189155 0.54493463 0.6530343 -0.36129093 -0.3956808 0.23377809 0.6716239
17 -0.42411274 -0.47093788 0.43389514 0.6510044 -0.6545787 0.5553962 0.9055443 0.55842924 0.5021028 0.2319722 0.41982415 0.6606437 -0.26239496 -0.54742104 0.2697037 0.4953892
3 -0.33994976 -0.8183972 0.37497216 1.4577006 0.7735345 0.28487927 0.6802136 -0.045624 -0.44545913 0.24049364 -0.21681838 -0.15037102 0.27675927 0.10725583 -0.3105224 0.11835282
71 -0.2120128 0.1640008 0.47440374 0.88526326 0.12656285 0.59900826 0.4768568 0.45313367 0.43670994 -0.4474765 0.17754193 0.08719997 0.18575332 0.04305209 0.15865165 -0.78254724
42 -0.024382042 0.16799644 0.34821784 0.5802785 0.03656331 0.3008942 0.7291086 0.2698829 0.3063914 -0.502291 0.2722513 0.0233502 0.263668 0.008221749 -0.28199512 -0.61773306
61 0.16414876 0.6025601 0.28834763 0.47137693 -0.1605107 0.091069266 1.0162429 -0.2516468 0.11537897 0.024146438 0.22950564 0.17323692 0.3836195 -0.25077718 -0.4893495 -0.044643793
35 -0.38332495 -0.51095676 0.43681562 0.3171872 -0.091547236 0.2211732 0.9271903 -0.31882578 0.07961406 0.28860742 -0.28249422 0.10269249 -0.24365908 -0.5979518 -0.48145902 -0.7393921
67 0.17025916 0.67377174 0.34122485 0.42285854 -0.16572864 -0.0101056965 1.0649266 -0.19783626 0.06691866 0.3013768 0.13168366 0.12538412 0.5295852 -0.24163882 -0.4826111 0.089528896
36 -0.4498323 -0.61677575 0.49087194 0.31502968 -0.22741456 0.33788046 0.8472349 -0.26836818 0.29743943 0.30147982 -0.41053042 0.074715935 -0.3318771 -0.728447 -0.34198195 -0.87183756
58 0.21594733 0.5808929 0.31813142 0.40114433 -0.06981067 0.040646575 1.0212735 -0.101305485 0.13694404 -0.059641466 0.25763816 0.22798084 0.5264009 -0.14371084 -0.5003279 0.13313231
29 -0.45933905 -0.22857109 0.3513998 0.542035 0.038056917 0.35895297 0.79249036 -0.098805755 0.18033645 -0.28306907 0.059445433 0.10332198 -0.37960747 -0.12948483 -0.15924661 -0.14766094
37 -0.6185065 -0.89584106 0.5873222 0.30195978 -0.38196376 0.32130966 1.0271349 -0.31441507 0.25035128 0.49018526 -0.40057734 0.17751619 -0.6086664 -0.82043785 -0.2905655 -0.64790213
76 -0.13793828 0.16619915 0.46052453 0.7101934 -0.012037245 0.57403505 0.49438697 0.4562731 0.590623 -0.4755523 0.25723138 0.043636832 0.21888305 -0.11635961 0.10092214 -0.7170326
39 -0.46047637 -0.69785553 0.465432 0.30829108 -0.17548132 0.323097 0.8999091 -0.15109909 0.17045149 0.34086794 -0.40028659 0.07270907 -0.43625107 -0.68703794 -0.36447605 -0.76989967
38 -0.46741468 -0.8337152 0.6211403 0.32303727 -0.17336059 0.40558967 0.94892794 -0.37515447 0.12230455 0.38861978 -0.3834779 0.033646345 -0.5501683 -0.69855446 -0.47557244 -0.79249704
30 -0.5115664 -0.74145263 0.39445594 0.25810423 -0.30175224 0.37953088 0.8896638 -0.06312496 0.23154035 0.3008702 -0.20762827 0.16563241 -0.5535163 -0.6513453 -0.24184084 -0.4676461
72 -0.21178384 0.123256944 0.48059863 0.6968362 0.06880902 0.51509666 0.5581518 0.4943668 0.4831376 -0.40116203 0.19102785 0.11727386 0.16462389 -0.14471738 0.16408052 -0.57646555
32 -0.41520563 -0.5154268 0.28416145 0.5560434 -0.18332899 0.3595153 0.69816506 0.23042808 0.25282648 0.03635117 0.08056347 0.29690447 -0.19447191 -0.25633135 -0.07503645 0.061212108
77 0.11474652 0.6456452 0.29672733 0.41761202 -0.10236921 -0.05080833 1.0075867 -0.25588307 0.18620725 0.080395 0.13048896 0.17309225 0.5232301 -0.30583423 -0.569143 -0.14548491
44 -0.20519663 -0.104899995 0.3061452 0.43143037 -0.07108379 0.34208867 0.75013506 0.096577786 0.15374558 -0.059028152 0.10518664 0.16702817 -0.09145639 -0.22914156 -0.34320608 -0.183639
75 0.10336587 0.9285378 0.3092216 0.8518309 0.35571083 -0.35412052 0.9243762 -0.25574905 0.3749303 0.035529234 0.13094553 0.22054765 1.0619289 -0.56915224 -0.59796536 -0.23316498
43 0.006563887 -0.041327793 0.2713128 0.7670831 0.12787527 0.34096816 0.65968966 0.36613703 0.39405185 -0.5654405 0.25179115 0.0937288 0.21497779 0.08557512 -0.34196505 -0.44821432
55 -0.04088959 -0.13923226 0.23618479 0.28730288 0.03156192 0.0542838 0.8664654 -0.049339604 0.25312778 -0.16588971 0.27719685 0.11284676 -0.110382654 -0.2237625 -0.7287896 -0.123963974
74 0.14859354 0.86702 0.3728055 0.85873485 0.27328277 -0.32233024 0.88947546 -0.2936589 0.2284623 0.13171302 0.14268504 0.23115635 0.868685 -0.5852207 -0.47554156 -0.27834994
47 -0.26623654 0.7366033 0.67733556 0.66073084 0.41329703 -0.19471723 1.2717129 -0.3758177 0.11591506 0.16832854 0.27997458 -0.19841157 0.8486007 -0.76753324 -0.0021967823 -0.37188408
73 -0.24935524 -0.11884176 0.25136068 0.5009634 0.08998688 0.33470684 0.7286596 0.030664448 0.1982725 -0.1621949 0.11112684 0.032513756 -0.036690615 -0.1691359 -0.25331843 -0.2849562
45 -0.3274193 -0.11580162 0.33357325 0.45793417 -0.14653486 0.42623806 0.7870799 -0.15970412 0.15063994 -0.08394446 0.09693293 0.09532632 -0.38519925 -0.22839142 -0.26658517 -0.06111833
40 -0.03201435 0.17535478 0.3267583 0.4291573 0.034079608 0.08719702 0.867438 0.19005714 0.43945986 -0.39598647 0.48402506 0.09334311 0.19085026 -0.1630003 -0.39470443 -0.43642205
13 -0.38104305 -0.33250785 0.26215652 0.6100658 -0.46577185 0.46410856 0.64245015 0.4403971 0.3971694 0.10600018 0.2908403 0.37005213 -0.28449962 -0.36258173 0.05949039 0.2240053
34 -0.24369812 -0.15447512 0.31551763 0.5062391 0.06663264 0.24038103 0.77738154 -0.08086746 0.09985605 0.001325082 0.055583425 0.12046497 0.029184047 -0.20180383 -0.25080076 -0.10161767
31 -0.45488453 -0.5121588 0.39927134 0.6318843 -0.23910171 0.4032533 0.6408696 0.39497143 0.23734993 -0.015511674 0.089035675 0.34801903 -0.3186108 -0.2765816 0.04033009 -0.011588214
68 0.13969716 0.52912503 0.24753273 0.6834457 0.00048808567 -0.034671497 1.0247816 -0.07653658 0.1635386 0.03335412 0.21821441 0.16305645 0.59149027 -0.15115315 -0.40163305 0.20187286
53 -0.060205806 -0.022376709 0.36358994 0.4728755 0.1554279 0.18504162 0.803978 0.17539366 0.3822972 -0.329223 0.43782163 0.17684706 0.14895715 -0.082564965 -0.6280173 -0.41492477
9 -0.30437362 -0.6608034 0.21683069 1.1803682 0.69639635 0.2180854 0.6542197 -0.075371966 -0.3772613 0.23916292 -0.16975427 -0.19696157 0.10407928 0.10527694 -0.43464923 0.021433283
57 -0.015435053 0.14160173 0.27940693 0.53620684 0.029173901 0.112811856 0.7498566 0.09626577 0.22798201 -0.30564073 0.4189507 0.19894317 0.12509522 -0.12718606 -0.41705996 -0.011675713
51 -0.09436973 -0.13500975 0.27064016 0.4400705 0.022865262 0.16975245 0.76806843 0.08563668 0.21466275 -0.12922457 0.1382439 0.16134731 0.0465926 -0.17725424 -0.48630157 -0.058707584
46 -0.2800524 -0.17090935 0.4029506 0.5479324 0.056660824 0.32072172 0.75546175 -0.09148031 0.12250938 -0.046133094 -0.0017943268 -0.07173076 -0.17272596 -0.23157324 -0.30822328 -0.25110304
48 -0.112497814 0.7753341 0.68918824 0.60400766 0.38922742 -0.23351714 1.2672459 -0.2530919 0.23941049 0.034490556 0.30635467 -0.12769274 0.84185964 -0.66181177 -0.16565806 -0.37531874
7 -0.339953 -0.6244034 0.27804604 1.1266102 0.70282006 0.21344726 0.6758509 -0.08949966 -0.27416968 0.23849481 -0.12136476 -0.09511495 0.13161837 0.070744455 -0.52585167 0.03923952
10 -0.26842612 -0.54035366 0.28078333 1.3106208 0.5931667 0.15859938 0.758576 -0.056900907 -0.3384918 0.18972541 -0.12443738 -0.11497387 0.1916706 0.10997806 -0.4210628 0.07050962
5 -0.29112825 -0.5189537 0.31470832 1.0026422 0.38610294 0.19102213 0.6881825 -0.02416048 -0.25898188 0.18933006 -0.12782729 -0.087380245 0.11186888 -0.011031209 -0.34855312 0.07859652
8 -0.2885869 -0.46003747 0.2704692 1.0512292 0.49773705 0.116379 0.6572328 -0.061379414 -0.2162318 0.26243827 -0.073171124 -0.010834515 0.04070366 0.02396855 -0.43057504 0.06885005
41 -0.18959726 -0.087178886 0.40201035 0.6276192 -0.030342577 0.36771056 0.6717325 0.21023211 0.3248464 -0.17025405 0.20262514 0.09676887 0.08134207 -0.12205919 -0.122197635 -0.19052188
6 -0.31237945 -0.6065112 0.28637993 0.98488015 0.35295746 0.18033059 0.68369544 -0.048699155 -0.22607364 0.2199752 -0.086335994 -0.076093726 0.010266158 -0.09997675 -0.32150763 -0.039702244
16 -0.213436 -0.18944614 0.29445687 0.5411142 -0.040963765 0.19805989 0.70887464 0.13687618 0.20395933 -0.03166944 0.12071118 0.11611121 0.059922617 -0.19559917 -0.28564703 -0.08466204
1 -0.3471884 -0.69686234 0.2375577 1.1342248 0.48918146 0.2313266 0.6645909 0.054872923 -0.30807915 0.25073367 -0.051890712 -0.03875485 0.071414575 0.108534224 -0.3057405 0.12902147
33 -0.19418725 -0.22141749 0.23605873 0.6031011 0.0046904366 0.28368464 0.6957296 0.023912191 0.09577984 0.13478716 0.07383733 0.11208787 -0.038524855 -0.16201778 -0.15922606 0.038547
14 -0.2349956 -0.077255465 0.28160757 0.56931615 -0.014366345 0.22908832 0.744231 0.084053755 0.15507807 0.06599842 0.097947076 0.11769424 0.034617513 -0.18346797 -0.27429238 -0.12630701
12 -0.21605285 -0.29628572 0.26764336 0.4886372 -0.020209959 0.31903243 0.74072206 0.08348528 0.120908074 0.06938439 0.13241655 0.13945211 -0.11595025 -0.2768798 -0.23843046 -0.111131124
54 -0.028411131 -0.025647478 0.30200824 0.4087437 0.13874818 0.124476805 0.845653 0.018133948 0.17987143 -0.12850705 0.16416158 0.07309282 0.06875834 -0.14396253 -0.6170004 -0.11839731
15 -0.2600783 -0.26825413 0.36862224 0.48122022 -0.15304953 0.2611771 0.7210881 0.14096072 0.19348824 0.15643515 0.044715595 0.24482703 -0.116208605 -0.25732145 -0.22306882 -0.054868873
