77 16
11 -0.40817586 -0.019549742 0.50669336 0.30755648 -0.0902774 -0.076352075 0.6742067 0.1314993 0.10799808 0.004837979 0.14996167 -0.14871164 -0.33003888 -0.31826583 -0.1862495 -0.33655387
49 -0.15014121 -0.16923971 -0.2287193 0.50091225 0.32678598 -0.06757726 0.7160434 -0.09691119 0.4610577 0.61205614 0.24229379 0.31924012 -0.12517008 -0.4953774 -0.8232869 -0.15446654
56 -0.41283774 -0.5140428 0.25023422 0.4827269 0.34029055 -0.18870947 0.50345206 -0.21104166 0.079630755 0.3738261 -0.17008974 0.052010346 0.057586707 -0.44988224 -0.45379275 -0.09299167
28 0.13138528 -0.16520877 -0.014114887 0.4259487 -0.11335885 0.14058955 0.8211834 -0.02082569 0.19753808 0.112760514 0.20618276 0.2919065 -0.159 -0.4141941 -0.5551485 -0.48284495
26 -0.0038999673 -0.23588161 -0.20077115 0.33478466 0.07780635 0.37806818 0.9528361 0.17049482 0.17189564 0.1692993 0.028859876 0.011639758 0.01570802 -0.5503464 -0.5324235 -0.7338454
24 -0.32254604 -0.26313257 0.3644877 0.31746855 -0.20219791 0.14869551 0.7713814 -0.32500383 -0.2872369 0.10369628 0.2534601 0.011061309 0.012747639 -0.7565032 -0.028439242 -0.41835326
59 -0.17292504 -0.38592544 -0.09282264 0.5613495 0.20989187 -0.07759708 0.5968656 -0.01844942 0.37560743 0.47590458 0.13491298 0.37082186 0.040603563 -0.43999195 -0.80968267 -0.19297571
2 -0.6707207 0.45908487 1.3552281 0.45466045 -0.24472271 0.08918041 0.35011172 0.57157534 0.30544662 -0.14252558 0.62693465 -0.66718465 -0.03850433 -0.5159836 -0.6751145 0.15627296
63 -0.2113768 -0.38207024 -0.038429294 0.46135652 0.3692682 -0.18566635 0.7436616 -0.15785721 0.57101977 0.52302426 0.18024208 0.47183535 -0.36567354 -0.25985846 -0.5363612 -0.21087278
65 -0.3215359 -0.3763717 -0.0047727777 0.55637443 0.43638787 -0.20303084 0.70649 -0.16275983 0.5890974 0.55442876 0.08672056 0.62308913 -0.16861887 -0.28199312 -0.607046 -0.16094176
27 -0.46154758 -0.5278707 0.058350895 0.36205956 0.27939633 0.20965418 0.6995762 0.010893673 0.12484557 0.19802941 -0.48353 -0.18803719 -0.044547714 -0.36223623 -0.36553627 -0.5618546
25 -0.07741114 -0.35996577 0.33851922 0.27184805 -0.14997897 0.38904205 0.8555236 0.12892188 0.058861066 -0.15506312 -0.10264561 -0.24149355 -0.110454574 -0.41947818 -0.3128495 -0.6306489
64 -0.3530358 -0.5003453 0.030336924 0.5794338 0.30259287 -0.24382824 0.5851249 -0.20016035 0.4358833 0.54453635 0.18975654 0.47969565 -0.14272447 -0.32873073 -0.5872127 -0.1447291
66 -0.2784943 -0.504404 -0.18022305 0.49714196 0.40609163 -0.15070352 0.67809093 -0.23840359 0.43536016 0.6559845 0.04122234 0.3772181 -0.15572476 -0.43887782 -0.66975844 -0.22068194
42 0.22542098 -0.35509288 -0.01936212 0.472107 0.0408299 0.12156735 0.8549697 0.04543604 0.38975057 0.31018284 0.1403865 0.14933771 -0.23112619 -0.3506154 -0.79955703 -0.32499287
62 -0.3380337 -0.53947926 -0.05544268 0.6528662 0.52392614 -0.27137062 0.5619223 -0.18067035 0.4267657 0.64352095 -0.015030068 0.39569563 -0.18940347 -0.33682632 -0.74747604 -0.043533504
70 0.07171134 -0.117648385 -0.05847662 0.30965063 0.05197275 0.23465018 0.9023653 0.275486 0.24305215 0.1954867 0.07955211 -0.10034341 -0.2885931 -0.30693358 -0.5483735 -0.48019072
71 -0.00058372936 -0.15895645 0.19346455 0.3681218 0.03196459 0.2560903 0.7744203 0.23993933 0.28148237 -0.021668218 -0.002272588 -0.07551043 -0.2307746 -0.42229328 -0.5035674 -0.53847075
69 0.17653069 -0.31869575 0.06776066 0.3295301 -0.07770138 0.29977864 0.9632763 0.09342448 0.11184475 0.058844343 0.24712157 0.026901362 -0.15807731 -0.46439078 -0.4513723 -0.62122345
58 -0.045883678 -0.3993965 -0.16074502 0.53445494 0.33898807 -0.044603657 0.8641492 -0.009097584 0.4719702 0.4534487 0.12056894 0.30043566 -0.08761649 -0.36662126 -0.7183928 -0.25848243
60 -0.2848016 -0.44554585 0.16796272 0.610904 0.2550565 -0.1718881 0.4695021 0.06429839 0.51764745 0.5402014 0.043613005 0.29703057 -0.08320443 -0.35562247 -0.8727208 0.040195458
67 -0.14188834 -0.5480786 -0.10583777 0.58749056 0.25716192 -0.18366861 0.65191346 -0.29104283 0.4006172 0.60026085 0.28388005 0.40263367 -0.09683923 -0.47842407 -0.6767891 -0.06788882
18 -0.59837985 -0.4528457 0.26670566 0.2696792 -0.0031398505 -0.026041666 0.6964675 -0.61722475 -0.40746257 0.29711047 0.29264235 0.14892454 0.1670075 -0.9102194 -0.00076497847 -0.27986923
72 -0.028210748 -0.2930494 0.06174271 0.29225093 -0.064123094 0.23203485 0.7632599 -0.029161189 0.11435785 0.29751617 0.21755904 -0.042769283 -0.10955029 -0.4498961 -0.5501812 -0.34934917
61 -0.15147217 -0.5285691 -0.1279367 0.56059915 0.31489423 -0.21597922 0.64294475 -0.18316436 0.41457495 0.55659056 0.15948258 0.42490962 -0.21788514 -0.384192 -0.6793127 -0.24083513
52 -0.6126354 -0.50806296 0.21714438 0.44202477 0.3764124 0.2395059 0.59953266 0.16400592 0.07551365 0.2267435 -0.6551456 -0.36493278 -0.18270692 -0.2710084 -0.35966337 -0.41767812
30 -0.46892065 -0.1452078 0.7480316 0.29725176 0.0892042 -0.0892682 0.7687282 -0.028252246 0.10730915 0.0006748056 0.15890898 0.2032431 -0.6217443 -0.33996135 0.16838534 -0.30445462
50 -0.44715652 -0.74029344 0.2284405 0.36165753 0.35793573 0.11056829 0.5094998 0.18280354 0.3356316 0.2727806 -0.5882317 -0.09700572 -0.12102931 -0.32458588 -0.49920353 -0.28333166
23 -0.55133533 -0.4730555 0.5231425 0.26509604 -0.17977163 -0.11938337 0.73755443 -0.77804327 -0.666417 0.19164903 0.47718003 -0.06552709 0.29875794 -1.1364577 -0.041923463 -0.29070675
77 -0.24439903 -0.3276265 -0.11759598 0.6638132 0.3524807 -0.003600243 0.6506282 0.013173095 0.53129977 0.6372455 0.08521643 0.30457446 -0.15810426 -0.32909447 -0.7679871 -0.2565273
20 -0.5857813 -0.55047095 0.37477165 0.25603324 -0.16417758 -0.080301344 0.8605342 -0.6660818 -0.57689923 0.21311758 0.35555694 0.047895912 0.35543147 -1.0223354 -0.052914128 -0.37403998
17 -0.4763616 -0.48254845 0.43723157 0.25783268 -0.29325214 -0.15654996 0.7718698 -0.93699074 -0.7120471 0.28766498 0.57067436 0.14533666 0.3133329 -1.1863455 -0.08621128 -0.25438794
22 -0.6112258 -0.5980674 0.58759564 0.20603755 -0.2997404 -0.063448146 0.70083517 -0.7222956 -0.7491433 0.14033091 0.434653 -0.021815252 0.3214058 -1.1574786 -0.061230283 -0.3247409
76 0.19850253 -0.23824525 -0.062189993 0.32313746 -0.02015289 0.25538284 0.9315534 0.13515607 0.2159502 0.16946413 0.06288551 0.070650995 -0.026184276 -0.4277704 -0.60881746 -0.59792143
21 -0.5268852 -0.62025255 0.3789356 0.26103428 -0.20228384 -0.04967034 0.7687744 -0.8720385 -0.55211604 0.28206918 0.31787425 0.099525645 0.2617551 -1.0713652 0.009993447 -0.35194075
19 -0.5578017 -0.6380055 0.36078283 0.19842745 -0.16444531 -0.0047565494 0.8873202 -0.9000908 -0.7356513 0.2403076 0.42670143 0.15774372 0.46990943 -1.177282 -0.025084743 -0.34232834
38 -0.5976764 0.034925807 0.73412967 0.39104044 0.21865018 -0.047074854 0.85451674 0.0350513 0.35455486 -0.11544625 0.085873134 0.24863046 -0.914999 -0.1432026 0.44085982 -0.37490362
39 -0.5174405 -0.19771814 0.7741257 0.34815696 0.0994473 -0.045340706 0.7648795 -0.18577413 0.11742682 -0.11077711 0.032900304 0.18275122 -0.6454129 -0.29054025 0.4123192 -0.3877819
36 -0.70080453 -0.0005814299 1.0025526 0.32258993 0.11293328 -0.1383542 0.65369487 -0.15030791 0.24120365 0.0012547701 0.30039272 0.16622171 -0.7192171 -0.29158917 0.47934785 -0.21579473
37 -0.5072594 0.024072625 0.7485531 0.31291577 0.17415808 -0.07375741 0.85182595 0.044524036 0.2973755 -0.053650696 0.102701835 0.26472327 -0.8571785 -0.22913387 0.32540897 -0.39158574
35 -0.5151041 -0.09731313 1.0325565 0.29983103 0.057803016 -0.02530549 0.65773404 -0.18547852 0.035664134 -0.1452807 0.21523368 0.1157892 -0.7223601 -0.307201 0.33420098 -0.36664858
55 -0.5714686 -0.3402841 0.36753955 0.36219868 0.23700099 0.08913335 0.5689494 0.3155885 0.07402328 0.15291655 -0.47777498 -0.5384554 -0.07436914 -0.36441213 -0.4715197 -0.23373969
29 -0.19942492 0.29654434 0.3144603 0.25555333 0.14019278 0.39887956 0.7143066 0.53341514 0.3446604 -0.003011696 -0.12581523 0.40338767 -0.14222488 -0.72726 -0.18875182 -0.7992623
32 -0.36448452 -0.2944787 0.21923591 0.39104936 -0.10088198 0.16617395 0.7475521 -0.25534117 -0.04932102 0.07178285 0.14331456 0.20667337 0.016966326 -0.5937683 -0.05172566 -0.38300753
4 -0.661886 0.265297 1.1457814 0.27250233 -0.23739146 -0.098905966 0.34306687 0.3500149 0.20672393 -0.044059195 0.38582382 -0.4247011 -0.012671967 -0.54441494 -0.50207776 -0.0056787226
3 -0.51346654 0.20279513 0.86182386 0.27890638 -0.17533408 0.09954837 0.3491005 0.43325734 0.15994352 0.0785264 0.22690701 -0.45149186 -0.025004923 -0.5452311 -0.631433 -0.041440245
40 -0.4716458 -0.22618893 -0.098781176 0.50195044 0.44139424 0.1592994 0.8642977 0.12810613 0.16527559 0.24220616 -0.4616048 -0.43922195 0.09188988 -0.31284484 -0.46202314 -0.475086
43 0.07337547 -0.3516143 0.10297009 0.36976054 -0.07232994 0.41190025 0.9441383 0.2134158 0.1889816 -0.048702344 -0.13980506 -0.020201614 -0.24345556 -0.38649523 -0.40455917 -0.64591914
73 -0.31731445 -0.34623173 0.34355497 0.34956136 0.106260695 0.16788721 0.6286439 0.079185575 0.06856459 0.0060415296 -0.10246164 0.01974556 -0.14064348 -0.51985407 -0.2930982 -0.51891947
44 -0.33975708 -0.29801005 0.41995758 0.37191975 0.04466731 0.17229792 0.5172834 0.061359905 -0.0857399 0.033663124 -0.07593024 -0.26088154 -0.05021472 -0.43570223 -0.3038953 -0.37934986
53 -0.6626479 -0.30432653 -0.028562322 0.54690474 0.57237834 0.2182835 0.8722012 0.090282224 -0.04826699 0.26795766 -0.7287643 -0.58680826 0.097274564 -0.3352715 -0.13341248 -0.56355894
47 -0.7330539 0.3828608 -0.6513251 0.29427773 0.517186 0.1379709 0.97756237 0.15224168 1.3214777 0.9353102 0.46290892 -0.026277887 -0.7614761 -0.38412708 -0.3794263 -0.4080562
31 -0.38074535 -0.33060047 0.16274902 0.38886827 -0.079860754 0.20530838 0.7505994 -0.5893186 -0.2803544 0.2609586 0.1978433 0.25006118 0.064101234 -0.78561074 0.0019492563 -0.4177868
51 -0.27591327 -0.6154109 0.12987171 0.3370109 0.10551288 0.26657358 0.7536194 0.19816853 0.19740164 0.0819493 -0.38527936 -0.32440403 -0.29007444 -0.353699 -0.32678437 -0.4880981
57 -0.5858473 -0.55230916 0.3943557 0.3323453 0.1379012 0.030614527 0.45117888 0.050054982 0.158585 0.24315575 -0.3901441 -0.28084135 -0.28326777 -0.4082175 -0.32863027 -0.21758428
13 -0.38201067 -0.31774256 0.50522566 0.20102212 -0.18826647 0.123276375 0.56727004 -0.2724812 -0.24048531 0.08836548 0.23273185 0.011734106 0.056111366 -0.7076075 -0.0996214 -0.25024524
45 -0.18883356 0.22709854 0.33134642 0.27103126 0.066735215 0.18099615 0.7687272 0.32307422 0.20856698 0.0035405178 -0.008366101 0.51824707 -0.12297739 -0.7027552 -0.117908016 -0.75326526
74 -0.04981743 -0.106726155 -0.4153719 0.65953845 0.48054305 0.098792635 0.9440467 0.2358662 0.746696 0.7274467 -0.14375184 0.11234398 -0.30614275 -0.30544767 -0.9153177 -0.33021432
34 -0.3716022 -0.13096006 0.5246494 0.36951217 0.14154978 0.27576014 0.6791288 0.28827304 0.22221144 -0.036871906 -0.13153705 0.01328476 -0.3377784 -0.27878755 -0.11336493 -0.5683611
75 0.05087884 -0.16271426 -0.43069792 0.6792419 0.40376014 0.1690782 0.89833874 0.24076807 0.6251798 0.850244 0.0595317 0.032421418 -0.19567311 -0.37706006 -1.0307069 -0.28988484
7 -0.8599416 0.5279085 1.5319464 0.4070239 -0.27231446 -0.16315638 0.3119409 0.52274406 0.34514695 0.0020755678 0.52964914 -0.71805495 -0.0575307 -0.69737136 -0.7476467 0.23743722
9 -0.7350455 0.44418243 1.3947331 0.4370499 -0.19958279 -0.019723568 0.39685345 0.6516647 0.34336194 -0.028454836 0.429383 -0.67222023 -0.02585562 -0.5939849 -0.7756873 0.18994313
6 -0.6128514 0.43062982 1.2568547 0.32481754 -0.3088779 0.081924036 0.45518023 0.58920974 0.32230687 -0.030300302 0.47363967 -0.65603524 -0.067154236 -0.6431144 -0.7156881 0.10835483
10 -0.6580554 0.35917398 1.2240076 0.38733247 -0.124412596 -0.027915467 0.36441678 0.6811218 0.41805053 0.04007074 0.40842614 -0.66991943 -0.028551778 -0.5663536 -0.78480667 0.12891336
1 -0.6934995 0.38698885 1.327479 0.36828277 -0.2878272 -0.011231769 0.29776973 0.43987998 0.23874395 0.025355006 0.6350054 -0.5650353 0.06807008 -0.6595248 -0.7612526 0.23589227
5 -0.77896285 0.4817786 1.3594012 0.45427984 -0.3024594 -0.09392332 0.34781727 0.6210535 0.279631 0.0051923613 0.47721648 -0.7464028 -0.09411796 -0.6049132 -0.73813254 0.18885481
8 -0.81662625 0.4456368 1.3762636 0.44104066 -0.25327775 -0.099068426 0.37726855 0.5847262 0.25939846 0.07822431 0.4449837 -0.7696094 -0.0027243225 -0.65852267 -0.728986 0.25148544
48 -0.7168431 0.42987254 -0.5838124 0.3859763 0.48326388 -0.005131955 0.9140268 0.13747998 1.1875169 0.97561014 0.5718948 0.070888534 -0.72719127 -0.39789024 -0.49451396 -0.32879105
46 -0.17304389 0.31515157 0.30550742 0.29754287 0.11559998 0.26147902 0.7864566 0.2810158 0.44639406 0.08720003 0.17201193 0.60978293 -0.1840738 -0.6609818 -0.069493294 -0.7125835
54 -0.717027 -0.53748167 0.3070519 0.46923625 0.3727704 0.06562318 0.6142213 0.12068195 0.007710039 0.17092149 -0.58247787 -0.4869481 -0.11621607 -0.339594 -0.23488103 -0.42104894
16 -0.5271902 0.052516885 0.83839333 0.2844698 -0.0107956985 0.04080205 0.50600743 0.3288637 0.28148994 -0.04504592 0.07040184 -0.06825158 -0.40717632 -0.37803817 -0.09321189 -0.3283877
15 -0.4314522 -0.10123098 0.6217097 0.32342547 -0.079744495 0.084078535 0.6635433 0.14601117 0.13734467 0.0051015243 0.18258467 0.0060528135 -0.28254962 -0.4181774 -0.1514501 -0.41476104
14 -0.37247944 0.038639925 0.532713 0.34409407 0.010107812 0.22027273 0.71359503 0.20765047 0.22605272 0.009706121 0.10314275 -0.04384133 -0.32411972 -0.40036353 -0.10949074 -0.4188408
33 -0.3439036 0.018011667 0.5722013 0.33017656 -0.07874218 0.23632935 0.57163084 0.36748478 0.16203816 -0.009146195 0.05805647 -0.123370595 -0.26239005 -0.35978097 -0.2894981 -0.40023482
12 -0.35834017 -0.056809824 0.5107737 0.2723745 0.106980525 0.15734889 0.59207565 0.15672523 0.15421183 0.07315808 0.090514466 -0.08667267 -0.35859033 -0.39974746 -0.23328665 -0.32582822
41 -0.15004554 -0.2719809 -0.033994198 0.28406668 0.15679906 0.20295747 0.7520632 0.101270534 0.22654714 0.23417468 -0.07733283 -0.08366493 -0.07300445 -0.46672392 -0.50076264 -0.50218016
68 -0.02496497 -0.2868839 -0.082653575 0.57664376 0.28843138 -0.059821438 0.7596628 0.17955069 0.6109713 0.600268 0.090440586 0.35390443 -0.15492824 -0.3061198 -1.0544494 -0.17910789
