77 16
11 -0.39489937 -0.03253356 0.6560084 0.12595247 -0.024974924 0.3032685 0.57891595 -0.23242292 0.06320295 -0.17060176 0.025142962 -0.4261014 -0.19892281 -0.10133825 -0.14468476 0.031675544
49 0.10820003 -0.13635336 0.16269733 0.3563526 0.67878675 0.88526416 0.70686376 -0.39330927 -0.18717247 0.03909201 0.0040320973 -0.42970106 -0.18085414 0.056604676 0.021881469 -0.14640863
56 -0.10804791 0.044724945 0.4366548 0.36954135 0.39090967 0.48692787 0.48995826 -0.32009217 -0.035658143 -0.18569134 -0.40644303 -0.6371365 0.20836768 -0.035844304 -0.31683123 0.19146486
28 -0.1789597 0.07014074 0.3562614 0.05874863 0.094307534 0.45813766 0.71052086 -0.441968 0.0751759 -0.23569149 0.10301232 -0.17750476 -0.31923932 -0.16740544 -0.10127179 -0.38719484
26 -0.29943562 0.0314111 0.36439568 0.17446905 0.18018302 0.47952244 0.79660314 -0.27217582 0.027782006 -0.18862528 -0.005753287 -0.21898551 -0.00618571 -0.06686302 -0.11809526 -0.34486744
24 -0.28424606 -0.15627198 0.5416593 -0.2064538 -0.25283664 0.32542825 0.99107116 -0.5711367 -0.22685751 0.054363128 0.31354722 0.018578155 0.19575155 -0.6140878 -0.1789252 -0.37851724
2 -0.47554296 -0.18260118 0.7565637 0.7651995 -0.21379246 0.6144513 1.0583087 0.79711735 0.6658398 -0.26374596 0.49192563 -0.32449198 -0.54756606 -0.37255535 -0.6805701 0.0038193392
59 0.08706009 -0.064615205 0.2723877 0.52364796 0.4565909 0.5217029 0.55394983 -0.5077885 -0.33331373 -0.150505 -0.086325645 -0.5441286 0.014853048 -0.11528891 -0.3020562 -0.1532953
42 -0.069469444 0.06592328 0.23241986 0.24830914 0.44415843 0.47334144 0.7444533 -0.64977044 -0.20296434 -0.06772551 -0.12294429 -0.24520363 0.05860671 -0.0306797 -0.113173075 -0.49138597
27 -0.37168863 0.08641886 0.56192505 -0.042913754 0.21709758 0.4332486 0.5763942 -0.63010263 0.0057105334 -0.15676752 -0.2868235 -0.4232055 0.17351933 -0.03398559 0.01445328 0.04402419
25 -0.1920154 0.012319002 0.19377133 0.07736126 0.20015128 0.49220577 0.81122667 -0.5362305 -0.088105366 0.014412337 -0.024800487 -0.27141583 0.049502008 -0.13212743 -0.247396 -0.4504754
65 0.018587014 -0.1341964 0.36339313 0.62135404 0.44665536 0.44047537 0.38132408 -0.5207158 -0.21600431 -0.14057954 -0.36323008 -0.74586254 -0.071448274 -0.10017449 -0.13711636 0.1340564
58 0.078698665 -0.085599154 0.28197104 0.5199696 0.50266653 0.50705653 0.509987 -0.42506808 -0.27901784 -0.072912015 -0.3730889 -0.57543486 0.249816 -0.110590175 -0.42036805 -0.012812122
63 0.091166355 -0.07163149 0.17351289 0.58887625 0.6213336 0.50609803 0.5253665 -0.5029592 -0.25896785 -0.023581838 -0.3383809 -0.6469009 -0.047703933 -0.13893883 -0.2904604 -0.06051877
64 0.0797222 -0.13935134 0.3543751 0.5893733 0.39004862 0.4896008 0.5549323 -0.38044327 -0.27967402 -0.11618734 -0.2682405 -0.55064803 0.09680352 -0.10086566 -0.23748133 0.068838835
66 0.029581808 -0.04301492 0.24863933 0.5720842 0.5490603 0.58830225 0.49955913 -0.47888488 -0.22914529 -0.116312884 -0.26447454 -0.6180362 -0.006988775 -0.08975797 -0.2675987 -0.033727154
60 0.12601613 -0.07399164 0.1724894 0.645444 0.5468288 0.5526692 0.6484916 -0.31415802 -0.32247388 -0.036632583 -0.16692206 -0.53534627 0.13058332 -0.023951877 -0.33082756 0.007923067
62 0.13500498 -0.14534505 0.28691766 0.76391304 0.6800145 0.5460232 0.5141974 -0.41736498 -0.31015736 -0.14730129 -0.3179798 -0.61380076 0.014212757 -0.08350685 -0.15485369 0.04231453
71 -0.13251203 -0.047842514 0.22451235 0.08956371 0.26815996 0.43675333 0.81647414 -0.60191214 -0.14643985 -0.043512784 0.019139512 -0.21879712 -0.057331834 -0.0836151 -0.015502988 -0.44622892
67 0.23072456 -0.14120701 0.14497738 0.7640848 0.58361936 0.5260414 0.62333775 -0.33914116 -0.28291485 -0.12719904 -0.14312682 -0.5651855 0.083997004 -0.068445064 -0.3350149 -0.07503064
61 0.19020125 -0.16648686 0.26633307 0.83543736 0.56254953 0.52065265 0.5346555 -0.32090443 -0.28517452 -0.120057136 -0.29754785 -0.6531849 0.0042800317 -0.11113988 -0.3013791 0.11436407
69 -0.13773742 -0.034111634 0.15956503 0.24903756 0.30383468 0.58496946 0.805301 -0.36104956 0.10009266 -0.13617036 0.057365637 -0.2689234 -0.22207989 0.010293302 -0.0037181145 -0.41641328
18 -0.20799349 -0.262526 0.43445164 -0.10529871 -0.029307242 0.32658204 0.9213305 -0.6651994 -0.52494043 0.1258769 0.12329811 -0.16913097 0.58141834 -0.7037242 -0.44036394 -0.12789504
70 -0.045710843 -0.14446144 0.22897202 0.29549465 0.39337257 0.6386767 0.6828843 -0.49546358 -0.19324958 -0.04436184 -0.04014655 -0.27958697 -0.18463998 0.04526189 -0.043562483 -0.4227411
30 -0.6393442 -0.20541804 0.80570143 0.11600509 -0.03440414 0.054008845 0.76056755 -0.5728501 0.04762591 -0.09881967 0.019802086 -0.21759051 -0.23490003 -0.38270918 0.2494249 0.0010490592
72 -0.107965246 -0.054390885 0.24870554 0.11790053 0.3726418 0.5506744 0.67724186 -0.6185392 -0.25129968 -0.05172254 -0.07329227 -0.29503438 -0.123934805 -0.078606136 -0.109174855 -0.44593528
52 -0.39164463 0.3001846 0.6819008 -0.16685306 0.25889575 0.40832165 0.5246833 -0.60171217 -0.041010547 -0.25037792 -0.46796 -0.5446898 0.26427013 0.013206074 -0.022440746 0.017937358
50 -0.43398705 0.04534111 0.7315515 -0.03147272 0.14951052 0.526013 0.4886422 -0.43367553 0.12697095 -0.27332926 -0.41688636 -0.46941414 0.27371702 -0.12550408 0.021553706 0.12203591
77 0.039355405 -0.11897979 0.30842617 0.62642866 0.57173723 0.4287557 0.55295855 -0.50944334 -0.30087158 -0.20812124 -0.3136507 -0.5899178 0.043669976 -0.1285635 -0.101586305 0.034361377
76 -0.052333016 0.02048562 0.26874366 0.17096545 0.37900203 0.74723244 0.6526984 -0.5724928 -0.13797644 -0.12099797 -0.010436144 -0.25626385 -0.09194485 0.1577424 0.010467166 -0.7105274
17 -0.18811615 -0.25101852 0.62205184 -0.2852182 -0.18851185 0.22172052 0.9855414 -0.83394855 -0.6529326 0.052814353 0.16539517 -0.1301768 0.57730454 -0.80008256 -0.3933871 -0.37535396
22 -0.12247471 -0.24044596 0.53572077 -0.07490129 -0.20270732 0.28957573 1.000257 -0.6646112 -0.5942193 0.10884883 0.20388703 0.0056829993 0.48752365 -0.75061405 -0.43198472 -0.2549443
20 -0.19504775 -0.3101709 0.48013595 -0.21079703 -0.13764048 0.25845265 0.9587248 -0.744457 -0.6205911 0.13840832 0.1563635 -0.06707681 0.5780219 -0.779806 -0.4147462 -0.30211946
23 -0.21145931 -0.3373435 0.6605326 -0.18702622 -0.2109322 0.14676633 1.0021086 -0.6140152 -0.513125 0.18459576 0.2631346 -0.12375349 0.4776139 -0.8550562 -0.4186633 -0.17826392
19 -0.12248669 -0.2864345 0.44740495 0.03801471 -0.06626913 0.25953913 0.9682841 -0.63961107 -0.5013558 0.20717506 0.058164354 -0.052591577 0.6120387 -0.7316316 -0.42855072 -0.20549892
21 -0.07093121 -0.24548806 0.58442223 -0.17688538 0.023475392 0.30456895 0.8756199 -0.7766631 -0.62797815 0.0503569 0.05071096 -0.14182049 0.61421716 -0.63597393 -0.3401878 -0.16862668
37 -0.73437583 -0.27849594 0.7592212 0.29941607 0.0199397 -0.063276395 0.76695126 -0.5172633 0.15058254 -0.17671824 -0.044877645 -0.1943098 -0.57756203 -0.27480462 0.46524042 0.20516492
36 -0.7637033 -0.36751303 0.78900695 0.39085737 0.03799039 -0.05326006 0.745274 -0.4553761 0.163609 -0.11879705 -0.1375237 -0.252163 -0.40719503 -0.2517449 0.44105834 0.14576994
35 -0.8865611 -0.37820926 0.8964171 0.11601024 -0.081290625 -0.002531669 0.72754794 -0.5604291 0.21237026 -0.054940067 0.0008564177 -0.25012782 -0.59007484 -0.3723264 0.5900326 0.08014555
39 -0.83698714 -0.268008 0.8186867 -0.021668712 -0.11863793 -0.091756865 0.7786577 -0.54437095 0.103432156 -0.057984725 -0.10467435 -0.19556914 -0.45782852 -0.42023507 0.39433086 -0.029102106
29 -0.06121133 -0.15038988 0.82470477 -0.2937886 0.09178424 0.5677213 0.23942868 -0.71086514 -0.03829414 -0.34264722 0.24635 -0.6763865 -0.8029741 -0.21092041 -0.18562295 -0.40345287
38 -0.72307014 -0.3445869 0.6406667 0.10657142 -0.010286443 -0.008949065 0.8277087 -0.6801854 -0.033993717 0.0030696809 -0.099062376 -0.23006557 -0.41457456 -0.3433523 0.3939319 0.007023392
32 -0.25255477 -0.035273623 0.51037794 -0.22279896 -0.03183498 0.47222176 0.81986237 -0.45389298 -0.18094024 -0.06968372 0.19329952 -0.07803824 -0.0048296717 -0.44965574 -0.02863527 -0.34545353
55 -0.32965362 0.12113986 0.5823294 -0.04807889 0.18553112 0.5025739 0.49039283 -0.5604753 0.013445903 -0.21712792 -0.29421145 -0.49385867 0.25805986 -0.13987343 -0.07454149 0.020604014
40 -0.27788368 0.18737075 0.46030316 0.09546977 0.40065876 0.5594823 0.5252156 -0.5951687 -0.005620712 -0.24125898 -0.42825902 -0.52613276 0.30772015 0.13605434 -0.10064953 -0.2133331
3 -0.35686535 -0.07374139 0.676967 0.54336697 -0.110836744 0.5702911 0.8213062 0.65164316 0.46661192 -0.13178751 0.28274813 -0.3205209 -0.39917332 -0.28549346 -0.5533288 0.12939903
43 -0.22198926 0.0094454065 0.24793619 0.16967753 0.30926016 0.49236116 0.71691334 -0.47245207 0.0067034746 -0.16331126 -0.12522824 -0.29193273 0.0736834 -0.02330864 -0.19964966 -0.42357212
4 -0.30668864 -0.17658827 0.65779513 0.5392896 -0.17996201 0.52120566 0.8724779 0.5568094 0.59314275 -0.2251495 0.3917916 -0.26995933 -0.44101202 -0.26967824 -0.5775304 0.13371587
44 -0.3379001 -0.07888262 0.46910504 0.08913 0.11103612 0.37911737 0.67562705 -0.34042597 0.08057735 -0.11995255 -0.02820354 -0.3121936 -0.072179444 -0.22875875 -0.1681468 -0.14760016
73 -0.23778236 0.034055397 0.54677904 0.03549355 0.1382649 0.47134322 0.6083431 -0.35712767 0.05861587 -0.16903101 0.06386653 -0.34380758 -0.21633309 -0.1666677 -0.14279567 -0.28336784
53 -0.3174675 0.3451476 0.4469438 0.09334522 0.5220694 0.6389987 0.58277977 -0.7049585 -0.04738606 -0.24869077 -0.43622786 -0.58449703 0.30595875 0.18179363 0.17523444 -0.11724308
51 -0.38689116 0.0074108825 0.3594201 0.014039025 0.21229641 0.53982806 0.6881217 -0.61677355 -0.027114477 -0.06548315 -0.266852 -0.39255708 0.17250206 -0.09303058 0.024692688 -0.23982705
31 -0.18596159 0.003185153 0.44414967 -0.07717295 -0.16490625 0.35827616 0.98560166 -0.5817825 -0.30047202 0.08942563 0.21359661 0.007644376 0.17467223 -0.51619774 -0.20596503 -0.2169175
45 -0.21252395 0.0032371269 0.65156245 -0.22321706 0.18952745 0.48302275 0.3563894 -0.6775246 0.10318753 -0.32636273 0.19575597 -0.597166 -0.71195626 -0.1760936 0.03802003 -0.4345236
57 -0.39940217 0.032680184 0.46450013 0.34355098 0.27033007 0.54827636 0.44636577 -0.32940197 0.14584665 -0.077324614 -0.39814377 -0.62144166 -0.0243235 -0.020308785 -0.13408811 0.041782238
47 0.16467862 -0.32814276 0.19843912 0.6979824 0.84339255 1.1560724 0.7741281 -0.18477505 -0.19598907 0.0568251 0.05856542 -0.4710635 -0.020964462 0.3014125 0.28250077 0.09079524
34 -0.29352406 0.002106755 0.6224847 0.12119457 0.093653284 0.42102003 0.63148564 -0.23985288 0.16529778 -0.24574295 0.09174642 -0.359995 -0.48520935 -0.15255657 -0.06589711 -0.2123258
13 -0.22477941 -0.13330017 0.46736133 -0.055901743 0.015677698 0.2945263 0.73863184 -0.5183017 -0.17958374 -0.008350508 0.18587664 -0.2055091 0.016187768 -0.41604242 -0.21317735 -0.23036303
74 0.1537972 -0.2673606 0.28476015 0.62959963 0.75119954 0.9541296 0.5030215 -0.40632963 -0.36619887 0.17170236 0.028288648 -0.5214268 -0.091556914 0.107343964 0.025156744 -0.09140035
75 0.18948725 -0.1588672 0.18403172 0.48147216 0.6745504 0.9622767 0.5466165 -0.39662078 -0.41671818 0.21100442 0.07186149 -0.5560578 -0.11663035 0.0032618693 0.06712805 -0.15124011
46 -0.13061073 -0.011086221 0.7583678 -0.3541664 0.08077209 0.5653416 0.2946432 -0.83714676 0.040888358 -0.34332892 0.3268244 -0.5674756 -0.8309999 -0.2983717 -0.100612536 -0.64549905
7 -0.41267902 -0.12386453 0.7689477 0.68591493 -0.09095375 0.54615426 0.99368596 0.7656422 0.67815185 -0.26514798 0.4143397 -0.3570445 -0.5557333 -0.24155648 -0.6237002 0.13432111
8 -0.3830712 -0.02284838 0.790675 0.5988636 -0.18543984 0.6369542 1.0569499 0.758216 0.6953298 -0.25001752 0.51695615 -0.43069863 -0.5856098 -0.32497025 -0.65341324 0.111183286
5 -0.4098214 -0.18437877 0.68860453 0.69917434 -0.11397739 0.46486482 0.9988917 0.8333356 0.63847125 -0.21682112 0.4874895 -0.36488688 -0.51997966 -0.31738457 -0.60432124 0.07431988
9 -0.41371912 -0.096289515 0.73441255 0.6075297 -0.08550285 0.62511164 0.98356867 0.70341825 0.65199375 -0.15486057 0.5522729 -0.3326118 -0.5214969 -0.29693672 -0.6418926 0.08064103
68 0.060782213 -0.018019708 0.2265499 0.765321 0.5196117 0.54566306 0.57876086 -0.4069135 -0.2673446 -0.115945615 -0.3873547 -0.667274 0.12052392 -0.025683496 -0.33993018 0.0153930355
1 -0.5028532 -0.09924256 0.82512474 0.6678764 -0.2598254 0.5178984 1.067744 0.7890559 0.64251626 -0.21478197 0.44709724 -0.39441368 -0.5465662 -0.363239 -0.6385272 0.13161117
10 -0.5185077 -0.0437242 0.81750053 0.72300464 -0.11521694 0.5198325 1.0256448 0.7703209 0.7319638 -0.19643855 0.49442524 -0.36406153 -0.63509464 -0.29302987 -0.6408309 0.12274736
54 -0.3008627 0.2016933 0.7000669 -0.052791532 0.20871069 0.4933822 0.5087302 -0.6449599 0.02051136 -0.28457835 -0.29475212 -0.5531626 0.33472544 -0.05564291 0.0005449643 0.06309776
6 -0.46721232 -0.17689326 0.8305522 0.67665523 -0.24331623 0.56009865 1.0964469 0.7869013 0.67938834 -0.26510736 0.57704586 -0.37004024 -0.6344985 -0.38869897 -0.68186784 -0.0020894154
16 -0.4016748 -0.18704784 0.5639371 0.0029726 0.032698225 0.33635354 0.61007166 -0.38863394 0.11330142 -0.14017652 0.06371539 -0.38735887 -0.3246639 -0.19517775 0.04198501 -0.16079544
48 0.15583454 -0.22823946 0.11283097 0.56034815 0.6646827 1.1098695 0.8599057 -0.15335557 -0.28128332 -0.0074989134 0.20822841 -0.5022476 -0.014496792 0.30033696 0.1285686 -0.081316814
14 -0.31492907 -0.058320493 0.5063867 0.21062025 0.0978745 0.38925803 0.6041675 -0.249344 0.16950443 -0.15478411 0.05679543 -0.36496067 -0.38876572 -0.13631175 -0.0053210757 -0.023753837
15 -0.47026357 -0.08818375 0.5415695 -0.011164285 -0.035725087 0.31534085 0.7454505 -0.35768896 0.07728899 -0.053186316 0.12608182 -0.24073538 -0.23550226 -0.27255663 -0.10098514 -0.23391327
33 -0.3845488 -0.11726992 0.537006 0.061762504 0.08196396 0.30325174 0.70075756 -0.32995263 0.08938983 -0.10987394 0.07346066 -0.32708076 -0.30622172 -0.26067886 0.00577327 -0.0912875
12 -0.24410819 -0.09029825 0.5519963 0.033575267 0.14790823 0.4265166 0.58570284 -0.3420527 0.07832528 -0.18302624 -0.0026895339 -0.3805287 -0.26894084 -0.21701875 -0.14310819 -0.27229282
41 -0.20039245 -0.033172943 0.39141345 0.13356371 0.18691784 0.48450893 0.8002265 -0.4400807 -0.13914053 -0.012188833 -0.122929834 -0.16810566 0.11497951 -0.08513588 -0.1337922 -0.26899505
