77 16
11 -0.34825823 -0.10988869 0.41502136 0.19373064 0.069458224 0.19637707 0.8348669 -0.09428991 0.085174054 -0.11333348 -0.04748048 -0.10956526 -0.12489628 -0.2902626 -0.013664862 -0.45808855
56 -0.2670898 -0.23613639 0.34796882 0.07469172 0.31679663 0.21045938 0.82166857 0.041111186 0.07530226 -0.26328 -0.009018334 -0.04357048 -0.072185986 -0.41496634 -0.23604342 -0.3080004
59 -0.09110835 0.046929415 0.63584715 -0.015907219 -0.017566219 0.29272327 0.80276734 -0.17183478 0.071977474 -0.14296456 0.1822983 -0.009395327 0.34675 -0.63402003 -0.4285083 -0.4267443
63 0.018535472 0.09040487 0.56524557 0.20213133 -0.022450574 0.43039134 0.81314707 -0.10974054 0.19898008 -0.20823617 0.25446665 0.117251 0.17778522 -0.60691524 -0.6569391 -0.37247264
27 -0.3199333 -0.23094523 0.38592306 0.21771066 0.2088747 0.20425425 0.8337258 -0.01135017 0.079710834 0.023718443 -0.0028617776 -0.11890165 -0.1432337 -0.15813717 0.14751191 -0.48355916
26 -0.11703744 -0.19018199 0.51827323 0.0977559 -0.09016154 0.19427888 0.9910627 -0.2487969 0.24743429 0.187912 0.28866622 -0.17289159 0.08538577 -0.14987463 0.47855 -0.4587626
60 -0.010908004 0.11136868 0.623248 0.061830573 -0.19834493 0.3859257 0.7019151 -0.22787681 0.2509731 -0.16187592 0.2215591 0.12474938 0.2135314 -0.63482565 -0.38335526 -0.53003544
65 0.07708163 0.029121207 0.68668985 0.049911197 0.07996653 0.37721822 0.56303084 -0.31990182 0.0923628 -0.2566267 0.05459242 -0.075351916 0.3296527 -0.74710953 -0.5944355 -0.45280153
49 -0.12425385 0.10928116 0.7294735 0.0036098803 -0.019641787 0.3535964 0.66513026 -0.14473206 0.30060953 0.028539473 0.2211072 0.079871744 0.37493733 -0.61410683 -0.38137096 -0.48365867
24 -0.49913526 -0.4669185 0.40535802 0.57883966 0.5238347 0.5398864 0.6966652 -0.18100508 -0.06339058 0.4669772 -0.22083107 -0.14374006 -0.35210058 0.039463926 -0.014088878 -0.15017334
28 -0.3368627 -0.114280626 0.36217675 0.063299514 0.07039887 0.26427472 0.9014529 -0.27387285 0.1621735 0.080536224 0.15587832 -0.14936271 0.022672798 -0.20789494 0.15229642 -0.43610528
66 0.051701967 0.029340204 0.6598526 0.059709586 -0.12603486 0.37428382 0.7052378 -0.34226775 0.22343664 -0.18588004 0.035983555 -0.0548378 0.08940264 -0.66192615 -0.5000419 -0.4660928
2 -0.031663023 -1.1189382 0.69151294 0.47983986 0.5257264 0.2706729 0.30506098 0.09081651 -0.2154082 -0.09514681 -0.5611254 -0.5387469 0.44536403 -0.4706705 0.08081336 -0.31756353
25 -0.315813 -0.28623486 0.3772566 0.24604547 0.13079637 0.27814126 1.0017883 -0.2407846 0.15178296 0.2630982 0.19742824 -0.26967168 -0.14769588 -0.023657603 0.46929476 -0.46441358
64 0.21160845 0.10883542 0.73805237 0.21876666 -0.07617288 0.47599918 0.7280473 -0.14376146 0.2578196 -0.17024946 0.25404453 0.013780035 0.26353976 -0.6096852 -0.75565743 -0.3105269
62 0.055755228 0.08930222 0.57143694 0.06407857 0.08878486 0.32502052 0.6353147 -0.20556273 0.16329639 -0.26541716 -0.0060403706 0.0205117 0.0966274 -0.73359495 -0.69753724 -0.4391895
70 -0.28718984 -0.31564137 0.5129453 0.054112416 -0.114892945 0.22471368 1.0444111 -0.34717375 0.20229472 0.36667442 0.4334638 -0.21001011 0.07048344 -0.03963092 0.808711 -0.5717939
21 -0.6072344 -0.35719106 0.3857978 0.9001639 0.6576878 0.87564486 0.7340591 -0.18829063 0.021026833 0.7566688 -0.044032056 -0.04245559 -0.76625764 0.16745932 -0.2079001 -0.23372664
18 -0.48618835 -0.43918666 0.3928213 0.88266605 0.61267674 0.7800863 0.6011948 -0.02625019 -0.07628789 0.66325724 0.05878009 -0.15786982 -0.41515568 0.1270829 -0.2471291 -0.083019316
50 -0.18664217 -0.34080848 0.33764803 0.20287712 0.3641109 -0.12843575 1.1108665 0.26606837 0.19168162 -0.32082316 -0.014056919 -0.14870678 -0.25628158 -0.23390584 -0.042655382 -0.2586884
20 -0.4330116 -0.32551518 0.5403036 0.97910786 0.45909604 0.93446743 0.6825519 -0.05122734 0.071528286 0.8414115 0.12144474 -0.057490945 -0.61390316 0.1524854 -0.3223358 -0.03071607
69 -0.14024438 -0.4247291 0.5242766 0.09139188 -0.07752514 0.26949367 0.88011646 -0.37424603 0.22093083 0.22928052 0.24251615 -0.26925826 0.17799883 -0.23250568 0.68571806 -0.5780162
23 -0.47680798 -0.5088478 0.36117697 0.851203 0.59743303 0.8819657 0.58043915 -0.11426432 -0.037031896 0.7325817 0.036961507 -0.063313276 -0.55253357 0.08692113 -0.3138768 -0.01676801
17 -0.40716934 -0.29404813 0.5231524 0.79213625 0.42853892 0.9381064 0.5546312 -0.19839905 -0.043102447 0.7528516 0.16646256 0.0041705742 -0.46422812 0.1409444 -0.3395489 -0.038720958
22 -0.5582156 -0.29440892 0.46779487 0.8511965 0.49504772 0.76684475 0.5421325 -0.12575324 -0.059370514 0.6786938 0.078234926 0.0035496296 -0.49410555 0.015545557 -0.37741986 -0.12351316
19 -0.5222369 -0.22074832 0.38820767 0.8336506 0.44802883 0.9062219 0.73943144 -0.09981289 0.045829978 0.80831116 0.17674263 0.059736837 -0.6054399 0.17276356 -0.28548288 -0.16063917
52 -0.10602141 -0.23334068 0.48351303 0.1807529 0.21428943 -0.028582186 1.092702 0.35849226 0.13758934 -0.34087625 0.10611152 -0.10957603 -0.17835826 -0.25107428 -0.02540711 -0.33511314
4 -0.14701436 -1.0083202 0.63927794 0.44621038 0.5300623 0.3587648 0.21434703 0.098277874 -0.22043252 0.022159424 -0.6199847 -0.3768621 0.3488234 -0.49146134 -0.017473415 -0.257019
3 -0.18393135 -0.9307851 0.58279675 0.5255822 0.5031541 0.27703628 0.3472795 0.017109437 -0.30831188 -0.042445857 -0.3977164 -0.48234475 0.35724774 -0.3985595 0.13295785 -0.26608095
71 -0.21817392 -0.253911 0.5667575 0.03276996 -0.15915257 0.23227963 0.9160583 -0.32928714 0.21831493 0.16124848 0.33685586 -0.15012285 0.07416385 -0.12063929 0.70912194 -0.6249302
42 -0.06979841 -0.31149793 0.57601476 0.2229236 -0.11778285 0.21680044 0.93506694 -0.008520991 0.11637621 0.04997209 0.4261118 -0.2667214 0.20753412 -0.16104174 0.28430754 -0.39069495
61 0.02054818 -0.057337783 0.5443594 0.05116902 -0.022269858 0.29139027 0.7459195 -0.22496116 0.094678745 -0.2000229 0.14583953 -0.024917306 0.20786127 -0.64832544 -0.34265772 -0.45842543
29 -0.8124141 -0.1966248 0.24244227 0.16717446 0.19342272 0.27536166 0.7180049 -0.09556004 -0.44985598 -0.06506995 0.32146326 -0.057742063 0.26577482 -0.40428522 0.08940896 -0.3870559
58 0.06914522 0.086985886 0.66344935 0.18187106 -0.10267756 0.45176432 0.74404174 -0.0568313 0.26288003 0.07585943 0.39744732 -0.051943284 0.2527441 -0.5399906 -0.55890816 -0.39018905
36 -0.5323376 -0.3120138 0.47873962 -0.23396757 0.4467649 -0.05219896 0.54817384 -0.6610424 0.13421528 0.16816242 -0.8948561 0.011594983 -0.5308302 -0.47362265 0.17085797 -0.800238
67 -0.08118646 0.16345236 0.71269923 -0.15511268 0.05531757 0.3046565 0.77539766 -0.25010273 0.21158841 -0.199419 -0.0030449955 0.16169089 0.14015312 -0.6567927 -0.49269775 -0.50862443
35 -0.5079999 -0.37540454 0.5320356 -0.045487456 0.5068289 0.082439885 0.42845052 -0.5768243 -0.02380704 0.014632241 -0.84065586 0.0013464289 -0.40105706 -0.5593352 -0.02248933 -0.5548039
76 -0.31308782 -0.23424222 0.6081797 0.20007166 -0.13548091 0.296426 0.8872392 -0.31566966 0.33082548 0.3462828 0.35417914 -0.14134115 0.08209225 -0.09060838 0.5782345 -0.5345019
72 -0.16835122 -0.26206952 0.5846582 0.06261025 -0.13960603 0.23257194 0.86258185 -0.20083643 0.23378487 0.0658259 0.33318186 -0.27677053 0.24285376 -0.28515545 0.53660303 -0.5220167
39 -0.53203404 -0.26837584 0.4174629 -0.10695614 0.4325165 0.09878898 0.57091177 -0.46524715 0.12887283 0.27798942 -0.7564487 0.035995238 -0.6612324 -0.37644693 0.0561399 -0.6933592
37 -0.41307622 -0.25173792 0.538255 -0.22449976 0.31989282 0.14459534 0.54096717 -0.6344232 0.1130684 0.19316597 -0.5430329 -0.025468908 -0.6032128 -0.32224768 0.13637955 -0.7263227
30 -0.36733285 -0.36823028 0.46691057 -0.203975 0.2818103 0.0045973836 0.6208558 -0.48645228 0.12093928 0.1081323 -0.63028985 -0.09962923 -0.37366214 -0.4859796 0.18012922 -0.6280774
38 -0.5593443 -0.20658323 0.54410815 -0.15829936 0.42726433 0.17039688 0.551968 -0.5427849 0.18628305 0.19147636 -0.7291639 0.053131625 -0.6495846 -0.41252533 0.124497525 -0.7034616
32 -0.5917489 -0.22583333 0.32965353 0.36480784 0.12387258 0.42686048 0.6689621 -0.27722692 0.13672557 0.27622274 -0.13167596 -0.045086946 -0.1684549 -0.22048378 0.08055601 -0.16430655
77 -0.03022309 0.29378432 0.75248057 0.014727894 -0.14561012 0.36334822 0.8306201 -0.09541632 0.318528 -0.25774032 0.35629922 0.11134027 0.39160097 -0.73852706 -0.7808204 -0.49034888
74 -0.35162553 0.49227008 0.84920055 0.047157675 -0.031725924 0.6166519 0.7861664 0.47311652 0.52319705 0.22058596 0.26674592 0.34739828 0.42256862 -0.6773064 -0.8555218 -0.4722858
75 -0.34714866 0.38797066 0.7720592 0.21427836 0.117948286 0.60165393 0.75807893 0.51028913 0.63094276 0.12344687 0.29856902 0.28333816 0.6062603 -0.59506124 -0.9262555 -0.41949522
55 -0.115728036 -0.30492395 0.35757175 0.117971696 0.13580707 0.0061288793 1.0566181 0.042341523 0.26701692 -0.34233314 -0.08666185 -0.03344572 -0.18541041 -0.28962594 -0.012472665 -0.33592594
43 -0.17939425 -0.23871456 0.536442 0.06712484 -0.07376297 0.22474054 0.8573893 -0.20025176 0.3025797 0.17597753 0.35214967 -0.23788811 0.060288034 -0.18277662 0.3631361 -0.53043413
44 -0.30037868 -0.20467204 0.48433208 0.3134815 0.21924932 0.34460285 0.56766975 -0.08704137 0.037467174 0.18547426 -0.061818212 -0.067850895 -0.018495753 -0.3193852 -0.08574178 -0.33028832
45 -0.7309678 -0.34679028 0.267634 0.31408134 0.41007248 0.21471699 0.6194611 -0.023314547 -0.47588104 -0.1047413 -0.048768107 -0.30373758 0.37409082 -0.40017855 0.18464065 -0.28981045
73 -0.32838622 -0.13950017 0.37767768 0.08014494 0.1331433 0.2665128 0.8624869 -0.19379897 0.17919433 0.058359515 0.077849455 -0.108949356 -0.15254101 -0.24377635 0.11963101 -0.42476636
34 -0.21355623 -0.4117693 0.45595682 0.29487917 0.2728904 0.3061986 0.59668684 -0.14894696 -0.028209426 0.104613 -0.16580735 -0.24197549 0.045132525 -0.26326683 0.12688105 -0.2885491
47 -0.11645536 0.23220243 0.9189446 -0.116465285 -0.1542374 0.20476508 0.97334135 -0.005084041 0.51160717 -0.3152673 0.50305665 -0.011825647 0.433393 -0.82221836 -0.49518833 -0.48647612
31 -0.70284253 -0.39363685 0.32143006 0.6531716 0.23964128 0.5685165 0.5537455 -0.18461625 0.071002096 0.5903955 -0.1609107 -0.20116103 -0.36247462 -0.044272825 0.017775122 -0.13073927
13 -0.4804004 -0.3216847 0.43158177 0.55058306 0.39002457 0.5926117 0.59772336 -0.20535667 0.02272821 0.5232794 -0.04413563 -0.07958078 -0.32514834 -0.0175369 0.008579956 -0.15499155
68 0.030371299 0.16164364 0.73550224 0.23556961 -0.09952173 0.5021037 0.66889846 0.066229686 0.21194348 -0.080808386 0.32211494 0.06365654 0.22351736 -0.63761985 -0.7559918 -0.34590706
40 -0.26840916 -0.11012248 0.4256214 0.16728748 0.11438051 0.055337705 1.0140635 -0.035233706 0.17058966 -0.05864667 0.20334607 -0.1145353 0.037293497 -0.27096072 0.080750026 -0.32875213
51 -0.20359322 -0.30573583 0.45208725 0.13553621 0.1577945 0.20558828 0.78985983 -0.07438216 0.15886375 0.043678544 0.10437673 -0.1221829 -0.11911143 -0.12703623 0.19806415 -0.44164452
9 -0.11749561 -1.0180829 0.6324256 0.43766704 0.46057278 0.25315073 0.35479167 0.17221567 -0.30256978 -0.1830209 -0.44125342 -0.60804325 0.62271243 -0.6358566 0.14439875 -0.3071377
53 -0.27827683 -0.070129886 0.48074976 0.15726808 0.1159342 0.09008696 0.9451881 0.0109088775 0.2169007 -0.10741556 0.18807144 -0.028914006 -0.1704631 -0.29450297 0.017686322 -0.36987856
46 -0.532978 -0.3922159 0.39233047 0.13933611 0.28970537 0.11861213 0.6761048 -0.017560147 -0.25751415 -0.18785518 -0.11878838 -0.23678158 0.2923692 -0.39868364 0.1436075 -0.36925343
57 -0.13116671 -0.20343558 0.53939044 0.08887052 0.058234785 0.15594393 0.8922879 0.06924555 0.21603373 -0.17115308 0.09802428 -0.20098302 -0.00088046154 -0.38085663 -0.017942866 -0.3386561
16 -0.28894088 -0.45110583 0.46881416 0.33901763 0.30083442 0.28410438 0.60821205 0.022902848 -0.03331009 0.07295191 0.02283653 -0.26119176 0.058638245 -0.2571671 0.06457608 -0.2635159
5 -0.2235102 -0.89027864 0.5838682 0.342504 0.4695622 0.23055097 0.29052594 0.04301951 -0.21863844 -0.075215004 -0.43257383 -0.45422456 0.470182 -0.5362032 0.06641874 -0.2853863
7 -0.29681468 -1.1971471 0.60849416 0.5397521 0.54258883 0.19119647 0.2649758 0.07846123 -0.43357876 -0.05487189 -0.6914194 -0.6206543 0.45319882 -0.5301172 0.26627907 -0.31451714
6 -0.28795373 -0.8418896 0.6142731 0.31758383 0.36586958 0.106777646 0.486982 0.06358038 -0.23284945 -0.08777419 -0.52611536 -0.47909328 0.29045504 -0.49988306 0.18806627 -0.29109693
1 -0.22409879 -0.8255427 0.63991183 0.39784813 0.44179764 0.1414808 0.38826615 0.069039784 -0.204382 -0.095809154 -0.40284985 -0.42194265 0.39539123 -0.5225854 0.104211666 -0.33305424
48 -0.063138574 0.2079856 0.9710725 -0.06437141 -0.1274208 0.30825537 1.0221893 -0.073183455 0.52766335 -0.35180873 0.44558397 -0.053653955 0.47994804 -0.7647839 -0.4867294 -0.5098161
33 -0.3112062 -0.30046582 0.37605 0.1667351 0.24338432 0.17780124 0.5523641 -0.14787859 -0.017671568 0.04490812 -0.16704945 -0.12177451 -0.120160826 -0.3362048 -0.05313932 -0.40691456
10 -0.25074658 -0.97432667 0.6161292 0.33633664 0.4638925 0.17278303 0.2943326 0.06646308 -0.20300792 -0.087541565 -0.62137353 -0.48556525 0.27959308 -0.52596873 0.03444185 -0.30714318
41 -0.23158036 -0.28899133 0.44623274 0.13526946 0.04435816 0.25099525 0.7330889 -0.13940139 0.10729552 0.10994297 0.11452679 -0.17399059 0.0051018116 -0.17809516 0.2289004 -0.4537105
15 -0.23045117 -0.3676787 0.4404137 0.31660733 0.27313653 0.38112134 0.5285639 -0.07906221 -0.010325784 0.093746446 -0.109874606 -0.18844089 0.012304539 -0.2880848 -0.04049176 -0.23259681
14 -0.34694263 -0.39136714 0.4330486 0.24700834 0.2838654 0.2546577 0.55940884 -0.10940922 -0.060711123 0.115876004 -0.21361606 -0.21580511 0.012846932 -0.26987854 0.034954783 -0.36884472
12 -0.20264703 -0.2600509 0.4201292 0.15165679 0.2465044 0.30079845 0.6588203 -0.13505387 0.018349623 0.10567228 0.009623728 -0.15962452 -0.06282936 -0.29124105 -0.03324418 -0.35617238
8 -0.20620649 -0.8459735 0.6212808 0.24409822 0.4158627 0.19007385 0.3745799 0.11024635 -0.15929155 -0.16932712 -0.46508467 -0.47949117 0.34293175 -0.50909597 0.077621154 -0.35809776
54 -0.2186836 -0.29126027 0.5359744 0.17516977 0.15394595 0.23015146 0.7382439 -0.0064391713 0.10760495 0.05092571 -0.064392224 -0.101776615 0.011486182 -0.24926011 0.0005223192 -0.35227364
