77 16
11 -0.24181129 -0.22540626 0.18556309 0.4675765 0.11484585 0.13499923 0.8384221 0.07946882 -0.0015351996 0.11478272 -0.08380623 -0.16295034 -0.47644728 -0.15359141 -0.13623106 -0.17617348
49 0.15623501 -0.3191474 -0.3356577 0.15981054 0.4874538 0.34801584 0.61484575 0.101006106 0.049040005 0.25008819 0.22320598 0.04208936 -0.14340734 -0.58911103 -0.6023612 -0.14661905
56 0.35466835 -0.5817731 -0.33288547 0.16983117 0.38736808 0.2935595 0.71935827 -0.22860974 0.027184658 0.31759837 -0.18839885 0.18045337 -0.09625411 -0.7613086 -0.3493306 0.17371596
28 -0.1861412 -0.3119158 -0.03109818 0.584378 0.14241037 0.053353302 0.8858658 0.24382983 -0.07405055 0.20254216 -0.026609512 -0.08722033 -0.29089472 -0.14094904 -0.13092676 -0.12516473
26 0.20639884 -0.6415154 -0.16506939 0.47799498 0.33807853 0.25964934 0.8301537 0.3248643 -0.1427306 -0.06572578 0.023900496 -0.16022713 -0.011281092 -0.2390429 -0.19661292 -0.014751746
24 -0.11808884 -0.4822848 0.054916386 0.43762964 0.18333358 0.4674159 0.9337172 -0.3827998 -0.28437978 0.37822825 -0.011616021 0.10572445 -0.47778568 -0.2926348 0.02541682 -0.54742825
59 0.045703534 -0.35742298 -0.466376 0.3441683 0.31861472 0.21362121 0.6503888 0.044384643 0.25305912 0.2507404 0.104075715 0.06704192 -0.12799823 -0.6555699 -0.52884185 -0.17492016
2 -0.9066118 0.09793706 1.2640846 0.45991293 0.73203665 0.30296704 0.6314789 0.4904762 0.15031058 -0.08723535 0.10033841 -0.6258741 0.07595699 -0.65666276 -0.65977687 0.32501796
65 0.07821793 -0.16489033 -0.45766523 0.3188261 0.42805716 0.2557133 0.7403496 -0.11010821 0.3160265 0.27500305 0.21655792 0.019957539 -0.20398815 -0.6837217 -0.6552268 -0.3328572
63 0.22803298 -0.33081216 -0.5571822 0.33509502 0.44917092 0.3507023 0.7782275 -0.18815714 0.21041825 0.14593886 0.14502199 -0.017372495 -0.12309644 -0.5178068 -0.5710066 -0.34594175
66 0.23224193 -0.25201285 -0.655814 0.22018683 0.38609397 0.31033957 0.79576784 -0.19035244 0.41860047 0.19448712 0.1743543 0.038031574 0.016203139 -0.84036005 -0.7362419 -0.20105788
64 0.11989358 -0.24920739 -0.48315054 0.15608177 0.3944741 0.3041346 0.67133296 -0.28923088 0.2993088 0.19188192 -0.0057938336 -0.067160346 -0.37670857 -0.6697372 -0.50936735 -0.3005565
25 -0.12638435 -0.44365063 -0.007913321 0.5646125 0.26058128 0.07740142 0.74118644 0.3143473 0.058762595 0.064867735 -0.08850403 -0.25798014 -0.09052757 -0.17145519 -0.2723103 -0.019652078
27 -0.05952703 -0.5381848 -0.05857727 0.28489652 0.24888837 0.17511348 0.87850714 -0.027545262 0.041423567 0.33571953 -0.46674937 0.11448001 -0.29378948 -0.48784396 0.021245848 0.1982117
42 0.2491035 -0.51347023 -0.29490557 0.635868 0.20746201 0.15858681 0.94386244 0.17204387 0.00045568356 -0.054769337 0.12433734 -0.17784104 0.053947262 -0.26520622 -0.36854002 -0.09855651
62 0.26470873 -0.30740505 -0.51117784 0.20784159 0.46633336 0.28670356 0.64354104 -0.062416382 0.12919453 0.19338161 0.17416653 0.030994045 -0.10258102 -0.79622257 -0.7070123 -0.12905397
58 0.2141653 -0.4491735 -0.5930804 0.37024206 0.32866216 0.19143824 0.81258935 0.04337003 0.18217018 0.25966835 0.17308216 0.11508854 -0.060419817 -0.58620536 -0.55411744 -0.09223348
60 0.2689945 -0.38194612 -0.44688368 0.37852734 0.33085847 0.33208612 0.67009616 -0.19190182 0.09471863 0.21940337 0.13331576 0.15174791 -0.00354618 -0.71254045 -0.552311 -0.2818312
70 0.052790593 -0.48782796 -0.12169935 0.6262068 0.1970214 0.18540867 0.91176337 0.24764979 -0.061118346 0.006877079 0.1431162 -0.2021654 -0.115652606 -0.1327974 -0.18255468 -0.1735956
69 0.052451488 -0.538812 -0.014943235 0.607577 0.2703015 0.115579955 0.83319527 0.40516102 -0.022869676 -0.066740565 0.20043804 -0.23811957 0.06674386 -0.23047054 -0.29943347 0.025721267
71 0.0009972369 -0.46989754 -0.09436973 0.66033804 0.10486961 0.21424666 0.88606864 0.07827646 -0.01140041 0.12917203 0.031881712 -0.13629803 -0.2080588 -0.18921143 -0.12945074 -0.1638952
67 0.21303701 -0.18867174 -0.5823486 0.32636192 0.46320388 0.29586056 0.7063741 -0.104241356 0.33711553 0.19398129 0.19213688 -0.10973306 -0.20061746 -0.6361178 -0.6340612 -0.2578251
72 0.059027772 -0.48645553 -0.23395959 0.45462725 0.33550122 0.25573528 0.7995735 0.18765369 0.015623795 0.026916932 0.12291634 -0.26522014 -0.13574226 -0.24671943 -0.25780958 -0.074154735
18 -0.056648448 -0.7383691 0.2084876 0.36179042 0.116717964 0.69082725 0.77049387 -0.4660823 -0.51303804 0.5401285 -0.14363277 0.39941993 -0.28396168 -0.34259048 0.04448682 -0.4718407
61 0.28834623 -0.34113115 -0.69840306 0.43950272 0.39444387 0.23590304 0.7223651 -0.096035376 0.34074688 0.23263548 0.253199 0.016783942 -0.1338044 -0.71655244 -0.6843091 -0.3747881
30 -0.44015232 -0.113919295 0.078833655 0.37361264 0.32270646 0.3567931 0.7535102 -0.26775676 0.09414671 0.19104576 -0.35123184 -0.18545306 -0.6961139 -0.14062534 -0.04739056 -0.40464428
52 0.106808454 -0.65497386 0.02397521 0.09838719 0.3505538 0.1756722 0.82372856 -0.00911216 0.21282409 0.22222489 -0.5188939 0.25603223 -0.09754707 -0.8510898 0.015793467 0.70066357
50 0.0006055995 -0.65303296 0.14299023 0.23454227 0.17885341 0.17956583 0.76264596 0.22945318 0.14744897 0.17960814 -0.47654682 0.2490638 0.046463057 -0.74826854 -0.07526304 0.54494375
76 0.25515774 -0.53047025 -0.38609946 0.523889 0.30258405 0.1741036 0.8355735 0.0550324 -0.025045702 0.003703598 0.10436675 -0.15645619 -0.09995231 -0.35963333 -0.29837358 -0.17575692
20 0.05705685 -0.8582599 0.27555737 0.45323208 0.17145954 0.7011925 0.8108135 -0.32098654 -0.7225477 0.58184034 0.05179501 0.42969915 -0.25207323 -0.3907 -0.013316385 -0.58856773
23 0.0061632483 -0.8529115 0.27967387 0.3375401 0.12165204 0.64572656 0.8207192 -0.40244856 -0.7699598 0.50332505 0.011483596 0.4002827 -0.2040354 -0.41319492 0.019206837 -0.6147172
19 -0.022637717 -0.70997906 0.43531516 0.32895708 0.0795473 0.6872089 0.6833422 -0.46889016 -0.7100151 0.503255 -0.034349363 0.4253967 -0.2259494 -0.504641 0.04885403 -0.4401685
22 -0.08265397 -0.8691695 0.43110922 0.29535055 0.13615105 0.6482288 0.7892467 -0.42772666 -0.78439206 0.59611654 0.034237374 0.49647224 -0.25824538 -0.53287137 0.0026679514 -0.5595845
77 0.19282721 -0.31261596 -0.58840704 0.42061767 0.30515087 0.21266216 0.8352 -0.07193614 0.40540546 0.25086036 0.15494387 -0.011885631 -0.079756305 -0.72626644 -0.66900873 -0.27433297
17 0.0055580693 -0.8376142 0.41397914 0.38008225 0.18040445 0.70783377 0.7956061 -0.5678968 -0.6837077 0.6191516 -0.093358435 0.47369024 -0.11831025 -0.4870007 -0.0426252 -0.57453656
21 0.041381538 -0.8220167 0.50696313 0.29737693 0.19149666 0.6829344 0.78809136 -0.40532002 -0.8083459 0.49366376 -0.047842246 0.4655431 -0.1772324 -0.424198 0.069173485 -0.43850195
38 -0.44008175 -0.11379415 0.14815441 0.3673814 0.4445838 0.16166203 0.81110215 -0.15650064 0.060527712 0.0174911 -0.24622865 -0.31777444 -0.771014 -0.076556206 -0.057033382 -0.32937905
35 -0.618318 -0.053024642 0.21220565 0.49387228 0.4118861 0.16419569 0.9562089 -0.19521889 0.35000715 0.0039042681 -0.44508088 -0.48750362 -0.9415832 -0.017536726 0.09004017 -0.32365182
36 -0.48969987 -0.20314907 0.09444216 0.5714422 0.35241097 0.19729687 1.00407 -0.12765302 0.36344218 0.034831017 -0.47996303 -0.52409667 -0.86217695 0.0024987524 0.077546485 -0.24957928
37 -0.4153648 -0.23344074 0.12886557 0.45191965 0.36789012 0.2607837 1.0247039 -0.14527076 0.1271115 0.09411712 -0.5066186 -0.33518788 -0.91793233 -0.08411637 0.11155957 -0.3594814
39 -0.41886097 -0.18154192 0.18770905 0.37491444 0.3795247 0.30563012 0.8883966 -0.24755019 0.20265205 0.06839426 -0.48258787 -0.4024784 -0.86844695 -0.14246805 0.025924757 -0.2741637
29 -0.6098111 -0.3225694 -0.113830626 0.3293245 0.24134794 -0.42162937 0.80042505 0.5765647 -0.17949592 0.8689042 -0.10849576 -0.12003169 -0.76245594 -0.30294624 -0.21667725 0.13066208
32 -0.26629546 -0.42362443 0.15959442 0.49938467 0.13447405 0.3238427 0.85376656 0.104906894 -0.24087109 0.2672754 -0.008033741 -0.0016052832 -0.3374732 -0.25344846 0.157551 -0.39903823
55 0.030857258 -0.57868874 -0.11695299 0.2296144 0.2919616 0.19772626 0.841963 -0.0427394 0.25142625 0.1715321 -0.47896916 0.17220084 -0.13681778 -0.7024244 -0.0580977 0.4632009
3 -0.7540855 -0.029059907 1.0996124 0.3394469 0.52011716 0.24790068 0.5822515 0.30101985 -0.047095735 0.01843507 0.13057561 -0.41858968 -0.07216534 -0.5005858 -0.50728196 -0.07206127
4 -0.7047512 0.0085225385 0.96143585 0.3146864 0.44431072 0.253565 0.5247139 0.3925007 0.020468913 0.07594965 -0.00016717392 -0.34645882 -0.02594633 -0.5354015 -0.4249146 0.148976
43 0.043651216 -0.6096453 -0.28896633 0.64778024 0.26470244 0.048232105 0.83422524 0.27929476 0.120578535 0.011371685 -0.038355958 -0.15518022 0.1332559 -0.24469627 -0.30849168 0.061054375
73 -0.2015624 -0.30974153 0.202749 0.47950166 0.1785563 0.22601227 0.68372315 0.14571412 0.01194864 0.13084985 -0.14452404 -0.057735525 -0.22143075 -0.2257344 -0.18222016 -0.012165962
40 0.31783032 -0.94458586 -0.20796025 0.30737638 0.4278277 0.1684042 0.7265408 0.009379965 0.05653062 0.20607786 -0.21482936 0.12704064 0.03550574 -0.6409242 -0.1982887 0.5083762
44 -0.062361896 -0.4019938 0.090660095 0.4245829 0.3187257 0.21214679 0.65890425 0.14346717 -0.013016102 0.25159523 -0.15932089 -0.019910634 -0.0817095 -0.4928391 -0.1808273 0.11004821
13 -0.3346115 -0.34522074 0.31949574 0.5231529 0.26008692 0.33785284 0.8374163 -0.13956702 -0.21141548 0.19720332 -0.13212597 -0.16457398 -0.32017085 -0.20122913 0.12846024 -0.25588414
45 -0.62516165 -0.2502668 0.038596146 0.46618387 0.26282024 -0.14191854 0.79979014 0.37474322 0.022642476 0.6019077 -0.061117336 -0.17738095 -0.5236579 -0.3159708 -0.1739042 0.042038694
51 -0.11014914 -0.38462156 0.19298548 0.33457538 0.17412011 0.2191599 0.7208657 0.19937171 0.09055966 0.20531562 -0.3198314 0.014151385 0.05466001 -0.6271838 -0.1452893 0.52375734
31 -0.4217582 -0.43467477 0.35092485 0.57352227 0.034524344 0.2778284 0.883683 0.016460737 -0.332113 0.3293044 0.14779282 -0.03889868 -0.33820814 -0.26876664 0.14368726 -0.3961435
57 0.12892632 -0.57738245 -0.18637 0.18471105 0.2512573 0.2894611 0.60288936 0.101326995 0.17728506 0.29489142 -0.28552046 0.15448682 0.0070672706 -0.8308726 -0.308353 0.41564143
53 0.24146697 -0.91578543 -0.113808215 0.27493942 0.45864946 0.23447663 0.84040034 -0.17203453 0.106058374 0.28516826 -0.4855777 0.19391139 -0.039920717 -0.69126284 0.08005408 0.6946077
47 0.46755737 -0.057163972 -0.2761619 -0.4454671 1.0621234 0.25741917 0.52130395 0.5365029 -0.30231094 0.08432333 0.41755953 -0.39332363 -0.7241462 -0.9779388 -0.8825843 -0.2702947
34 -0.23187318 -0.32767665 0.26983738 0.46290717 0.23880698 0.09137889 0.66596043 0.18407029 -0.14693275 0.19062087 -0.025831206 -0.10693705 -0.07200039 -0.29693922 -0.17107002 0.031300064
74 0.15238169 -0.24732548 -0.48021835 0.33868784 0.85249513 0.42954335 0.4689294 0.50341916 0.43190712 0.34943086 0.29238072 -0.22255693 -0.17581247 -0.65512866 -0.89175826 -0.081059225
75 0.21017545 -0.12829193 -0.6350487 0.33875656 0.86020094 0.4523905 0.4789266 0.5072402 0.44869602 0.33111975 0.32551318 -0.36408174 -0.24078363 -0.72464067 -0.82280266 -0.0944515
5 -1.0626291 0.14406714 1.4984236 0.40890506 0.7495086 0.29610974 0.67637646 0.44224086 0.041874815 -0.0012330562 0.13852586 -0.60184944 -0.16941407 -0.7277001 -0.6697074 0.043150365
1 -0.97997403 0.010020105 1.367849 0.466693 0.7330783 0.25173756 0.7208165 0.52125293 0.06685967 -0.013374325 0.025402803 -0.60195297 -0.103713736 -0.56962264 -0.6604923 0.19885616
8 -0.96670574 0.12364618 1.5445769 0.2837417 0.6683828 0.296289 0.6546963 0.5150287 0.08408528 -0.021978788 0.12688573 -0.59747434 -0.048096467 -0.7406637 -0.6606285 0.29817072
7 -0.94003254 0.020250348 1.3457638 0.3967502 0.6869987 0.21095015 0.6343294 0.5458187 0.069530144 -0.0805218 0.17064852 -0.62200445 -0.025746373 -0.5924814 -0.52580297 0.13427974
9 -0.9549034 1.4439225e-05 1.394076 0.39522588 0.7354867 0.33235398 0.6050379 0.51205754 -0.08024076 0.09082743 0.27483985 -0.5193091 -0.005908359 -0.6160502 -0.71665037 0.04684088
6 -1.0806009 0.06842301 1.5815933 0.49121514 0.718252 0.25049314 0.6647382 0.60105556 -0.062500365 -0.05135614 0.13269047 -0.65014213 -0.026306633 -0.66551054 -0.67612296 0.18326212
10 -1.0899383 0.03154257 1.5168899 0.46800217 0.7212516 0.23902962 0.779258 0.5932244 -0.0138672665 0.024266133 0.0034516652 -0.68873966 -0.09966469 -0.6846176 -0.6161999 0.25347635
46 -0.666497 -0.1937911 -0.12922226 0.55623144 0.3092815 -0.45043898 0.833537 0.58697695 0.10104774 0.71278495 -0.15371788 -0.15283483 -0.8428119 -0.11769684 -0.16201325 0.15951405
12 -0.29218233 -0.1252501 0.16623461 0.34509495 0.41790178 0.14838007 0.6656137 0.22983354 0.2055257 0.16427097 -0.08655328 -0.33033103 -0.3611768 -0.3367746 -0.28733137 0.055019118
14 -0.35826626 -0.21201403 0.30356446 0.3357198 0.31517372 0.16085956 0.74455905 0.10644716 0.089749984 0.116236046 -0.25511992 -0.24150978 -0.41538864 -0.40936854 -0.071709536 0.06572371
41 0.028605334 -0.59905475 -0.060168438 0.41446736 0.26512983 0.16199255 0.70726854 0.23530528 -0.06239275 0.16884722 0.05366855 -0.18144943 -0.03929584 -0.39072958 -0.32951906 -0.04144728
15 -0.32574847 -0.13122198 0.120543234 0.36402673 0.3197621 0.11547016 0.772705 0.18692039 0.2081355 0.064927444 -0.03912576 -0.333474 -0.3768029 -0.29845434 -0.2730615 -0.05665318
33 -0.4037099 -0.21150067 0.30115315 0.47196686 0.31397986 0.2328694 0.7969016 0.11073047 0.09535257 0.19005138 -0.18545194 -0.23067734 -0.34632063 -0.30877653 -0.0870905 0.073369384
16 -0.313953 -0.20853452 0.13211533 0.4122979 0.30276284 0.20736082 0.6876352 0.10068911 0.041944563 0.21435404 -0.13794155 -0.1588003 -0.3101489 -0.28230152 -0.21011567 -0.048524067
48 0.41458967 0.0058263284 -0.28908584 -0.4685754 1.180044 0.35582203 0.5442988 0.48881316 -0.23144765 0.1120053 0.5320169 -0.5660727 -0.6899694 -0.9266747 -1.0095044 -0.22538835
54 0.09875358 -0.6751916 0.038062163 0.12010922 0.32701346 0.21238662 0.75048125 0.057013273 0.22265714 0.15656061 -0.48912147 0.18408577 -0.1044963 -0.7396013 -0.07492659 0.52077764
68 0.15490164 -0.15488647 -0.45089447 0.31875104 0.4497989 0.21298395 0.64915335 0.22829169 0.3864583 0.14761107 0.17721228 -0.0676759 0.046491195 -0.6399501 -0.84468806 -0.027651522
