77 16
11 -0.15475744 -0.3604563 0.49412358 -0.020366428 -0.08728666 0.3110897 0.6474655 0.11794481 -0.4444927 -0.19312938 -0.59137064 -0.09454845 -0.73126686 -0.5533084 0.0256169 -0.3606544
49 -0.14061444 -0.65597314 -0.0050161104 0.03124381 0.3382272 0.46747857 0.87905055 -0.15649715 0.063526444 0.36014923 0.10280307 0.14841925 -0.2774099 -0.34155464 -0.2749114 -0.45168665
56 -0.067183964 -0.46291918 0.13804439 -0.2321993 0.26458994 0.20347613 0.7410261 -0.28387374 -0.3074183 0.30453816 0.033377893 0.28028384 0.01622168 -0.47511056 -0.40354326 -0.34515375
28 0.040241145 -0.5335489 0.10622002 0.22760072 -0.014049102 0.37878832 0.65989333 0.002518625 -0.24008766 -0.07876394 -0.4096612 0.016984172 -0.4806951 -0.3804236 -0.04093885 -0.41627437
26 0.10485443 -0.66649187 0.102254294 0.4383309 0.09530958 0.3102361 0.7103761 0.08930814 -0.17402337 -0.027433103 0.009322861 0.009878374 0.21015137 -0.39654085 -0.28448433 -0.46253014
24 -0.2311631 -0.7080831 0.46031955 0.14136662 -0.18271728 0.09147526 0.63861394 -0.09096987 -0.71146667 -0.1063821 -0.11942082 0.21085955 -0.0661698 -0.51454777 0.70546484 -0.46469772
59 -0.46326596 -0.29136434 -0.13083094 -0.19159894 0.27614397 0.31032267 1.0078175 -0.36658952 0.06214974 0.5439427 0.2999822 0.4110262 -0.20471945 -0.4828029 -0.5083346 -0.52820325
2 -0.69616425 -0.36467326 0.9726393 0.29593003 0.18765062 0.3099088 0.49243405 0.15505424 -0.35489184 -0.090551466 0.23813276 -0.9739774 -0.13784826 -0.87731624 -0.15177949 -0.08032126
63 -0.41342738 -0.24315017 0.10689327 -0.16937546 0.25011843 0.2428855 0.9424855 -0.30480582 -0.044340514 0.5233932 0.32185906 0.20832296 -0.1107877 -0.5204746 -0.4526227 -0.41185725
65 -0.32993808 -0.5996568 -0.031472787 -0.07794787 0.30152658 0.34441605 1.1048715 -0.34960234 -0.05730293 0.51591724 0.2606671 0.39247525 0.01993554 -0.42552373 -0.42199692 -0.55717534
64 -0.41218013 -0.4096263 -0.10105789 -0.28064698 0.36080858 0.336923 1.0462631 -0.4114266 0.012657002 0.6160866 0.34502232 0.30207983 0.034642253 -0.42129382 -0.53032404 -0.56035864
66 -0.42293414 -0.4857021 -0.0657295 -0.11030895 0.23549111 0.28893492 1.0404077 -0.37878683 0.0878514 0.5670311 0.3942134 0.26045692 0.07105921 -0.42304072 -0.4894422 -0.52250105
42 -0.004879463 -0.6775083 0.1442109 0.30115503 0.123451956 0.21888156 0.6300469 0.0040978496 -0.187669 0.07711195 -0.11021513 0.045051284 -0.04353476 -0.3869725 -0.21312237 -0.32349253
27 -0.0008351109 -0.36718863 0.23929895 -0.042475376 0.118799925 0.24576756 0.72028685 -0.060286075 -0.28892478 0.08387035 -0.2814724 0.18036866 0.036224034 -0.5476395 -0.3511394 -0.294618
25 0.15259717 -0.8245456 0.37533182 0.5020674 0.08499798 0.39905676 0.6782661 0.0437717 -0.26153144 -0.069926836 -0.31385362 -0.124299414 0.015231833 -0.43005058 -0.3296845 -0.31378624
58 -0.30413386 -0.5645035 -0.028317466 -0.009638809 0.38924804 0.3691019 0.9980662 -0.28093612 0.102835745 0.58546567 0.47171116 0.23653351 0.2093939 -0.54155964 -0.7949877 -0.54989266
62 -0.3180952 -0.4031885 0.00011650333 -0.29674268 0.2950205 0.2732343 0.9116093 -0.33191925 -0.12895556 0.51210827 0.21029769 0.445586 -0.13523082 -0.38445407 -0.20514058 -0.53970474
70 -0.06183598 -0.5254788 0.20286687 0.37353876 0.16989586 0.32268643 0.5592855 0.021302912 -0.101830624 -0.03983736 -0.20251764 -0.14549926 -0.29261625 -0.35225517 -0.14681838 -0.32655564
60 -0.32694322 -0.35104942 0.0190662 -0.17412725 0.38693005 0.34506294 0.9828609 -0.3161188 0.07047753 0.54828393 0.28147864 0.23501292 -0.17691138 -0.39823127 -0.5117929 -0.49506253
71 0.02008251 -0.86224544 0.15307802 0.5106587 0.17682545 0.34441572 0.7483595 0.1385055 -0.08019496 -0.007145701 -0.11998242 -0.15102123 -0.22631182 -0.36259454 -0.26060736 -0.3924963
69 0.13086745 -0.8421262 0.26998708 0.46842274 0.1391682 0.4120464 0.75659454 0.083148025 -0.07347752 0.07461648 -0.12723665 -0.11395177 0.043711554 -0.45589814 -0.42612785 -0.20570749
18 -0.085091606 -0.79190576 0.23170856 0.023818424 -0.07920496 0.07573709 0.68077135 -0.1537928 -0.6839853 -0.068434045 -0.026305314 0.52321774 0.06727986 -0.4987052 0.63529706 -0.6252029
67 -0.33668113 -0.43869385 -0.1075034 -0.29352802 0.3760575 0.39584187 1.0425358 -0.40908894 0.04756797 0.6338792 0.3241616 0.43576553 0.036759764 -0.4535942 -0.5731755 -0.47641936
72 0.054041423 -0.692727 0.25494978 0.38582385 0.12488202 0.4175091 0.65189767 0.050958127 -0.071276836 0.061300524 -0.24290743 -0.16501962 -0.0922798 -0.33659655 -0.53093916 -0.23808224
61 -0.32598114 -0.5012801 -0.06559463 -0.16828717 0.34618482 0.24480481 0.9119192 -0.4183269 0.021278694 0.6224099 0.47068915 0.3876155 0.0042631556 -0.41782188 -0.5105235 -0.5705023
30 -0.30209535 -0.5127019 0.25857005 0.056132108 0.08265939 0.30036166 0.56710124 -0.11674217 -0.23496488 -0.045406114 -0.5292931 0.22863947 -1.0223621 -0.17929693 0.32536772 -0.528021
21 -0.30257848 -0.8070716 0.20922087 -0.07514709 -0.06595704 -0.013303593 0.7094711 -0.13255721 -0.78435856 0.063073695 0.3131685 0.48972598 0.003492536 -0.47769848 0.8174962 -0.7105401
22 -0.29384944 -0.90453327 0.2403943 -0.012460452 -0.1414653 0.0091526 0.6069417 -0.1566487 -0.7598104 -0.03142191 0.22825165 0.4643311 0.1398644 -0.51794136 0.93564117 -0.67927426
20 -0.3847823 -1.0662619 0.28422266 0.03572985 -0.08945702 0.0023898128 0.69652534 -0.1758533 -0.92418075 -0.079273 0.21883118 0.40409368 -0.0822008 -0.601384 0.97801363 -0.80202645
23 -0.31949612 -0.94305265 0.37338692 0.105091944 -0.2015592 0.0370074 0.56721175 -0.059938822 -0.8669457 -0.035512164 0.29087767 0.36678764 0.10908266 -0.46693984 1.0200565 -0.71249384
19 -0.35614717 -0.86223626 0.17573038 0.020362156 -0.1259845 -0.07629229 0.5784062 -0.18814178 -0.6571608 0.041830305 0.34876966 0.41368654 0.08430178 -0.40674645 0.8572284 -0.74142575
50 0.0766787 -0.22998685 0.47945407 -0.17371774 0.07903752 0.3172554 0.58365726 -0.21845233 -0.56551427 -0.06353563 -0.41370553 0.28003812 0.08366416 -0.656625 -0.31332806 -0.14283678
17 -0.46127105 -0.75724185 0.31263292 -0.10239442 -0.1976561 -0.031735558 0.5447569 -0.111574195 -0.80290407 -0.0036321012 0.33837238 0.25510693 -0.03285698 -0.5454171 0.79994524 -0.6147183
77 -0.27981082 -0.58623546 -0.10794564 -0.09123507 0.25386524 0.28137228 0.89351785 -0.25499713 0.08256319 0.5740413 0.34748593 0.19490209 -0.09372068 -0.3358255 -0.31494185 -0.57636905
76 0.04435319 -0.6531148 0.23114443 0.451281 0.12922895 0.29351276 0.6652871 -0.04216838 -0.0452116 0.0230825 -0.3156717 -0.007396646 -0.043739315 -0.42092767 -0.47880945 -0.3249208
52 0.075544275 -0.19830546 0.5686602 -0.43897083 0.172143 0.3095685 0.7831238 -0.15851213 -0.51025033 -0.05547367 -0.43827772 0.44323128 0.07783067 -0.6080559 -0.4917156 -0.11301425
35 -0.39193496 -0.30241066 0.53154016 0.053956732 0.08891507 0.35971373 0.6798436 -0.15380442 -0.3161258 -0.24519795 -0.85134023 0.026877202 -1.2770417 -0.37570047 0.34287846 -0.30675334
38 -0.40790072 -0.30701724 0.43097216 -0.08775864 0.081808835 0.29964855 0.73222274 -0.2842912 -0.10854575 -0.10591224 -0.7921946 0.20836994 -1.3146057 -0.28857797 0.25727537 -0.38603497
36 -0.41673136 -0.31069595 0.3730456 -0.059695557 0.16545883 0.41343892 0.62068474 -0.2677533 -0.038114995 0.04908746 -0.5559056 0.117194824 -1.1693729 -0.24398042 0.3366513 -0.42338103
37 -0.44686347 -0.08970031 0.43015736 -0.108979456 0.08734434 0.25282827 0.5899501 -0.14120764 -0.17088182 -0.07770064 -0.7104244 0.05101518 -1.3519487 -0.4129486 0.24509715 -0.3985088
39 -0.3721398 -0.27730045 0.41195336 -0.03329726 0.20315307 0.43942145 0.6195254 -0.29926223 -0.0556162 0.0026359435 -0.57916313 0.038645126 -1.2465872 -0.2963157 0.08642147 -0.45899454
29 -0.109329365 -0.7051068 0.008046915 -0.14058316 0.005609309 0.36451557 0.6295526 0.18829809 -0.6246703 0.06574277 -0.32359472 -0.5045119 -0.62139183 -0.5631241 0.03985785 -0.05606458
32 -0.21238504 -0.6276947 0.36304855 0.10101266 -0.027076786 0.2547321 0.5142537 0.047968313 -0.42748287 -0.08472646 -0.063567825 -0.016481403 -0.20572385 -0.4925567 0.49383754 -0.45146286
55 -0.04093854 -0.30088586 0.39808023 -0.2607467 0.1659278 0.36268303 0.7125157 -0.123543665 -0.3078657 0.00404288 -0.40078115 0.38811323 0.10511675 -0.6241421 -0.32049555 -0.17369244
40 0.10094108 -0.5353789 0.28094745 -0.29803455 0.08402535 0.16126011 0.7947132 -0.09009262 -0.33555868 0.09180415 -0.09674231 0.4564022 0.3946413 -0.53204465 -0.67417324 -0.3975228
4 -0.6479413 -0.24758838 0.8199093 0.057846326 0.015055325 0.29585966 0.42807612 0.1535352 -0.40906507 0.07916389 0.0893161 -0.7763929 -0.2488916 -0.81932074 -0.05924153 -0.07437686
3 -0.68588054 -0.22618777 0.77626 0.07704657 0.12816827 0.18082015 0.418714 0.13825114 -0.40465814 -0.06392315 0.12694542 -0.78231364 -0.18843235 -0.7495805 0.053066883 -0.053719576
73 0.01533529 -0.58345985 0.42859635 0.20734474 -0.026882598 0.3198816 0.60228544 0.089540966 -0.37252095 -0.14504856 -0.4233727 -0.00662724 -0.2584127 -0.55834913 -0.16801849 -0.18255767
43 0.09684438 -0.6997425 0.27163282 0.3459579 0.15887927 0.2546682 0.67370176 0.06898135 -0.097507745 -0.026782846 -0.07783759 -0.082875155 0.19556516 -0.4497511 -0.5560383 -0.22229876
44 -0.00971188 -0.456781 0.46652436 0.080299474 0.053881887 0.2865529 0.551554 0.015226388 -0.50349665 -0.11424814 -0.45740837 0.02902396 -0.3114433 -0.5523665 0.02837045 -0.24435581
57 0.004933414 -0.23135513 0.45972475 -0.15593076 0.13366787 0.31860992 0.6971219 -0.11333566 -0.5575707 -0.11358988 -0.48649046 0.31310412 0.13210346 -0.6374253 -0.0725325 -0.17361154
34 -0.23374474 -0.47622752 0.21361649 0.052656673 0.064041704 0.2947709 0.57467103 -0.04243384 -0.2540035 0.08697471 -0.069259904 -0.12956202 -0.16647403 -0.46883288 -0.0051351264 -0.2961786
74 -0.07770017 -0.5123044 0.05127362 0.11498643 0.6253568 0.7394678 1.1160986 -0.41538057 0.28041407 0.70125216 0.29430562 -0.06741882 -0.06514867 -0.4569707 -0.7685741 -0.22862275
31 -0.086286746 -0.66413313 0.27406317 0.036308534 -0.08864913 0.1469548 0.6394842 -0.060114656 -0.5680777 -0.12496488 -0.10921028 0.15294945 -0.18477239 -0.4917038 0.47357008 -0.45029005
45 -0.24334425 -0.510738 0.09555677 -0.10152444 -0.004592659 0.46169668 0.5359066 0.08299095 -0.48828235 0.12338137 -0.3219385 -0.46084276 -0.78299475 -0.5686669 0.025813721 -0.12818883
75 -0.08707161 -0.70782876 0.11157897 0.0390466 0.79750884 0.8237165 1.0153472 -0.41405332 0.45629972 0.80896336 0.2157512 -0.021507338 -0.1203226 -0.3271673 -0.69870204 -0.2277233
53 0.279502 -0.398393 0.5077515 -0.4377725 0.08745012 0.27893275 0.7663084 -0.020450333 -0.51513684 -0.109365486 -0.5494852 0.63191956 0.19284526 -0.66188353 -0.53330934 -0.29038885
51 0.11090352 -0.49234992 0.32803425 0.102838896 0.071957976 0.14378707 0.72297627 -0.072391406 -0.4991605 -0.10545356 -0.38691238 0.23757797 0.3080715 -0.59473664 -0.20066579 -0.12989834
47 -0.074276 -0.75451446 0.37588307 -0.17440008 0.64018995 0.9038153 0.4508386 -0.024828687 0.37830326 0.4977894 -0.0022254519 0.26985508 -0.0209664 -0.1809066 -0.48466173 -0.7840656
13 -0.20116633 -0.51766723 0.46899828 0.09335643 0.005355798 0.27937907 0.52921337 0.098174155 -0.60791165 -0.106249586 -0.24649234 -0.14369306 -0.37945676 -0.54225785 0.3876912 -0.30115435
9 -0.7951078 -0.276276 1.2013816 0.1283059 0.011525053 0.19924334 0.38767475 0.11096094 -0.5890761 -0.11177612 0.17121547 -0.98697674 -0.26693162 -1.0989528 0.07690652 -0.08377075
1 -0.84158015 -0.28221586 1.2371435 0.1791987 0.10909494 0.22362868 0.45745155 0.22454238 -0.42695716 -0.03690377 0.14412387 -1.1529801 -0.24418053 -1.0548683 -0.23933679 0.06960669
7 -0.9254947 -0.18769452 1.3016062 0.080462374 0.05805807 0.34432212 0.56237227 0.17429788 -0.44232318 0.020104378 0.27816525 -1.3558201 -0.4285131 -1.2066357 -0.17567585 0.08795155
8 -0.8273 -0.26922178 1.2357503 0.15384379 0.113779515 0.24782442 0.4347639 0.26747876 -0.4966504 -0.08149271 0.20321864 -1.310738 -0.24814308 -1.0761969 -0.10445315 0.091511786
6 -0.86848474 -0.1543613 1.2152202 0.16907503 0.09116407 0.2476292 0.3602747 0.24909608 -0.41920802 -0.06537807 0.17376073 -1.2374005 -0.30131996 -1.0724602 -0.18216965 0.093494006
10 -0.7108977 -0.4183287 1.0865914 0.2665109 0.031916197 0.24515012 0.5013747 0.17981549 -0.55325854 -0.065927155 0.06620048 -1.0413475 -0.29535395 -1.0543323 -0.12510292 -0.045874227
5 -0.75852376 -0.22652459 1.133777 0.16612232 0.04489206 0.26105797 0.4422955 0.20349772 -0.4471254 0.013114651 0.08745077 -1.1200001 -0.19712041 -0.996845 -0.19170752 0.08531359
68 -0.3004684 -0.48871082 0.053999014 0.017237097 0.46182984 0.3969414 1.0614661 -0.27121538 0.13111776 0.63455456 0.34989235 0.29779354 0.0045372285 -0.485662 -0.7744556 -0.5036151
12 -0.19133797 -0.46180794 0.5444433 0.03359954 0.045513738 0.33631888 0.55793035 0.0040591364 -0.38096735 -0.11309761 -0.26267272 -0.1834859 -0.32671058 -0.5126256 0.08214603 -0.22920065
41 0.16583462 -0.76450753 0.2058037 0.27633935 0.1293922 0.30949292 0.7223484 0.09708319 -0.18376315 0.024352064 -0.124210544 -0.01950672 0.19112018 -0.45851025 -0.53004324 -0.31932548
14 -0.24291767 -0.44805652 0.45335108 0.0035246443 0.047683075 0.31960908 0.53490674 0.034382306 -0.23163357 -0.001679085 -0.3176767 -0.23461737 -0.45203298 -0.4780383 -0.096213475 -0.17925021
33 -0.12710603 -0.3894918 0.43977863 0.016218666 0.08053109 0.41135904 0.6584389 0.013655486 -0.3217485 -0.0757559 -0.43779168 -0.09984989 -0.5068031 -0.4456037 -0.13852501 -0.1821523
15 -0.22229664 -0.34050784 0.33792114 0.07254059 0.19695719 0.44994357 0.63381547 -0.08452652 -0.09970907 0.12095807 -0.1961977 -0.178458 -0.49283907 -0.43616188 -0.21922842 -0.22168028
16 -0.2658877 -0.3462227 0.4271379 0.11554828 0.116995715 0.3533057 0.595525 0.01996219 -0.33670965 0.021916028 -0.31889734 -0.22312348 -0.4701465 -0.44289723 -0.113687135 -0.17957404
46 -0.06157525 -0.65706253 0.08673195 0.05863912 0.06853143 0.42893204 0.5742556 0.16812637 -0.6212883 -0.039011948 -0.21162559 -0.5678141 -0.6079803 -0.56925255 0.058021832 -0.15941931
48 -0.09892706 -0.823184 0.3017962 -0.35019282 0.78375804 0.9902124 0.78717095 -0.104802266 0.52405435 0.5940694 -0.025797222 0.27342406 -0.07808858 -0.28799275 -0.8031912 -0.8833506
54 0.09072222 -0.27933803 0.51477313 -0.32858816 0.06154894 0.32357657 0.78907984 -0.049510695 -0.47085997 -0.028778467 -0.609208 0.50180167 -0.11295683 -0.57284933 -0.4376275 -0.21211298
