34 128
34 -0.007072365 -0.009887165 0.16258508 -0.03254745 -0.05172999 -0.059073113 0.18342957 -0.023412833 -0.027127309 0.06574149 0.19184642 -0.019855428 -0.07696197 0.01762265 -0.08298499 -0.0100232875 0.013662714 0.1275583 -0.2508622 -0.05827276 0.14549384 0.236056 0.084655404 0.027929895 -0.11997766 -0.10246821 -0.07029171 0.113391034 -0.05401769 -0.099535055 -0.23027219 -0.057130177 0.0029160208 -0.12328184 -0.17071724 0.07311908 0.28620484 0.05456429 0.25953332 -0.02758393 -0.051813845 0.028071232 -0.011692824 -0.23230806 -0.042017374 0.14812627 0.04265551 -0.161059 0.016441122 0.09065149 -0.01447573 0.1975276 0.11699883 -0.008259039 0.082871236 -0.0050416 0.16854648 -0.123001456 -0.008138961 0.030523175 0.2151689 -0.10972057 -0.12049975 0.03919395 0.063706644 -0.10095232 -0.049209025 0.15398277 -0.21802285 -0.03866025 0.23156384 0.115619734 -0.11309489 0.045898464 0.08242606 -0.16475247 -0.07719595 -0.008253799 0.050132237 0.2764544 0.21884365 -0.08926198 0.06589567 0.24105705 -0.009203268 0.1942387 0.18689796 -0.20521145 0.15919682 0.13094965 -0.083153546 0.018680794 0.02670699 0.0356944 0.13521804 0.08488945 -0.2650497 -0.32356545 -0.16100201 -0.098663434 -0.18496646 0.11527596 0.078590445 0.108983114 0.0076097683 -0.053935707 0.11438633 -0.06861932 0.015111212 -0.09901494 0.023329485 0.061204426 0.05542374 0.16641419 0.10399351 -0.08991649 0.04177934 0.2503007 0.0031959831 0.0046167173 0.0436332 0.03241013 0.018939173 0.07568119 0.034314174 -0.072054766 -0.019851055 0.01919905
1 -0.022516608 0.06438344 0.17636818 -0.060557373 -0.053705454 -0.19785503 0.1080201 0.0009893253 0.0076047126 0.1091443 0.2860445 -0.042639945 0.019272812 -0.049975816 -0.0051025986 -0.055425737 0.05381878 0.15819268 -0.021527905 0.07026151 0.10533154 0.17635834 0.05065757 0.0032639073 -0.12877202 0.07166841 -0.095266886 0.1528575 0.05141691 -0.0419434 -0.21680278 0.037147477 -0.11546767 -0.004644441 -0.071326524 0.043112215 0.21269 0.11645082 0.19632186 -0.02496209 -0.047764834 0.14057751 0.023348788 -0.14253025 0.06549126 0.15688217 -0.0053078365 -0.14991732 -0.023713721 0.089243524 0.03362749 0.0803876 0.10150158 0.054228373 0.12365473 0.018378716 0.04892574 -0.026276762 -0.06296237 -0.055493142 0.1558103 -0.12562138 -0.0034175625 -0.012845702 0.17961511 -0.11798124 -0.01755797 0.012272597 -0.01623494 -0.09683339 0.057882763 -0.0044566602 -0.15388867 -0.019451978 0.007642787 -0.117913656 0.015669454 0.057169557 -0.06542927 0.2536611 0.03607556 -0.04078769 0.0016248084 0.14916721 0.08683643 0.07073956 0.17677906 -0.18757088 0.14423126 0.13258666 -0.14625816 -0.09984863 -0.11128762 0.05142681 0.141141 0.039237767 -0.21669595 -0.2713468 -0.0031577088 -0.047346618 -0.2772989 -0.025439566 0.14018273 0.05971433 -0.038397692 -0.017198807 0.025345495 -0.13820092 -0.051967412 -0.1052653 0.029797487 0.0075787287 0.069380805 0.049395826 0.016551744 -0.008025648 0.018995643 0.13355951 0.008207613 0.0007070976 -0.032048915 0.018234208 -0.04631028 0.06151371 -0.033150498 -0.20475353 -0.05284534 -0.0053610927
33 -0.011347541 0.0017123054 0.14228915 -0.040083665 -0.040984754 -0.06757221 0.17423883 -0.025087034 -0.029570606 0.08070834 0.1944994 -0.016957333 -0.0623982 0.016393125 -0.058064673 -0.0047099 0.023490148 0.12168355 -0.20461766 -0.021879 0.13121337 0.21676436 0.06293999 0.023308774 -0.11731974 -0.083236985 -0.07604343 0.10556524 -0.037793517 -0.08709614 -0.21270396 -0.048675325 -0.0073292824 -0.09808637 -0.15204036 0.06923604 0.26284394 0.06074824 0.23653305 -0.020459095 -0.038681038 0.03602282 0.009877985 -0.20885335 -0.035637796 0.1490143 0.033166006 -0.154812 0.013830047 0.07673142 -9.498325e-05 0.17645301 0.115790606 -0.012628793 0.08367512 0.004013524 0.1441684 -0.102973424 -0.0022556356 0.00970263 0.19804154 -0.10944394 -0.10821478 0.037340898 0.07341821 -0.09752038 -0.03655556 0.12799361 -0.19003981 -0.043341976 0.19680174 0.09492376 -0.10656517 0.042663522 0.06832151 -0.14812265 -0.06872121 -0.003857308 0.034908146 0.26457235 0.19259498 -0.080601186 0.03823332 0.2161522 0.0051547536 0.16721141 0.17387015 -0.1879093 0.15502101 0.11958489 -0.08536165 -0.0006358294 0.003638779 0.032571062 0.124215975 0.07591992 -0.24217664 -0.2917097 -0.13695389 -0.08976858 -0.17206262 0.09251068 0.08458148 0.08783002 -0.0023045405 -0.035827506 0.10578721 -0.06976408 0.010923549 -0.09360552 0.025605153 0.06733726 0.055871658 0.12554549 0.090962835 -0.08117702 0.031619772 0.22291106 0.00083952106 2.201675e-05 0.031660464 0.037623785 0.00071306503 0.0741225 0.017418839 -0.07726035 -0.016105972 0.016827352
3 -0.017512858 0.02992984 0.16968253 -0.045819655 -0.05350713 -0.15742037 0.11298653 -0.007587565 -0.0032582132 0.08629755 0.24813746 -0.03641407 -0.009490357 -0.038922872 -0.029134972 -0.04945863 0.03981713 0.14451233 -0.0988857 0.020415995 0.115199536 0.19103786 0.06110803 0.016666802 -0.12266733 0.021241296 -0.086312585 0.13673949 0.014589097 -0.066606715 -0.21494 0.0026004189 -0.07989894 -0.03713104 -0.09476893 0.05321843 0.22385603 0.081009254 0.21395686 -0.01186256 -0.048750915 0.09867528 0.012495183 -0.15998179 0.023157878 0.14461209 0.017915353 -0.1465003 -0.0073987395 0.08161713 0.020994782 0.1054981 0.10614782 0.039137457 0.10001603 0.013558641 0.07798861 -0.060623385 -0.052789517 -0.0121074915 0.18079737 -0.11572623 -0.035616487 0.0101258 0.14146036 -0.11294028 -0.02392091 0.058073197 -0.069093674 -0.08149696 0.111956604 0.018036315 -0.14265499 -0.009635741 0.033388834 -0.13686562 -0.018551625 0.027703967 -0.020363078 0.25456494 0.086484075 -0.060897425 0.033550788 0.17766705 0.051114123 0.11501466 0.16191883 -0.17657131 0.13878618 0.122888364 -0.11439797 -0.049958065 -0.0589753 0.057189334 0.1368682 0.046921603 -0.22462769 -0.2834513 -0.052932173 -0.063507356 -0.23968123 0.012110725 0.11556746 0.07621811 -0.026269812 -0.035107803 0.05287436 -0.11960008 -0.021069089 -0.10074493 0.025234103 0.015629357 0.07721716 0.09354763 0.041739855 -0.037446413 0.016527377 0.16532126 0.008333922 -0.0065838005 -0.018254863 0.020393465 -0.025542878 0.07097685 -0.016236588 -0.16283402 -0.036598913 -0.003193281
2 -0.021309359 0.021742672 0.16203432 -0.062392205 -0.055595327 -0.16732629 0.10543572 -0.0010446577 -0.006995961 0.085779004 0.2555444 -0.027510785 -0.021565484 -0.04466258 -0.019062115 -0.05974711 0.051937353 0.15473595 -0.07059066 0.018110666 0.10917454 0.17307115 0.059533063 0.021090133 -0.108425245 0.029652672 -0.07476174 0.133596 0.03738464 -0.07281166 -0.21257655 0.006939012 -0.08063355 -0.036866583 -0.0936375 0.06324417 0.2173723 0.088425316 0.20747958 -0.025442444 -0.04129735 0.109685704 -0.00034146148 -0.15356292 0.050151996 0.13391759 0.008137479 -0.15049404 -0.0058526937 0.092572495 0.015817953 0.095831424 0.11136499 0.049177874 0.110843815 0.015593675 0.05980513 -0.05781573 -0.046572533 -0.016617317 0.18193512 -0.10246906 -0.029279845 0.011920118 0.1370657 -0.104704574 -0.024218433 0.053719774 -0.060252227 -0.08392678 0.11279808 0.0065490426 -0.13637266 -0.017307678 0.024028664 -0.1215766 -0.025047267 0.039943434 -0.019122519 0.2605497 0.06989063 -0.06467367 0.031930126 0.17420182 0.060807128 0.09432882 0.16975622 -0.19079368 0.14738798 0.11652706 -0.12323584 -0.05907036 -0.064697064 0.053676326 0.13869873 0.05529585 -0.22003448 -0.28008598 -0.040489346 -0.058350526 -0.24680808 0.02092182 0.1076639 0.07121789 -0.015443327 -0.024863437 0.04564572 -0.13333976 -0.033537608 -0.103914745 0.02591213 0.016905194 0.07028211 0.089635395 0.031542312 -0.043109853 0.023207579 0.15556732 0.012425796 0.010056933 -0.021919422 0.021573504 -0.039100528 0.06743881 -0.022693185 -0.1748589 -0.034906518 -0.0061375825
32 -0.0059362245 0.004443142 0.1515269 -0.04211188 -0.036011543 -0.0697554 0.14380467 -0.033942938 -0.01857723 0.07231251 0.19816469 -0.039511707 -0.051921725 -0.0062967893 -0.0668671 -0.027603548 0.014389954 0.11393746 -0.18659823 -0.029035911 0.11987892 0.20712991 0.0744559 0.024691157 -0.12232877 -0.04569893 -0.073017634 0.10980773 -0.033202514 -0.07769664 -0.2140335 -0.028033877 -0.03610761 -0.08236331 -0.12506148 0.05694596 0.24508096 0.07945733 0.22694086 -0.015233092 -0.04051595 0.03664214 -0.008751606 -0.18887785 -0.013396845 0.13809988 0.042231653 -0.15416178 -0.005314631 0.08589465 -0.005219036 0.1591392 0.11181251 0.005369261 0.077111825 -0.00021646108 0.1399596 -0.09205828 -0.022879079 0.008620122 0.19434568 -0.11295728 -0.06680471 0.030378554 0.08658639 -0.1025154 -0.0356824 0.10662579 -0.16538413 -0.05900896 0.17346847 0.072778426 -0.11191635 0.033881705 0.05540497 -0.14904633 -0.05221756 0.007639315 0.015096029 0.25624084 0.16606806 -0.070068195 0.03860349 0.19991998 0.010444418 0.15941809 0.17037463 -0.17589217 0.14608781 0.12451653 -0.09316584 -0.0073146904 -0.0040717334 0.035835028 0.11803369 0.065678924 -0.24234417 -0.29124835 -0.12651095 -0.08945163 -0.1876455 0.05936921 0.08269905 0.098591946 -0.0015716371 -0.052600287 0.08340284 -0.090056986 0.003610139 -0.09287312 0.01559045 0.043627143 0.07418385 0.12209119 0.06679714 -0.06285186 0.024064068 0.21731098 0.005684596 0.012875721 0.028352685 0.029353926 -0.0036651515 0.08912122 0.015583666 -0.105680436 -0.030457092 0.021022996
4 -0.027959714 0.06667422 0.18139829 -0.053359747 -0.056240443 -0.2228111 0.10426884 0.0041007 0.007987844 0.109080166 0.3032974 -0.0625673 0.024597049 -0.0545178 0.009768576 -0.06271113 0.067378916 0.15860672 -0.0025033248 0.09650968 0.10732575 0.17624566 0.039585304 0.01013936 -0.142644 0.09367852 -0.09997652 0.16008654 0.050835278 -0.050284054 -0.22059532 0.037845466 -0.1310259 0.0094024725 -0.05849284 0.053594705 0.21335663 0.12071491 0.19726142 -0.02563807 -0.06341109 0.15917943 0.033107188 -0.13002467 0.08205027 0.1537506 -0.0054253996 -0.1398175 -0.020244779 0.09570851 0.032019924 0.07171485 0.112489484 0.06258149 0.12922418 0.022567227 0.03389733 -0.012743473 -0.07362197 -0.05550994 0.14869176 -0.12915546 0.010268377 -0.020401977 0.19929086 -0.10852633 -0.016579984 -0.0051025893 0.005896507 -0.09893885 0.053276263 -0.029900542 -0.166747 -0.0330478 0.011105602 -0.11455379 0.026046148 0.05376566 -0.07324286 0.25978148 0.018915154 -0.044204783 0.0046970476 0.14793923 0.08487328 0.053258825 0.17572495 -0.18598142 0.14288478 0.122130096 -0.14147842 -0.1173065 -0.12424405 0.060240965 0.1558063 0.043165643 -0.23327067 -0.27049005 0.0055908593 -0.040996835 -0.30067053 -0.045472663 0.14158821 0.06739396 -0.03279868 -0.0046130978 0.020909313 -0.15169838 -0.061197143 -0.11447271 0.027021352 0.00043428212 0.08098215 0.035158396 0.012216557 -0.0074200877 0.020181641 0.12166445 0.007914229 -0.004735012 -0.038625177 0.020619635 -0.055475254 0.06276701 -0.032540407 -0.2204009 -0.04229763 -0.0009432165
14 -0.015463053 0.03627965 0.16024424 -0.047427934 -0.05231394 -0.14304613 0.12096941 -0.005009766 -0.008112329 0.08336517 0.23132548 -0.03536441 -0.016941529 -0.02785797 -0.024762096 -0.04020851 0.040180597 0.14256635 -0.10796398 0.028372675 0.11744488 0.18990056 0.061107986 0.012673712 -0.12330663 0.007673243 -0.08319114 0.13079208 0.013806397 -0.071732126 -0.22182077 0.003954405 -0.06863211 -0.050889075 -0.098622724 0.062132984 0.23257855 0.09829417 0.20560834 -0.018567028 -0.04829558 0.09186846 0.0141587565 -0.16108869 0.025786582 0.15233338 0.011791787 -0.14929813 -0.004631866 0.09315174 0.00766479 0.1279761 0.1150456 0.03695041 0.09906964 0.017092682 0.082894035 -0.05127801 -0.039394952 -0.021969216 0.17123255 -0.11333417 -0.03854869 0.0074045165 0.13037002 -0.09817693 -0.024426997 0.05855898 -0.093231805 -0.076294824 0.1188098 0.02542645 -0.13114768 0.0023705298 0.039958626 -0.12756917 -0.03061894 0.020519176 -0.018128458 0.2510612 0.10404935 -0.06279288 0.030031385 0.17572597 0.048409063 0.10875854 0.16602598 -0.17585312 0.14077564 0.10989304 -0.117860995 -0.048933312 -0.045553245 0.053824965 0.12279741 0.06612048 -0.22043827 -0.2687551 -0.057613216 -0.07332844 -0.23563139 0.024479106 0.11507719 0.0812318 -0.01591629 -0.031077014 0.065966524 -0.1137891 -0.029986536 -0.10115476 0.019831223 0.032611173 0.066573575 0.08455314 0.049232934 -0.04782128 0.030324144 0.16324826 0.007980893 0.007034741 -0.0026412494 0.021848343 -0.021262873 0.061581235 -0.00565769 -0.1503529 -0.021993892 0.003502353
24 -0.016043201 -0.00077765423 0.14312755 -0.038238656 -0.035306953 -0.0455318 0.1705334 -0.031503934 -0.0146477735 0.07607698 0.18614489 -0.013934409 -0.062159464 0.0077182027 -0.078808784 -0.004148685 0.012567982 0.12050793 -0.23524845 -0.039272647 0.12397121 0.22468248 0.07315704 0.026538834 -0.1300932 -0.08858189 -0.070090696 0.10386973 -0.051844187 -0.08845065 -0.21979903 -0.055597093 -0.015029008 -0.11315327 -0.1559564 0.07858435 0.2593523 0.05971083 0.25333774 -0.025586147 -0.050057042 0.02825773 -0.011494402 -0.22584413 -0.033207525 0.14475107 0.043958265 -0.1549575 0.007110015 0.08865626 -0.0043485775 0.19279982 0.12626557 -0.01707578 0.068039246 -0.0010940277 0.16260083 -0.09999483 -0.000105003826 0.021968544 0.19734283 -0.10469818 -0.11453131 0.0425653 0.07281705 -0.09953799 -0.044429973 0.14462666 -0.20961596 -0.04266181 0.21180363 0.10058166 -0.10165734 0.047718722 0.074386716 -0.16616932 -0.07096258 -0.000116592215 0.0464074 0.28259817 0.2107095 -0.09256879 0.05043499 0.23732543 -0.0048006885 0.17707396 0.1837196 -0.19289158 0.16107246 0.11817996 -0.07747718 0.008871112 0.020452758 0.031573396 0.11949391 0.07107525 -0.25060904 -0.30937803 -0.14818579 -0.11285156 -0.18270396 0.08924122 0.06847537 0.10672443 0.0015362547 -0.050562095 0.10774825 -0.07385478 0.01532326 -0.092275195 0.026770692 0.06715707 0.0632891 0.15362847 0.08686366 -0.096617304 0.030242315 0.23977073 0.008200584 0.012126714 0.03812183 0.034299772 0.018474923 0.08304516 0.021367533 -0.07808282 -0.012806092 0.007542951
7 -0.03281046 0.16121596 0.20396866 -0.051420003 -0.0726243 -0.3321177 0.11688294 0.006999186 -0.00048158754 0.17364755 0.4203717 -0.11901006 0.11169533 -0.07464921 0.10252009 -0.08944087 0.07818918 0.19884579 0.10901545 0.22001481 0.09098047 0.19433653 0.010784407 0.030010449 -0.18851753 0.20759031 -0.13470477 0.21336062 0.09384626 0.006641689 -0.2837578 0.102405645 -0.19498558 0.0574178 -0.018745383 0.015335619 0.21107744 0.20575206 0.17556919 -0.037707612 -0.08337953 0.26696083 0.074615315 -0.07693086 0.12811446 0.20723934 -0.0638982 -0.15097505 -0.015992839 0.11959808 0.10216525 0.031179134 0.1418769 0.07026482 0.15412976 0.074526235 -0.008086436 0.049240574 -0.12507124 -0.111145064 0.09957446 -0.15694706 0.072286606 -0.06878185 0.30784732 -0.15236874 0.004982198 -0.12667349 0.14036845 -0.15961246 -0.045647036 -0.06722077 -0.22608322 -0.07179818 -0.038499054 -0.086483866 0.12155586 0.109514944 -0.1812239 0.2982381 -0.05579649 -0.0019029859 -0.043771863 0.10368611 0.13683113 -0.021148458 0.20647413 -0.19850005 0.14617856 0.13824965 -0.20150846 -0.21495238 -0.22931536 0.076661356 0.1836212 0.026657335 -0.27524313 -0.27656 0.11211148 -0.044890642 -0.40206885 -0.17392655 0.23610313 0.06358579 -0.074075185 0.020116469 0.008187269 -0.18769634 -0.11405662 -0.132899 0.076782644 -0.023673015 0.0999002 -0.034328904 -0.04416675 0.038255725 -0.0028237507 0.07352726 0.01752662 0.028755056 -0.06672886 0.008692997 -0.08512375 0.054940652 -0.056147825 -0.33713517 -0.10690333 -0.018818859
6 -0.038108166 0.12929475 0.18015291 -0.034444124 -0.06959392 -0.271649 0.123237334 0.0029989819 -0.011386141 0.14496408 0.35359272 -0.09272828 0.0893091 -0.063100874 0.0752586 -0.074322924 0.07714553 0.17497744 0.06407712 0.16920269 0.07747871 0.18589206 0.0059906277 0.02249767 -0.16343056 0.14109917 -0.11709876 0.17964756 0.06624825 -0.0145524405 -0.24919471 0.07804451 -0.16281882 0.024280643 -0.02668517 0.029480943 0.19635165 0.16731389 0.16395366 -0.037561815 -0.061693877 0.21574478 0.061847635 -0.0766892 0.10750874 0.18877585 -0.05349243 -0.13784653 -0.002993853 0.1132946 0.07970656 0.057609238 0.1297954 0.04340063 0.13338375 0.051066194 -0.0030287283 0.036023088 -0.09176408 -0.08160676 0.106792 -0.13581541 0.042218246 -0.039414387 0.24908364 -0.1403889 -0.012826702 -0.08148695 0.09329795 -0.13499266 -0.0074071437 -0.044043332 -0.19659364 -0.056609932 -0.013801912 -0.088073134 0.09097476 0.07882281 -0.13245066 0.27564183 -0.016061254 -0.008458439 -0.019415723 0.12106563 0.11475191 0.006483211 0.18669191 -0.17759335 0.13982862 0.114152275 -0.16904438 -0.16963467 -0.17764641 0.074982576 0.15742476 0.042750403 -0.239239 -0.24828424 0.071004726 -0.045615792 -0.33551437 -0.12395803 0.1994492 0.06711073 -0.05597153 0.015982028 0.024201905 -0.15192862 -0.081981 -0.11569828 0.06943015 -0.0031981585 0.09003863 -0.008196369 -0.031376682 0.012375745 0.0146250045 0.08335841 0.0068618404 0.024884496 -0.044078387 0.021973897 -0.063588224 0.04431249 -0.039595317 -0.27183628 -0.074860305 -0.015260692
9 -0.009503272 0.039461456 0.16800584 -0.04863597 -0.057585157 -0.15285034 0.1432688 -0.008855021 -0.008408255 0.09658905 0.25276437 -0.05166857 -0.0002804862 -0.018258339 -0.0099340975 -0.040758558 0.037611004 0.15133059 -0.107883625 0.037248082 0.11992151 0.20662443 0.045096718 0.02604012 -0.1359396 0.0009827783 -0.08689984 0.13310383 0.015236242 -0.058344595 -0.23099907 0.005543977 -0.066552386 -0.054770205 -0.10869837 0.059938062 0.24360414 0.11204523 0.21397547 -0.030021558 -0.049067672 0.10679403 0.02570174 -0.15988393 0.02579339 0.15628535 0.0037593339 -0.15855424 0.012952052 0.09944234 0.023203762 0.13128068 0.11955524 0.013738411 0.098179616 0.027396023 0.090361334 -0.046459224 -0.043725796 -0.024703458 0.17060626 -0.11614152 -0.052601814 0.0010037662 0.14939614 -0.11767743 -0.035477344 0.04061932 -0.07678664 -0.0813094 0.12756008 0.04006574 -0.14819047 0.007389156 0.03807856 -0.13708459 -0.012144734 0.03215705 -0.019785523 0.28142995 0.1109363 -0.06371687 0.02645374 0.1801526 0.05112524 0.11360749 0.17842719 -0.19307944 0.14984915 0.12058738 -0.12262923 -0.053504784 -0.061371084 0.055504806 0.13413726 0.06879813 -0.24386238 -0.28520298 -0.067305416 -0.073987365 -0.24447736 0.017511675 0.119412914 0.07932005 -0.026905013 -0.020271871 0.06648247 -0.11334402 -0.031155378 -0.09432672 0.04029208 0.036302082 0.07167648 0.09400097 0.036988776 -0.052800138 0.020621255 0.17321838 0.0075927284 0.016885176 -0.00066849275 0.02050783 -0.02909291 0.06377224 -0.002647877 -0.15329339 -0.041993916 0.0055304747
8 -0.012761569 0.05744936 0.1572463 -0.044686623 -0.04771961 -0.217935 0.083498895 0.011497205 0.007707575 0.1095137 0.27392596 -0.06500205 0.030382188 -0.06796667 0.018501865 -0.07127443 0.073449135 0.165918 0.0017231945 0.08762734 0.10368795 0.16440092 0.04842141 0.021948919 -0.12387942 0.08768478 -0.093778946 0.15097336 0.06632373 -0.050533444 -0.21387 0.050707098 -0.117431074 0.010513903 -0.06466699 0.042201653 0.19598131 0.11245154 0.18342534 -0.012505843 -0.051188007 0.1516068 0.026936816 -0.11968468 0.068652526 0.14746174 -0.012284806 -0.13351011 -0.0204161 0.100312844 0.0299494 0.05458033 0.11689642 0.066956006 0.113993905 0.03364427 0.016929949 -0.017855836 -0.07841065 -0.0414404 0.15090427 -0.103492916 0.019677367 -0.009580699 0.1935572 -0.1253112 -0.0106023485 -0.016350362 0.024202352 -0.10183147 0.04272789 -0.020710353 -0.1565556 -0.036835216 -0.00046824454 -0.11462536 0.016317783 0.06739776 -0.08291186 0.2581506 0.008438087 -0.039883617 0.00078585726 0.12618405 0.098493464 0.058511082 0.16645424 -0.17343122 0.13196477 0.12276784 -0.13664745 -0.11634061 -0.12014545 0.06132115 0.14278655 0.03799077 -0.21125625 -0.26654273 0.013953653 -0.03953249 -0.27821448 -0.05346551 0.13633505 0.054226194 -0.038135726 -0.020041164 0.014324548 -0.1415049 -0.049251165 -0.10228534 0.024206335 -0.0083649475 0.08747521 0.04666386 -0.0065545444 -0.01607893 0.013473747 0.116187096 0.012404458 0.009675675 -0.048842832 0.006397018 -0.062075518 0.06007122 -0.02998803 -0.21477626 -0.0468481 -0.005259124
28 -0.013033544 0.008022626 0.13973399 -0.03151909 -0.034419935 -0.06496281 0.16754508 -0.022856705 -0.01596999 0.07240097 0.19500187 -0.032267433 -0.0452344 -0.0072946595 -0.05891648 -0.016873736 0.016386423 0.11117614 -0.20141654 -0.036673397 0.11525098 0.21365793 0.063489474 0.019043937 -0.12199414 -0.067401 -0.059009794 0.11291929 -0.027054619 -0.0742212 -0.21450777 -0.036859106 -0.0315896 -0.09461069 -0.14851733 0.07214433 0.25116315 0.07591607 0.23902619 -0.028497338 -0.039100084 0.029915147 0.0033500018 -0.1990568 -0.022544632 0.14125614 0.03450008 -0.15742475 0.008872573 0.07979086 -0.00085171405 0.1597681 0.11548832 0.00054387556 0.0818754 -0.011422393 0.144929 -0.099044725 -0.018456163 0.0011807836 0.18901215 -0.10968496 -0.08976275 0.022696352 0.07893909 -0.09808103 -0.044113003 0.12387744 -0.1833303 -0.050474524 0.18949439 0.088035494 -0.115343176 0.048447773 0.06460921 -0.14972202 -0.05769014 -0.004306513 0.0359651 0.26247698 0.17822999 -0.08082319 0.037082385 0.20778139 0.009485599 0.16058528 0.17616346 -0.17661121 0.15874173 0.11148972 -0.07644437 -0.000930508 0.010383013 0.03920171 0.11822492 0.07244063 -0.23803076 -0.29016528 -0.13401935 -0.091815494 -0.17663805 0.07498182 0.07853694 0.09573969 0.00019931681 -0.052335672 0.09488052 -0.08389531 0.006432595 -0.08245054 0.026838044 0.057806864 0.068367526 0.13777475 0.08523522 -0.07014475 0.028790029 0.22551556 0.0067129573 0.0027632571 0.035641756 0.03802988 0.01054982 0.08274299 0.023130361 -0.0967584 -0.010522345 0.01692923
30 -0.0025030079 -0.017914008 0.1430819 -0.024349144 -0.04240009 -0.025226617 0.18682352 -0.040808335 -0.019015178 0.054501943 0.15311053 -0.00840156 -0.07498053 0.019693898 -0.082124025 0.012387511 -0.0006843515 0.10388385 -0.26015943 -0.06751419 0.13203605 0.2331218 0.08166628 0.025857646 -0.11137422 -0.110534616 -0.051429912 0.09515493 -0.05530407 -0.10198837 -0.21066475 -0.07284416 0.01708661 -0.12905738 -0.18027091 0.0818674 0.27563837 0.04602579 0.25750518 -0.025790788 -0.042780615 0.0045990837 -0.008013367 -0.2312389 -0.05226875 0.14570609 0.05204799 -0.16387768 0.013194294 0.071473025 -0.0076604355 0.20307972 0.11299175 -0.016682895 0.058274813 -0.008959225 0.1774255 -0.122896306 0.002004819 0.020544376 0.20409952 -0.10284655 -0.12520224 0.057643276 0.038491614 -0.08976269 -0.044256594 0.16360357 -0.23584193 -0.024656378 0.23914649 0.1252683 -0.098616794 0.07266593 0.08786125 -0.15042694 -0.09487929 -0.013374548 0.0690891 0.26149687 0.23730376 -0.08808108 0.064157724 0.22968672 -0.019289158 0.19710958 0.16643338 -0.19446464 0.15323535 0.11569322 -0.07170645 0.038640834 0.050654035 0.028406631 0.11750421 0.08392256 -0.24244173 -0.30403396 -0.16547537 -0.10975681 -0.1451791 0.12799841 0.0654231 0.10340397 0.008637694 -0.054257736 0.123107664 -0.05077515 0.031057088 -0.08172482 0.024528185 0.079889186 0.047547083 0.16992998 0.11654398 -0.10245698 0.04141691 0.2458761 0.006243544 0.006859337 0.05874692 0.039229225 0.023597557 0.08226348 0.04086683 -0.060532954 -0.011850746 0.011650409
25 -0.01724744 0.018305503 0.13908914 -0.037046067 -0.04504747 -0.07247188 0.1564923 -0.036173373 -0.011474447 0.08633794 0.20298862 -0.038635794 -0.03984631 -0.0053407005 -0.06785162 -0.009450867 0.011515931 0.1172381 -0.18713881 -0.024002744 0.12201894 0.22891295 0.07123808 0.027625665 -0.12816809 -0.049965873 -0.07283025 0.109505534 -0.029575296 -0.07445816 -0.22958802 -0.03986892 -0.044783928 -0.09284125 -0.13184085 0.07466605 0.25471893 0.084914386 0.24540523 -0.026268248 -0.049961783 0.037289985 -0.0006020327 -0.20125167 -0.011736039 0.15943222 0.027942102 -0.15825696 -0.006160609 0.08708511 -0.0057632066 0.17118555 0.12390522 0.0006243078 0.07861834 -0.0037741105 0.14345813 -0.08172359 -0.02330402 -0.0048699966 0.18717648 -0.117354274 -0.07562604 0.02329145 0.10056611 -0.10456862 -0.042299636 0.1081727 -0.16902897 -0.062193077 0.17410256 0.07633675 -0.12249027 0.046368588 0.049958706 -0.15890408 -0.06332348 0.0146805765 0.020100301 0.27490515 0.17374519 -0.07440085 0.031057531 0.21914606 0.019102767 0.1571642 0.17877033 -0.18539257 0.15998614 0.118600704 -0.08900757 -0.012463695 -0.0013200194 0.04354809 0.12460826 0.06515513 -0.2459735 -0.28918606 -0.1264101 -0.096586615 -0.19917035 0.05945177 0.08083182 0.104824536 -0.011048711 -0.052391373 0.093881495 -0.085152216 -0.009440475 -0.09881555 0.022689106 0.04339951 0.06883919 0.1278643 0.069860555 -0.06711755 0.032583755 0.22721094 0.0051665697 0.009339248 0.0277901 0.03352386 -0.005105914 0.0891889 0.014315053 -0.12163377 -0.02357144 0.01202541
11 -0.03042497 0.12518522 0.18857224 -0.053778335 -0.06469938 -0.27890497 0.10591068 0.010435626 0.0029463645 0.14379552 0.35051274 -0.095291734 0.08278512 -0.060232528 0.070357226 -0.085102096 0.06678175 0.18474743 0.058905724 0.1590676 0.09152421 0.17968516 0.022191968 0.022203967 -0.16673362 0.14930508 -0.107520506 0.19346435 0.07623306 -0.0148678105 -0.25456902 0.07424547 -0.1692014 0.03317022 -0.03601525 0.030948197 0.19582781 0.17668346 0.17666274 -0.03362604 -0.070234805 0.22036093 0.051181365 -0.08787498 0.107371405 0.19230838 -0.036686834 -0.14538051 -0.008601776 0.11029563 0.06384706 0.054269265 0.12981212 0.061813254 0.14163773 0.059824977 -0.0029844602 0.033287603 -0.09949424 -0.08358829 0.11771242 -0.13064896 0.048644114 -0.03954848 0.26438192 -0.13399112 -0.013584213 -0.08463111 0.090779886 -0.13978183 -0.007992313 -0.048257828 -0.19648668 -0.059904058 -0.016235005 -0.096748345 0.08303096 0.08854436 -0.13525626 0.28112364 -0.01563903 -0.0143576395 -0.018424748 0.1153432 0.12001918 0.006063033 0.18955675 -0.19425994 0.13860954 0.11368484 -0.17385553 -0.17198946 -0.17689216 0.07505645 0.15915413 0.037753895 -0.25204912 -0.27028942 0.06637728 -0.048144083 -0.35517278 -0.120007604 0.19911171 0.07082356 -0.06467705 0.011266668 0.008563969 -0.1747346 -0.08568674 -0.115242645 0.05240248 -0.013347368 0.09196579 0.0030302186 -0.033578802 0.019629367 0.007742089 0.088906534 0.018557046 0.021963798 -0.055959012 0.017846324 -0.067951284 0.059854638 -0.04521703 -0.28310725 -0.07494992 -0.019523308
31 -0.016817389 0.035619408 0.16029476 -0.035971988 -0.055889465 -0.14096719 0.13564162 -0.009252922 -0.012511427 0.086065605 0.23938115 -0.036367632 -0.020684924 -0.020045016 -0.018875582 -0.042591963 0.039265133 0.13575271 -0.11074206 0.019601723 0.10854238 0.20131667 0.050814778 0.018292874 -0.12279953 0.010452045 -0.07862674 0.14029498 0.009688721 -0.06914972 -0.21601126 -0.002318573 -0.07074458 -0.05628964 -0.107976265 0.051956065 0.23248316 0.09142432 0.21934523 -0.017349392 -0.05430819 0.095260605 0.017993355 -0.16445222 0.027446652 0.15239981 0.0043354854 -0.13792613 0.0009153171 0.094976805 0.0069251065 0.12623876 0.11638564 0.027715797 0.09504821 0.013376449 0.08180465 -0.062960245 -0.037962288 -0.012948143 0.18169972 -0.119384535 -0.05471387 0.01723956 0.13608418 -0.110023424 -0.037550565 0.060524367 -0.09507469 -0.076699734 0.1229355 0.031083096 -0.13718918 -0.0021777719 0.045942977 -0.13554251 -0.029878192 0.034037717 -0.016221702 0.2626867 0.09922953 -0.067134455 0.026628807 0.17991741 0.039145827 0.10824362 0.17210986 -0.17771018 0.15130474 0.12202001 -0.11748539 -0.05138206 -0.056549132 0.054341078 0.12723339 0.05837238 -0.22615737 -0.28156966 -0.06832669 -0.064160444 -0.23826113 0.019821022 0.113002256 0.0842934 -0.025586767 -0.026631717 0.06939339 -0.11400799 -0.026311073 -0.09566651 0.03253979 0.030735247 0.075378284 0.09216129 0.050039597 -0.04396724 0.018450608 0.1750409 0.0077438103 -0.006113795 -0.0042764894 0.026868388 -0.021655153 0.077675425 -0.011065649 -0.15965493 -0.02480652 -0.0054910956
29 -0.021358721 0.022497145 0.14389555 -0.040293586 -0.043003365 -0.10891037 0.13534532 -0.020062862 -0.013825527 0.08617378 0.21863572 -0.03291288 -0.022960698 -0.0182648 -0.033551745 -0.027873382 0.038211074 0.13322765 -0.14111593 -0.0008282388 0.109773725 0.21098964 0.05737622 0.022494512 -0.120286934 -0.026393851 -0.06987699 0.11878983 -0.022011854 -0.07752491 -0.21570016 -0.0243127 -0.04408521 -0.0631728 -0.12482613 0.06783947 0.24525318 0.0902872 0.22240338 -0.028934976 -0.04719967 0.05862882 0.0080910325 -0.1766834 0.000558233 0.14804418 0.024727045 -0.14596114 0.003027533 0.09446107 -0.0006619955 0.15044066 0.11852011 0.021899963 0.088875085 0.0047896327 0.104735136 -0.07005647 -0.029770425 0.0015881706 0.17846593 -0.10594028 -0.058772907 0.0067880573 0.114625074 -0.09415729 -0.03772848 0.08087174 -0.13055825 -0.06693321 0.15176778 0.05067521 -0.11550585 0.02238323 0.045561045 -0.13588353 -0.044251848 0.013990874 -0.0019073772 0.25925642 0.1340598 -0.06421487 0.024462018 0.19320762 0.021609943 0.13469271 0.1704534 -0.183134 0.137392 0.10660038 -0.10445169 -0.025984088 -0.021422854 0.045293577 0.12201871 0.07222218 -0.2322032 -0.275516 -0.091902465 -0.08392044 -0.21465698 0.032722265 0.10325993 0.09062019 -0.016984869 -0.04164677 0.07657534 -0.08962071 -0.0146859735 -0.09204974 0.017956473 0.04424086 0.06876005 0.10902591 0.048416506 -0.061756708 0.01913236 0.18425037 -0.002406247 0.0088797435 0.0066391933 0.022381779 -0.009575709 0.0645904 0.008917532 -0.1273242 -0.015463627 0.019430663
5 -0.02133486 0.088351555 0.17576687 -0.046280935 -0.049845755 -0.22294618 0.12554501 0.0021701586 -0.008370873 0.11561833 0.31182232 -0.078176655 0.04788659 -0.05263592 0.035363257 -0.062583156 0.06318976 0.15268196 -0.0068291062 0.10634322 0.10001136 0.18831576 0.037120163 0.027574746 -0.13661821 0.09248904 -0.090282604 0.16978715 0.050740596 -0.03559993 -0.23186518 0.04329828 -0.12171014 -0.0037431058 -0.0706861 0.030461023 0.20588934 0.1412857 0.18272792 -0.03403232 -0.05452364 0.1597842 0.03926276 -0.11264354 0.07241804 0.17098705 -0.016645119 -0.13807301 0.0023663496 0.10587406 0.041800264 0.08722477 0.123073906 0.042368975 0.1144903 0.036737677 0.04658138 -0.00210617 -0.073123194 -0.059184533 0.13766976 -0.12447342 0.010258014 -0.031934794 0.20958914 -0.13009006 -0.014301457 -0.029593008 0.022561995 -0.10008046 0.05060406 -0.013610316 -0.16833462 -0.030251125 0.0020441052 -0.10622961 0.041937225 0.059803143 -0.08700749 0.27118877 0.03177107 -0.034507826 -0.010252436 0.1433647 0.08770758 0.059341144 0.17011566 -0.18380712 0.13261668 0.114852026 -0.14691205 -0.12261229 -0.11959407 0.063765354 0.13262409 0.042180017 -0.23306414 -0.25923476 0.008191721 -0.051551953 -0.29762918 -0.065240405 0.15541333 0.079176255 -0.03688829 -0.010623462 0.03539858 -0.14693223 -0.060023103 -0.10668362 0.048634224 0.0005732563 0.07734044 0.029769704 -0.0010128763 -0.013735651 0.013494763 0.12106492 0.007672685 0.008048663 -0.03926878 0.017523812 -0.045783818 0.055655427 -0.032047197 -0.22156219 -0.06595794 -0.005656866
26 -0.0083692605 0.013920541 0.13874133 -0.029493885 -0.030072702 -0.074400306 0.15513307 -0.034287114 -0.02184422 0.069668345 0.19093457 -0.04244744 -0.04213363 -0.01162618 -0.047698803 -0.020046618 0.011078081 0.1163198 -0.15875524 -0.008132075 0.11500873 0.20510739 0.0592023 0.027555974 -0.12017821 -0.03956792 -0.060117465 0.1169329 -0.028744299 -0.06363313 -0.20638049 -0.03272793 -0.030057754 -0.08204782 -0.12392337 0.05275053 0.22127318 0.08590098 0.21263419 -0.02009945 -0.04962344 0.04485342 -0.0065215593 -0.17030795 -0.002530912 0.14515115 0.036738012 -0.14195749 -0.0075100586 0.08944373 -0.003297766 0.15424332 0.11600304 0.0021305731 0.07004232 -0.0015508716 0.12858911 -0.081223495 -0.021497052 -0.009148471 0.17859004 -0.10608855 -0.059465837 0.012146302 0.084920324 -0.10650389 -0.041587714 0.09787281 -0.14407621 -0.046960767 0.161595 0.068726726 -0.108688086 0.039620794 0.04543937 -0.1305812 -0.052998617 0.012739273 0.010182587 0.24978429 0.15901247 -0.068320215 0.027170962 0.19167899 0.018521205 0.1355256 0.16914238 -0.17877942 0.14885473 0.108493395 -0.083993524 -0.0134902345 -0.009217467 0.040733878 0.11272527 0.06620337 -0.22564694 -0.27064982 -0.11340107 -0.09522775 -0.18751588 0.041389376 0.083098106 0.086554475 -0.016383989 -0.04175783 0.08647029 -0.08283562 -0.011757167 -0.08718282 0.023733672 0.036969226 0.062115476 0.11263846 0.05986465 -0.07156612 0.035123773 0.20094247 0.00088502234 0.0150503 0.0205677 0.037032206 -0.0044935867 0.081742495 0.011226763 -0.116753146 -0.027188657 0.019954914
20 -0.015338244 0.042872135 0.16528934 -0.0486183 -0.05334115 -0.1617222 0.12129952 -0.013362101 -0.0062824613 0.09446071 0.25278687 -0.045003895 -0.004126958 -0.026210226 -0.010525593 -0.043398038 0.05166907 0.14463334 -0.078640334 0.034368534 0.11493696 0.19445984 0.0549182 0.013983683 -0.12662622 0.024368454 -0.08595322 0.13454023 0.02418236 -0.06636774 -0.22019562 0.014177106 -0.08415894 -0.035889015 -0.09836679 0.05584363 0.22368059 0.09851314 0.20013411 -0.025428979 -0.053463265 0.10709034 0.024610389 -0.15985097 0.031214777 0.1480834 0.0017337629 -0.15252282 -0.0016587519 0.10339321 0.0256537 0.107862994 0.110418916 0.02973267 0.09588121 0.016616242 0.069499925 -0.044281073 -0.05404974 -0.022455642 0.16871823 -0.10885773 -0.035625234 -0.0041364944 0.15221892 -0.115542784 -0.024791313 0.040848885 -0.058609538 -0.08036522 0.108144656 0.028102448 -0.14585337 -0.010089798 0.03378218 -0.12788641 -0.014263561 0.03405717 -0.038272593 0.26338473 0.087536186 -0.05850045 0.020170266 0.17015663 0.059258804 0.092345744 0.1672692 -0.18843044 0.13599737 0.11246416 -0.12077403 -0.071548775 -0.069116876 0.050597634 0.13657969 0.05888615 -0.22117653 -0.28005552 -0.052969396 -0.0637077 -0.23847263 0.0055340016 0.12096854 0.07913857 -0.021581411 -0.030821545 0.05865293 -0.112876475 -0.028844425 -0.09560177 0.024937501 0.019776639 0.07760088 0.080106065 0.027133783 -0.03580661 0.018583048 0.16377681 0.012649255 0.0038283546 -0.009651865 0.026732324 -0.032968584 0.06422368 -0.0031828734 -0.1584189 -0.043210175 0.0050483337
23 -0.0056967395 0.024384653 0.15620804 -0.04173192 -0.041478284 -0.11256919 0.15232186 -0.011684947 -0.011610096 0.07837189 0.21466482 -0.031678237 -0.023372093 -0.007960987 -0.024434265 -0.021384904 0.039293107 0.124020375 -0.14488697 0.011522483 0.11837788 0.2014189 0.0537891 0.020681968 -0.13171332 -0.014627016 -0.07264327 0.1139966 -0.0053912145 -0.0679339 -0.21872851 -0.021129506 -0.048249885 -0.059284925 -0.13145141 0.06053117 0.23480289 0.08344391 0.22183217 -0.029464178 -0.0483778 0.076774545 0.008417539 -0.17184696 0.0056501837 0.14203522 0.016593918 -0.14745168 -0.0011736456 0.07895265 0.008308875 0.13359614 0.12249271 0.018033024 0.08689413 0.0058297296 0.10982518 -0.06426574 -0.030876227 -0.016479367 0.17477486 -0.10966501 -0.0724127 0.020491881 0.117154 -0.11279039 -0.042067382 0.08327837 -0.12652853 -0.07425206 0.15465069 0.05551027 -0.13189672 0.01465697 0.047200438 -0.13216563 -0.039494485 0.011667247 -0.006108587 0.2650293 0.13189839 -0.07408731 0.037687905 0.19749863 0.026509767 0.12162509 0.17058812 -0.18991439 0.15648007 0.118719675 -0.109952465 -0.037957236 -0.037755933 0.046401158 0.12663536 0.06320394 -0.23034726 -0.27638927 -0.08135811 -0.086874425 -0.2088427 0.03243398 0.10035391 0.07874892 -0.018422587 -0.032091364 0.07642176 -0.090171315 -0.0023640825 -0.08895331 0.029936355 0.04973324 0.06898172 0.105522126 0.05399474 -0.055277586 0.021516304 0.18908912 0.015605077 0.0037243576 0.012275776 0.021680519 -0.008990239 0.07599938 -0.004776461 -0.13470161 -0.025233148 0.0049606506
17 -0.036538232 0.14634521 0.18900405 -0.038479146 -0.069655284 -0.31630117 0.11810424 0.008873381 -0.0058391625 0.16421863 0.39151764 -0.11249322 0.11226246 -0.070136614 0.09372925 -0.0863065 0.081558846 0.17577353 0.10078377 0.2009489 0.08300555 0.18305221 0.0072150053 0.021055544 -0.17846654 0.18913646 -0.120770454 0.21085513 0.08226161 -0.009089996 -0.26591536 0.08703372 -0.18667251 0.054365493 -0.019355666 0.024664806 0.18780147 0.1865461 0.1612835 -0.032926567 -0.07435663 0.2502274 0.064209916 -0.06936049 0.12810823 0.19831131 -0.05458719 -0.13431312 -0.010484894 0.123917885 0.08835855 0.044347383 0.13561068 0.055363465 0.14014664 0.059128173 -0.00856198 0.046651386 -0.109792314 -0.09395848 0.10272307 -0.14698875 0.069829784 -0.05704865 0.29135463 -0.14348492 -0.004144688 -0.11514315 0.127831 -0.15573514 -0.036529426 -0.07324858 -0.21320789 -0.07589185 -0.020398157 -0.09476576 0.118386015 0.08847468 -0.16348518 0.2869529 -0.049827255 -0.0048831445 -0.03981673 0.110518575 0.12661397 -0.015829593 0.200087 -0.18983033 0.14855406 0.1206431 -0.18371859 -0.20669028 -0.19950962 0.08378742 0.16124341 0.03800642 -0.25812113 -0.27339906 0.093724705 -0.03547351 -0.38320294 -0.16158928 0.22480646 0.06669219 -0.06501143 0.016284674 0.0022977483 -0.17972198 -0.09702992 -0.113184035 0.06238358 -0.018391596 0.105244204 -0.03055264 -0.049361642 0.039166525 0.009680437 0.07518802 0.017002981 0.017770488 -0.06844924 0.0147092845 -0.081858814 0.058947414 -0.05312188 -0.3186735 -0.09153112 -0.019784937
15 -0.004535355 0.013774559 0.15614246 -0.03364831 -0.050782293 -0.087190755 0.16125505 -0.023090264 -0.023889143 0.07307055 0.1975366 -0.028991703 -0.046758357 -0.008095513 -0.03885846 -0.020735497 0.028003922 0.12854522 -0.17272466 -0.008018214 0.12780023 0.21306512 0.07399906 0.03361899 -0.12734789 -0.04775395 -0.07419041 0.11279002 -0.019233787 -0.086482696 -0.20950915 -0.029153042 -0.032834727 -0.0914661 -0.14762107 0.056132566 0.25485933 0.075857885 0.2338079 -0.031736158 -0.03626545 0.06643425 0.007323451 -0.19166195 -0.010793564 0.14755023 0.03131967 -0.14916459 0.013994429 0.085679345 0.011033749 0.14716765 0.12731096 0.006613701 0.075275354 0.017098378 0.12053088 -0.07578719 -0.024664452 0.004282904 0.18991627 -0.108903304 -0.08490933 0.034129217 0.10150407 -0.11251015 -0.04173692 0.09683865 -0.14296523 -0.066491105 0.18092237 0.074078746 -0.117156595 0.03374672 0.051354736 -0.1377385 -0.051340662 0.0041161478 0.021613048 0.2830464 0.17232122 -0.07673152 0.03447039 0.20406292 0.015850907 0.15321636 0.17634042 -0.18714772 0.15678982 0.11628546 -0.096969485 -0.015740952 -0.002926802 0.037955906 0.12632644 0.06775734 -0.23611721 -0.28451318 -0.11003619 -0.086345375 -0.20462136 0.06378084 0.101164736 0.09310319 -0.014432681 -0.039273623 0.0957129 -0.07592012 0.0034874273 -0.096211664 0.03206728 0.042591076 0.059475653 0.12902267 0.067103855 -0.07941938 0.039753772 0.21306795 0.017513402 0.009969007 0.011914847 0.024572983 -0.0030610443 0.06380786 0.0051663592 -0.11416765 -0.028407535 -0.0059037977
18 -0.014068969 0.044543877 0.16425975 -0.052037884 -0.052470237 -0.18738505 0.110391505 0.0028817188 0.0046387683 0.09478858 0.28435874 -0.04410546 0.00238522 -0.046765503 0.0021614092 -0.052704558 0.049031477 0.15391533 -0.048672352 0.048755992 0.1078592 0.19081819 0.054337446 0.011820491 -0.12862775 0.052929655 -0.088833 0.16024251 0.038763605 -0.04853918 -0.22952786 0.017615106 -0.09301294 -0.028093806 -0.08032107 0.04769325 0.21907869 0.110157065 0.21291745 -0.022745715 -0.053603537 0.12539735 0.014766144 -0.15356688 0.06224836 0.15485688 0.0045279926 -0.15342472 -0.0107533615 0.110025376 0.023042217 0.095082976 0.119533405 0.05398326 0.12592654 0.019339517 0.06236941 -0.034423344 -0.06764709 -0.031319775 0.1688879 -0.12337775 -0.011201366 -0.002204095 0.17140377 -0.12017579 -0.018219093 0.032372892 -0.045139547 -0.09150399 0.09151972 0.0026594547 -0.15015368 -0.02200633 0.019818826 -0.13433775 -0.0024896641 0.04899047 -0.054350935 0.26803905 0.067496985 -0.05836225 0.008469926 0.17417753 0.08306943 0.08974353 0.18114735 -0.19270077 0.14834623 0.13160133 -0.14346096 -0.08429524 -0.08919484 0.05947061 0.1452719 0.055736125 -0.2272938 -0.28676423 -0.01840998 -0.06596278 -0.27433756 -0.021301672 0.13435057 0.07467715 -0.03801948 -0.028003246 0.04670421 -0.13185553 -0.050406 -0.11572967 0.02880898 0.018349614 0.07244526 0.078624584 0.022130864 -0.025790695 0.018276876 0.15045965 0.010374403 0.0122913625 -0.03156525 0.021118265 -0.03987082 0.074027516 -0.017922057 -0.20427598 -0.038539644 -0.0066127153
16 -0.012821858 0.022109527 0.15670078 -0.04253757 -0.050365 -0.08940853 0.16729845 -0.02012362 -0.028758967 0.08310623 0.20591521 -0.032355998 -0.053885195 0.004386705 -0.05103804 -0.011038575 0.028850678 0.12954786 -0.18765926 -0.009773427 0.119035 0.21501517 0.06471237 0.03643108 -0.12770115 -0.06596361 -0.06862099 0.1128494 -0.033950523 -0.08627249 -0.21676713 -0.03824715 -0.03165277 -0.09730042 -0.14692904 0.06988363 0.25532985 0.075916685 0.22995429 -0.032310598 -0.042688202 0.054787256 0.012628249 -0.1954743 -0.025346875 0.14935997 0.033697505 -0.15663476 0.010140549 0.080715686 0.0116318725 0.1638788 0.12511337 -0.009855313 0.082172185 0.0017522731 0.13693936 -0.08268156 -0.012643074 -0.0020870455 0.1914355 -0.10090835 -0.095847666 0.02191433 0.09524233 -0.105953075 -0.05045844 0.106516644 -0.1628717 -0.05910699 0.19013233 0.08181096 -0.117625825 0.034263436 0.057092488 -0.14360781 -0.059060622 0.0022253888 0.015304882 0.27726564 0.18125646 -0.0758761 0.044405743 0.19722158 0.017694457 0.15683697 0.1729286 -0.19398633 0.14756174 0.11795569 -0.09413398 -0.008809207 0.0033852372 0.041056518 0.12026205 0.07782404 -0.24143046 -0.2892538 -0.111846134 -0.09755326 -0.19161877 0.07097159 0.08304478 0.09238655 -0.0023256992 -0.038168296 0.09144884 -0.06978883 -0.0021156552 -0.09848634 0.03305161 0.054599054 0.06366755 0.12678578 0.08357801 -0.08576824 0.039097834 0.21250995 0.009110205 0.006785053 0.028972741 0.030842436 -0.006020518 0.06275714 0.018186886 -0.10099965 -0.017615808 0.0055970293
22 -0.0146151995 0.05076415 0.1677024 -0.052086078 -0.05232522 -0.16613631 0.12351247 -0.006899343 -0.009113093 0.10424894 0.2543488 -0.04368703 0.0021488515 -0.030237148 0.0004536574 -0.04716882 0.051022965 0.1458087 -0.06666344 0.05480236 0.10776387 0.18888037 0.03996809 0.02366373 -0.13226983 0.036169805 -0.089656316 0.14874531 0.031642616 -0.054666903 -0.2195915 0.020284 -0.08604755 -0.0274334 -0.089158125 0.050728377 0.22707322 0.10273756 0.20256883 -0.016140966 -0.05821181 0.11275268 0.019653443 -0.14549817 0.046114497 0.1496884 0.0046010744 -0.14614207 -0.011073788 0.09123193 0.023230406 0.10247031 0.11099817 0.031083014 0.10956221 0.027801085 0.06596467 -0.03853571 -0.054122653 -0.029421473 0.15650403 -0.11643631 -0.025958333 0.0057450067 0.16137677 -0.10831581 -0.021520063 0.025854912 -0.054360285 -0.091931984 0.09902824 0.021473825 -0.14902376 -0.008462299 0.032401323 -0.123377606 -0.00169905 0.033309456 -0.03062359 0.25175563 0.070324615 -0.056224056 0.012373879 0.16255768 0.05237579 0.092817985 0.16591386 -0.18223073 0.14636898 0.11934871 -0.12445227 -0.07357374 -0.068815775 0.05566625 0.13801344 0.05957181 -0.2319117 -0.27735576 -0.029491588 -0.058252957 -0.2528371 -0.0017778615 0.12311433 0.06933581 -0.035123903 -0.016856113 0.04945229 -0.12657322 -0.038649373 -0.09381477 0.029793296 0.017129652 0.07364604 0.07162491 0.028468613 -0.032057915 0.021235574 0.15422988 0.004620506 0.0065248394 -0.009273815 0.01439814 -0.037692297 0.0711379 -0.022646973 -0.17375208 -0.046189073 0.003735613
21 -0.013467779 -0.005062708 0.14445856 -0.033980798 -0.037553787 -0.04887513 0.17085426 -0.028174551 -0.020425873 0.07061441 0.17467715 -0.02212982 -0.060885165 0.017980343 -0.07203644 -0.011600828 0.019475948 0.12395487 -0.22345974 -0.038423188 0.12403767 0.22481146 0.08023866 0.027125075 -0.114706084 -0.08103338 -0.063013606 0.094811164 -0.043044142 -0.09179135 -0.21325251 -0.04711624 -0.008889871 -0.09931537 -0.15479949 0.0709394 0.25743628 0.052780267 0.22988932 -0.022384148 -0.047086645 0.0296675 0.00075262244 -0.21545845 -0.038846724 0.13869101 0.032498974 -0.15328586 0.017900467 0.07360246 -0.00778669 0.1854228 0.12278381 -0.0019232931 0.06221138 0.00053501315 0.14544421 -0.09613085 -0.00159448 0.01198964 0.2012424 -0.11077258 -0.100821264 0.0407871 0.071574286 -0.09190922 -0.04753276 0.13663857 -0.20013525 -0.047950093 0.20765115 0.091073565 -0.10538258 0.050601136 0.07586497 -0.15491307 -0.07571761 -0.009533891 0.03595365 0.26437876 0.20443417 -0.08466995 0.04737436 0.22387065 -0.0018902819 0.169885 0.17749287 -0.18667448 0.1511391 0.12366946 -0.07406866 0.012697006 0.02280026 0.031932 0.1269047 0.08054242 -0.24378987 -0.2957378 -0.14263096 -0.103401005 -0.16761194 0.08710309 0.073541254 0.09963623 0.0035375324 -0.043698102 0.09833001 -0.05992258 0.01748742 -0.0884844 0.030056696 0.06271608 0.061856605 0.14863122 0.09064088 -0.087488644 0.040540036 0.22244386 0.009645145 0.0019475436 0.036039118 0.032424454 0.015538059 0.075018525 0.02506903 -0.07954292 -0.017095879 0.012718145
27 -0.013960424 -0.004506763 0.15100831 -0.033123158 -0.044757415 -0.05169621 0.17616645 -0.032056954 -0.026440736 0.07569075 0.18822335 -0.020195423 -0.059937794 0.021073328 -0.07437653 -0.006848192 0.0062040803 0.12392176 -0.23074445 -0.04137742 0.13645363 0.2179125 0.06412925 0.02539556 -0.12988925 -0.09753513 -0.07398261 0.10662846 -0.04576703 -0.090486296 -0.21944414 -0.046935283 -0.00069223193 -0.116113655 -0.1551225 0.06746969 0.2656178 0.063075036 0.2482334 -0.028430335 -0.044796236 0.029717173 -0.008518684 -0.22388612 -0.043027487 0.15072037 0.038753673 -0.16684407 0.016688542 0.08236472 -0.0031582033 0.18980256 0.11446937 -0.002660294 0.06549387 -0.0043095713 0.14658885 -0.10617441 -0.0111888405 0.02540287 0.2069605 -0.111451924 -0.109695904 0.046854705 0.061508592 -0.09434258 -0.055521872 0.14601518 -0.20196913 -0.044489354 0.20504938 0.10047956 -0.10879493 0.049865216 0.08316539 -0.15897624 -0.08413349 -0.012434055 0.044281095 0.27443585 0.20661946 -0.08799784 0.06171605 0.22519612 0.002190703 0.17943078 0.17035569 -0.19666754 0.15197414 0.11215599 -0.088277884 0.017396342 0.018837612 0.043526813 0.12007977 0.07518269 -0.24097452 -0.30031317 -0.14721745 -0.103556044 -0.18080315 0.10278732 0.07164438 0.0920412 -0.009820562 -0.03916135 0.11334157 -0.06281701 0.0224794 -0.09502221 0.028459461 0.07167401 0.06434376 0.14835978 0.102623135 -0.09431708 0.03970627 0.23710735 0.006280639 0.008404812 0.045908123 0.035916507 0.017283 0.081389986 0.02417818 -0.07278068 -0.008490577 0.0072603985
19 -0.008196918 0.0038058758 0.14853287 -0.03778607 -0.04479439 -0.06025297 0.17121926 -0.034875575 -0.016398601 0.06898306 0.18387172 -0.022669313 -0.051001698 0.0044696867 -0.06344144 -0.0061834073 0.014458867 0.12251765 -0.21422577 -0.029403804 0.12293505 0.21581072 0.070831574 0.027618855 -0.12434888 -0.083739385 -0.06319388 0.10768524 -0.045018703 -0.07750927 -0.20797828 -0.04925263 -0.015817313 -0.099194735 -0.1578762 0.06927337 0.26010847 0.07037978 0.24086007 -0.023401437 -0.04437005 0.029506352 0.0065925317 -0.21018542 -0.033688307 0.14121093 0.040500414 -0.15802412 0.013936866 0.08095309 -0.0047910754 0.16445968 0.11069411 -0.0042798244 0.059654016 0.0055752867 0.13961022 -0.10273425 -0.014098162 0.020583402 0.18806536 -0.09664189 -0.10643051 0.02841214 0.06846744 -0.09821273 -0.051890906 0.11507469 -0.19174366 -0.04728122 0.20308238 0.08605476 -0.1119973 0.046888806 0.068710774 -0.15433367 -0.061791852 -0.009661492 0.03814026 0.2735555 0.19666593 -0.074461125 0.05336474 0.21396428 -0.004430717 0.16878493 0.16371003 -0.1888735 0.15517913 0.10629428 -0.08702041 0.0008383567 0.015944457 0.039708003 0.12014465 0.076536536 -0.24053574 -0.28430873 -0.14163987 -0.09811419 -0.1807134 0.08385341 0.08121236 0.10124683 -0.005376174 -0.043096296 0.109341286 -0.07295561 0.009235866 -0.089087114 0.02288283 0.066309266 0.06688283 0.14538668 0.09158378 -0.09102422 0.033557367 0.21612659 0.0035579565 0.0007427746 0.038356833 0.03214308 0.0024352744 0.08288499 0.023036 -0.0849561 -0.020203255 0.007893112
10 -0.013248235 0.026567431 0.15275595 -0.04676174 -0.043183178 -0.11850534 0.1245607 -0.0050018225 -0.010752015 0.082606986 0.20993733 -0.036379255 -0.030742796 -0.02252653 -0.03334808 -0.033723976 0.04002621 0.13727815 -0.12319687 0.010664843 0.11326684 0.19195004 0.058727212 0.015851568 -0.120883666 -0.014188834 -0.074977554 0.12375142 -0.0031113247 -0.06613349 -0.20721523 -0.011604647 -0.060093034 -0.062124092 -0.116484866 0.05142876 0.23060653 0.07637599 0.21096045 -0.027011147 -0.038777348 0.07750558 0.0031946474 -0.16769066 0.0091626635 0.14048538 0.02165404 -0.15249088 -0.008986091 0.083261564 0.012470085 0.13404171 0.11396498 0.027416458 0.09635187 0.006669169 0.10147875 -0.05953877 -0.032591768 -0.0037777345 0.17207175 -0.10769087 -0.048171215 0.015749265 0.11336044 -0.10534551 -0.034357965 0.07211795 -0.108495116 -0.061371762 0.13742445 0.046732243 -0.12961167 0.01733252 0.038707614 -0.14201847 -0.04035387 0.016301133 -0.009078608 0.25705567 0.12031772 -0.066230685 0.03503787 0.18201907 0.041229386 0.123434156 0.17326443 -0.17618124 0.14307836 0.118834354 -0.11291312 -0.041813407 -0.043335896 0.046708215 0.12413929 0.059282377 -0.22094862 -0.27510202 -0.08420862 -0.069999784 -0.21333791 0.0403638 0.0975824 0.086767025 -0.009920997 -0.03318892 0.06792666 -0.10861278 -0.021260824 -0.09565385 0.026011802 0.033704627 0.059602857 0.10776956 0.04710426 -0.047050636 0.030935153 0.17413566 0.010131761 0.0095656365 -0.0032688812 0.019316843 -0.011766825 0.070750736 0.0062706657 -0.14403342 -0.026934545 0.009326777
13 -0.026111746 0.07597993 0.16652834 -0.05375129 -0.061971344 -0.2206855 0.10021871 -0.0008510775 0.008145618 0.11334441 0.30229145 -0.06328768 0.04299516 -0.060197834 0.027850281 -0.06972975 0.074119255 0.16659611 0.009338522 0.0968851 0.10022922 0.1752227 0.030416487 0.009721943 -0.14009283 0.10304211 -0.105676346 0.16006254 0.064279586 -0.043114528 -0.22055154 0.04894936 -0.13175702 0.0071798083 -0.054172907 0.044583254 0.19481057 0.122086056 0.17580588 -0.017050678 -0.058832534 0.16835767 0.03220114 -0.120627455 0.07877237 0.15957183 -0.016201874 -0.14397587 -0.019419696 0.09463669 0.04421442 0.06376369 0.114452064 0.061032057 0.12644145 0.034086935 0.02135428 -0.005878303 -0.081130505 -0.058475945 0.14785147 -0.12620209 0.00901706 -0.017282233 0.20986632 -0.118761435 -0.011485169 -0.026016723 0.021399917 -0.1159439 0.029537851 -0.036396682 -0.17008868 -0.034899663 0.0114268325 -0.108895086 0.03672156 0.066491604 -0.08597753 0.24951445 0.011440493 -0.033371415 -0.0052181487 0.13196766 0.09910553 0.050994076 0.16377215 -0.18255436 0.1370242 0.11926966 -0.15467413 -0.11454651 -0.1326356 0.06781152 0.15145917 0.041779224 -0.21746735 -0.26278707 0.015233814 -0.042497013 -0.2958345 -0.071011454 0.15992892 0.056606717 -0.037051782 -0.011381352 0.014219707 -0.15383747 -0.05411445 -0.11023238 0.03973473 -0.0016264132 0.09064022 0.035882533 0.00502593 0.004373582 0.006715171 0.10408741 0.0046887947 0.0047707492 -0.0383733 0.01788394 -0.056641024 0.06383291 -0.039019518 -0.2326876 -0.04943155 -0.01612608
12 -0.019513639 0.056739327 0.17068811 -0.04645438 -0.051229205 -0.19089346 0.12279237 -0.007070169 -0.00032746774 0.10742964 0.2813441 -0.060213163 0.014061651 -0.046912413 0.009260139 -0.056907695 0.055600286 0.1484677 -0.04020497 0.061845563 0.103947714 0.1857153 0.038577672 0.025479646 -0.13353436 0.062774174 -0.09055214 0.15506063 0.036061544 -0.042758256 -0.2282914 0.032789562 -0.09518174 -0.017430523 -0.07382382 0.04847539 0.21654259 0.108355045 0.1981725 -0.021283679 -0.049968224 0.13877639 0.02043365 -0.13695265 0.04382374 0.15551475 -0.011495864 -0.13846023 -0.009377987 0.09320539 0.037542664 0.08495159 0.1133769 0.038640372 0.10700505 0.018774042 0.049129084 -0.0225687 -0.06837746 -0.03357296 0.15004994 -0.11958755 -0.008835148 -0.014511906 0.16906819 -0.1218026 -0.026915403 0.0079853535 -0.026456365 -0.09208072 0.073446 -0.003354226 -0.15507172 -0.02173031 0.012889485 -0.12362683 0.010393428 0.040956408 -0.06342658 0.24867693 0.056427494 -0.050516803 0.005878898 0.15644255 0.07657528 0.071761295 0.17362426 -0.18291712 0.13589026 0.12334531 -0.13159052 -0.08247425 -0.0929144 0.0604701 0.14204828 0.038715757 -0.23026466 -0.2750396 -0.017610734 -0.060049854 -0.26535535 -0.033157147 0.1355144 0.07225696 -0.026698872 -0.026442533 0.038038075 -0.123934425 -0.035615798 -0.10340583 0.034760166 0.005239442 0.07746575 0.051576152 0.013647994 -0.019320048 0.016813615 0.14432415 0.000793898 0.005525063 -0.02304939 0.015028329 -0.03898812 0.06815541 -0.025960552 -0.19123447 -0.04345378 -0.0033185657
