34 128
34 0.028554792 -0.1097015 0.047179565 -0.03872131 0.08964584 -0.19840705 0.045119718 0.12256201 0.0641566 0.056395255 0.2707814 -0.12415049 0.0012056029 0.040731627 -0.014449948 0.003361945 0.1186844 0.050738133 -0.15000862 0.094333075 0.20663236 0.13108844 0.017541647 -0.055669777 -0.13354321 -0.016057346 -0.102895096 0.0915146 0.015967064 -0.14290306 -0.23287156 -0.05195994 0.04442788 0.0456883 -0.06975058 0.17879544 0.15628488 0.001393815 0.10380053 0.031202672 -0.120576456 0.05484192 0.07735907 -0.1983691 -0.04693119 0.020504372 0.09188977 -0.11332825 0.068019725 0.14130571 -0.009365194 0.20528203 0.15306933 0.018355379 0.13266774 -0.03228784 0.20738758 -0.023440506 -0.0289576 -0.031089192 0.17342328 -0.12743658 -0.028118538 -0.107173644 0.21137057 0.009753833 0.103510976 0.15798469 -0.15846638 0.03770931 0.19143307 -0.019199384 -0.1076587 -0.02548903 0.17629838 -0.24620366 -0.04507905 -0.09223829 -0.045019105 0.22698605 0.13305317 -0.21762626 -0.026804864 0.21767387 0.096950315 0.15345739 0.17025591 -0.18000296 0.063406534 0.1292458 0.0043542366 -0.042212952 -0.0024368325 0.064725205 0.13536897 0.16192168 -0.29142004 -0.41206175 -0.13087824 -0.105518945 -0.20180511 -0.01252004 0.017817477 0.0245016 0.11065058 -0.05727445 -0.027536783 -0.11057542 -0.002159021 -0.08182028 -0.061725177 0.107311755 0.11704539 0.043994896 0.09183923 -0.05506161 -0.024944834 0.15241739 0.021104427 -0.041051846 -0.06477463 0.015450699 -0.012694011 0.029742692 0.11416054 0.0016665692 0.11278822 0.16177762
1 0.0013630269 0.047115233 0.09542098 -0.22212008 0.059427995 -0.13799913 0.01503152 0.10205775 -0.012130325 0.10819557 0.2457054 -0.07599055 0.026853945 -0.08580803 0.08825798 -0.057383027 0.062451307 0.07536167 -0.012952064 0.027323991 0.06966361 0.063284084 0.03607842 -0.0050110663 -0.20245501 0.14124301 -0.047738373 -0.0094945505 0.11994995 0.06433538 -0.36392486 0.03671743 -0.17540656 0.07963724 -0.08291099 0.09954078 0.21402262 0.17607072 0.18063018 -0.21500495 0.1690527 0.109464 -0.0659906 -0.006863891 0.037976034 0.033142447 -0.024741808 -0.33466378 -0.05206807 -0.109356984 0.18486546 -0.04569014 0.19380577 0.15802814 0.26746342 -0.0686827 0.18143906 0.08358154 -0.104691856 -0.16591397 0.0456824 -0.15648489 0.1308294 -0.04205167 0.1106818 -0.08090966 0.006899798 0.066211365 -0.07070239 -0.23716787 0.11478397 -0.020119397 -0.21039882 0.032897364 -0.16073093 -0.05277616 -0.004468581 -0.14066625 -0.07525098 0.23646699 0.0223598 -0.09520582 0.03654535 0.19684878 0.12853846 -0.026356945 0.25683844 -0.13144329 0.21140508 0.0975789 -0.17640693 -0.09607496 -0.11272357 0.028753795 0.14066033 0.012155802 -0.25502566 -0.1570948 0.07539486 -0.14269061 -0.12565981 5.0139744e-05 0.099551156 0.04460995 0.08537904 -0.048315443 -0.0094452035 -0.17614056 2.101191e-05 -0.08727708 0.05837387 0.10043327 0.018194683 0.024608906 -0.08363467 0.14408088 0.00659618 0.16221462 0.17081104 0.16815248 -0.013206661 -0.05374718 0.016135056 0.082480006 -0.033766463 -0.31784967 -0.04699881 0.077670254
33 0.026608605 -0.089788385 0.036313787 -0.06520816 0.09376023 -0.18135722 0.049196053 0.11432919 0.053679094 0.07504884 0.26335466 -0.11227033 0.0047092633 0.037097745 0.004777455 0.0099849235 0.11265638 0.054861296 -0.13144699 0.10534527 0.19447976 0.12414433 0.008050833 -0.055550992 -0.15030332 -0.008932623 -0.10401253 0.069823146 0.031822875 -0.11300737 -0.24767414 -0.04870798 0.02070281 0.053444862 -0.07285551 0.1708948 0.15649402 0.027641488 0.115019046 0.0072408994 -0.07696974 0.056520566 0.07677173 -0.17682785 -0.04223283 0.03149173 0.07511254 -0.14289063 0.051773105 0.104568586 0.016677931 0.17662172 0.1640132 0.022522181 0.14997979 -0.03271978 0.20103236 -0.010469549 -0.02487943 -0.060446218 0.1617227 -0.13131331 -0.0213846 -0.08860001 0.19822025 -0.007557356 0.09024859 0.14859529 -0.15570785 0.0048723756 0.17744118 -0.01429796 -0.11410924 -0.01143926 0.13194373 -0.22443296 -0.050481632 -0.09206036 -0.05129615 0.2411579 0.12659676 -0.20305999 -0.03164604 0.2111848 0.108630836 0.12550631 0.1810647 -0.17335624 0.09023347 0.12076822 -0.016560938 -0.056669727 -0.028605392 0.054146208 0.12607136 0.1395249 -0.2742017 -0.36728904 -0.110399514 -0.11091292 -0.17420805 -0.008399964 0.024354283 0.011380661 0.09372618 -0.0411099 -0.019671062 -0.109416306 0.0018319328 -0.079079434 -0.048391182 0.12521611 0.10660554 0.025976473 0.07145627 -0.037156418 -0.027006917 0.15444912 0.040222667 -0.019264331 -0.0571259 0.019650834 -0.02327518 0.043388467 0.089157596 -0.023531074 0.10152503 0.14639369
3 0.01800138 -0.045478452 0.0675566 -0.10004844 0.07559266 -0.16549215 0.024806911 0.092398584 0.037933346 0.0660658 0.24390942 -0.100871615 0.01583989 -0.012907492 0.026263503 -0.016273553 0.079987034 0.055317998 -0.09309066 0.073642656 0.14730336 0.10858198 0.018843662 -0.036763676 -0.1630188 0.056822836 -0.08086117 0.046068914 0.04712773 -0.053603087 -0.27018598 -0.022870243 -0.050142594 0.064921044 -0.061891478 0.14227144 0.16233899 0.06745807 0.13238469 -0.0512785 -0.014175642 0.07304616 0.029515479 -0.10847502 -0.014996924 0.02800559 0.050749406 -0.19399771 0.0122710485 0.033235792 0.07488859 0.09721929 0.1618903 0.06663481 0.16483071 -0.041180257 0.18830574 0.017215837 -0.06104141 -0.08600595 0.11964469 -0.13802935 0.035220508 -0.07626184 0.16523628 -0.033205412 0.06599283 0.115269884 -0.1070356 -0.06457981 0.14731908 -0.026813861 -0.14896275 -0.004155935 0.039203346 -0.1593555 -0.030114176 -0.10225353 -0.054184627 0.22128864 0.085118055 -0.16174828 0.0070699346 0.20018198 0.098889604 0.07119027 0.1833173 -0.14608483 0.112380736 0.1036731 -0.057835773 -0.056493074 -0.054149177 0.051380184 0.13082108 0.08608406 -0.25763977 -0.28914228 -0.047879178 -0.12295506 -0.15648572 -0.020390095 0.05021477 0.03070558 0.082040235 -0.047897216 -0.010776996 -0.13118798 0.0005164599 -0.076109834 -0.012442065 0.09594351 0.08096544 0.028797846 0.019004147 0.018944291 -0.025138265 0.14115117 0.07653473 0.031951226 -0.04330027 -0.0012705713 -0.0042674276 0.05868323 0.048842967 -0.12151131 0.044685077 0.118135564
2 0.002364035 -0.01824558 0.07019753 -0.16369545 0.063969515 -0.15359485 0.017065438 0.09442464 0.004767728 0.08662817 0.24661915 -0.08015099 0.011354921 -0.043096308 0.055652168 -0.042850036 0.08796571 0.06992907 -0.054623656 0.042472146 0.10658631 0.077211 0.022402046 -0.010045461 -0.16799535 0.08778378 -0.05958389 0.018742796 0.08985613 -0.020136982 -0.31288806 0.0005853591 -0.09632637 0.06506395 -0.07584677 0.13296735 0.18009649 0.10462652 0.14476115 -0.12623172 0.069940954 0.08681687 -0.021557547 -0.0666937 0.013353412 0.01575931 0.013919508 -0.25836158 -0.0028109523 -0.022719994 0.12226385 0.03509097 0.17703119 0.10346975 0.20366018 -0.04875038 0.17390947 0.037109386 -0.07139369 -0.10412756 0.09580036 -0.12904939 0.06970026 -0.05202075 0.13427621 -0.04287445 0.04177651 0.09557117 -0.09213645 -0.14176123 0.14510894 -0.031689093 -0.1699912 0.0038456703 -0.040711675 -0.109180644 -0.02614543 -0.11865998 -0.051981695 0.23410755 0.05208333 -0.13807411 0.024783118 0.19961967 0.108138144 0.03026535 0.20773838 -0.14934976 0.15330668 0.09233588 -0.10882425 -0.069060385 -0.06658057 0.043725926 0.13411479 0.06385929 -0.25450733 -0.23475412 0.0056657013 -0.12651472 -0.13837881 0.0014571388 0.05640824 0.035698045 0.0987066 -0.04191822 -0.012633481 -0.15691687 0.003909235 -0.07876757 0.02413975 0.09960863 0.058969125 0.03199371 -0.024325965 0.05925748 -0.011864403 0.14168192 0.11591134 0.09730484 -0.027541118 -0.024877682 -0.0039005752 0.067803435 0.009630239 -0.19975749 0.0034695603 0.094597474
4 0.020793643 -0.018122246 0.07516524 -0.1595682 0.06915915 -0.14556347 0.013848659 0.096041925 0.008950463 0.08136925 0.24169548 -0.10077057 0.006415821 -0.035111412 0.050954822 -0.040651973 0.08446645 0.055527627 -0.06813871 0.050234735 0.1179854 0.08100383 0.027731482 -0.017782804 -0.17477058 0.08484007 -0.07162977 0.015840549 0.07397861 -0.015588753 -0.30585986 0.0054110154 -0.09384795 0.070251286 -0.06972097 0.12388438 0.19403283 0.117799245 0.14558056 -0.11421851 0.07029161 0.07891383 -0.0112782745 -0.06656827 0.005058026 0.018207831 0.025523422 -0.25553185 -0.009724151 -0.017861094 0.10755179 0.04280811 0.17816702 0.102971256 0.21109672 -0.0472355 0.19029218 0.040353663 -0.07500648 -0.10618808 0.09600094 -0.14245027 0.07555275 -0.055330474 0.13981384 -0.04430004 0.045294885 0.08624947 -0.10722997 -0.14052919 0.14263526 -0.027344197 -0.16655879 0.008711569 -0.037138455 -0.11994147 -0.020969318 -0.122877926 -0.06583204 0.22490813 0.060940944 -0.1318744 0.015428405 0.18692142 0.10357515 0.043651957 0.20625293 -0.13276647 0.14558634 0.10655721 -0.1136904 -0.06918475 -0.07099828 0.037978783 0.12682964 0.06681131 -0.25740525 -0.22664283 -0.009250179 -0.11996067 -0.13240288 -0.0071137664 0.06150667 0.038903944 0.09855564 -0.049056232 -0.016034815 -0.1495023 0.0038029905 -0.0815219 0.006852218 0.101790726 0.06438012 0.020421514 -0.023085373 0.0717111 -0.018262804 0.14906739 0.11260156 0.09524389 -0.024120744 -0.031144084 -0.006911241 0.071994066 0.021584088 -0.18738203 0.009086484 0.11296123
32 0.019988703 -0.06410765 0.05700759 -0.079430126 0.08869167 -0.16874993 0.036260813 0.0957666 0.058047142 0.06074276 0.24192697 -0.11690614 0.0054302225 0.008318877 0.006470429 0.0031746961 0.09229799 0.052506134 -0.10095694 0.09473706 0.17051496 0.117441975 0.015497612 -0.05026872 -0.16636099 0.0339557 -0.0825562 0.05962184 0.038805358 -0.0837082 -0.25295317 -0.038455587 -0.031561516 0.0628558 -0.06463713 0.16372418 0.15337914 0.054800797 0.12524255 -0.031958524 -0.056896955 0.066991284 0.053569257 -0.14225815 -0.013534959 0.029056842 0.07123378 -0.16815783 0.016520504 0.068435445 0.041038632 0.13298112 0.15980367 0.05006254 0.15690112 -0.048632838 0.19762298 0.010237779 -0.04652877 -0.09216315 0.13348083 -0.13549457 0.01727931 -0.09395543 0.18168741 -0.0136730345 0.07058848 0.13036354 -0.12682292 -0.01666013 0.1629319 -0.021803508 -0.13581711 0.0046996265 0.08046414 -0.18193951 -0.041894574 -0.09034959 -0.054102108 0.23078214 0.10250735 -0.17818713 -0.009198665 0.19437845 0.10333829 0.08071225 0.1838211 -0.1647236 0.10051189 0.10307145 -0.029429797 -0.06454277 -0.04715477 0.045433056 0.13316484 0.1098945 -0.26748478 -0.32401755 -0.083849914 -0.11579945 -0.16875517 -0.013259742 0.025228301 0.027263887 0.0948927 -0.03950826 -0.022341195 -0.12615648 -0.010500084 -0.0772486 -0.03751854 0.10321285 0.08843353 0.023917226 0.046882186 -0.0082948925 -0.015330955 0.14414628 0.060093507 0.004700836 -0.04303538 0.019266665 -0.016205965 0.052975483 0.0786781 -0.08018638 0.077710874 0.139299
14 0.01586983 -0.026287844 0.07493076 -0.13288566 0.06691989 -0.1622138 0.015890483 0.104827285 0.0203668 0.068607554 0.23378395 -0.08677743 0.00738268 -0.030078294 0.038819432 -0.032330964 0.086858764 0.058246806 -0.07744722 0.06484496 0.13101557 0.079689726 0.029204234 -0.033147164 -0.15568787 0.063370384 -0.072674714 0.037978213 0.07037011 -0.043309964 -0.27873367 0.00153516 -0.06787513 0.058737647 -0.063020766 0.13620192 0.17800286 0.092462815 0.12585405 -0.07743007 0.028600916 0.07539885 0.008993985 -0.0890111 0.0013800574 0.024908004 0.03574652 -0.21893725 0.0075505967 0.018266166 0.08056075 0.075103246 0.16439985 0.08939175 0.18300472 -0.0357534 0.17431763 0.033989303 -0.059537172 -0.09077272 0.098742716 -0.1302312 0.05557948 -0.06774119 0.14363532 -0.023278236 0.061775602 0.09689374 -0.11070958 -0.096710876 0.14122926 -0.03386396 -0.14615402 -0.0014170359 0.010418112 -0.13386253 -0.027530346 -0.12300999 -0.04770168 0.21093453 0.07375138 -0.14919724 0.011841608 0.1908354 0.10086133 0.05698998 0.18869674 -0.1329318 0.12758175 0.09099302 -0.086227365 -0.06255341 -0.042449996 0.049320366 0.11645853 0.089264005 -0.24367435 -0.24941659 -0.021228736 -0.11768171 -0.1543732 0.0018052014 0.060572974 0.04003854 0.09715074 -0.048950925 -0.0059121368 -0.14773497 -0.007080928 -0.07931029 -0.009484378 0.09846751 0.06421288 0.022296704 0.008006385 0.033372313 -0.0046164263 0.13662481 0.091039434 0.061289113 -0.034290012 -0.018882394 -0.00071021623 0.05062905 0.03298151 -0.14520201 0.03621716 0.108302385
24 0.017835163 -0.064044625 0.059450574 -0.08094318 0.08829985 -0.1680364 0.029193595 0.09405276 0.06130018 0.067260966 0.24327332 -0.10663696 0.011896188 0.007774741 0.001827545 -0.0048561986 0.094216816 0.056288503 -0.11619854 0.09456095 0.16546756 0.1136903 0.013834887 -0.04976174 -0.16169554 0.026201932 -0.09033027 0.06120696 0.03216348 -0.087525986 -0.24752417 -0.03158199 -0.023419183 0.055976342 -0.056617524 0.16390136 0.1437334 0.0452366 0.11602055 -0.01395025 -0.06730966 0.065654084 0.046194933 -0.14929673 -0.018822297 0.024286022 0.072191924 -0.1586365 0.024153132 0.0905918 0.03954019 0.15279813 0.16155718 0.033513393 0.13789885 -0.031882353 0.194766 0.014308686 -0.03765114 -0.06554996 0.1310532 -0.123799466 0.00743808 -0.086231396 0.1846631 -0.012967837 0.08097374 0.12495184 -0.1251808 -0.011150393 0.15504113 -0.02230319 -0.12127698 -0.00937211 0.0980628 -0.19811335 -0.0337684 -0.083132595 -0.04985186 0.22847871 0.1077985 -0.18566005 -0.008217118 0.20068365 0.096680716 0.091956735 0.17664114 -0.1583043 0.0885309 0.10142062 -0.02564806 -0.057990573 -0.03668639 0.048371576 0.11908183 0.111322984 -0.25946167 -0.33458617 -0.085465476 -0.123393916 -0.17282186 -0.022699183 0.022982301 0.03314017 0.092300184 -0.04593808 -0.02055332 -0.12707332 -0.004999499 -0.06831134 -0.0366844 0.10071504 0.09753315 0.031740986 0.03689383 -0.02366987 -0.028773872 0.13734286 0.05435349 0.010757451 -0.046861343 0.010854498 -0.0076970775 0.05103832 0.07789367 -0.059485763 0.07544686 0.13193183
7 0.009459188 0.071613096 0.063002385 -0.21199629 0.05490928 -0.11813687 0.018783422 0.10011666 -0.009930481 0.108921245 0.22279999 -0.08446134 0.025799766 -0.06474596 0.118224904 -0.02373953 0.044140168 0.07749485 -0.01582657 0.060117844 0.065448314 0.07743066 0.022875404 0.0021007156 -0.22935218 0.14340009 -0.05032929 -0.0364221 0.10204623 0.094231986 -0.38241866 0.014504855 -0.17108689 0.07128291 -0.08455229 0.09887682 0.21184582 0.19568336 0.18501712 -0.23059765 0.15601772 0.11537722 -0.04660427 0.008050524 0.027977709 0.047469556 -0.044979583 -0.3355284 -0.06268763 -0.1268197 0.1974084 -0.056384288 0.22208606 0.1594508 0.27345458 -0.05649449 0.18769611 0.10264607 -0.10894836 -0.19357166 0.012314801 -0.15608953 0.1199926 -0.04878229 0.10982549 -0.08302724 -0.0029893848 0.05629481 -0.08017585 -0.2466808 0.11108847 -0.006651153 -0.21680601 0.050018303 -0.18751995 -0.032516155 -0.018461939 -0.12997311 -0.096602105 0.24580586 0.040958036 -0.08794615 0.03751067 0.18917681 0.12573722 -0.06190902 0.26468718 -0.1242199 0.2174615 0.08482743 -0.1788368 -0.1033856 -0.13579015 0.02094816 0.14906299 0.006843887 -0.25067276 -0.10805985 0.09465541 -0.1710459 -0.10948824 -0.02390312 0.10749904 0.04039023 0.062724344 -0.031087 0.019104859 -0.1423248 -0.022393018 -0.1005368 0.07414756 0.11726168 0.0018385027 0.022032352 -0.080487944 0.14365602 0.0023818414 0.15100096 0.18515301 0.18974422 0.0011241365 -0.051709697 0.016307786 0.08015956 -0.022843443 -0.33874607 -0.036573656 0.06681427
6 -0.0033851482 0.07954216 0.0628521 -0.20322315 0.042338353 -0.11001605 0.022820882 0.091834426 -0.020567788 0.105933495 0.20341243 -0.07506254 0.03476115 -0.07703441 0.11941926 -0.029653087 0.0509786 0.07992984 -0.00180623 0.05382042 0.045712423 0.07361018 0.013286087 0.0009715147 -0.22244592 0.13506652 -0.048646364 -0.048526157 0.099436626 0.09586583 -0.37161076 0.02152734 -0.18552813 0.06409786 -0.07069368 0.10068029 0.20292512 0.1941605 0.17719996 -0.23666532 0.17456973 0.11363175 -0.053252924 0.03088997 0.041629042 0.055008408 -0.057720248 -0.33462736 -0.06447841 -0.12982675 0.1992377 -0.059365384 0.22095765 0.15296417 0.2744013 -0.06136553 0.16101784 0.1159774 -0.10332217 -0.18829641 0.004582249 -0.14807701 0.1282821 -0.030651368 0.09421286 -0.09243751 -0.017288378 0.048015077 -0.06355782 -0.2581103 0.1016909 -0.011214783 -0.2204925 0.04654775 -0.19620761 -0.020921348 -0.012432385 -0.13414785 -0.089876704 0.24066047 0.036604892 -0.07058398 0.05136398 0.19383816 0.12958395 -0.070011154 0.2611813 -0.11204208 0.22245243 0.06758958 -0.18036032 -0.10332607 -0.13715187 0.028149975 0.14422081 0.0072259577 -0.2354445 -0.08310969 0.10190004 -0.1674081 -0.09784608 -0.023057135 0.11395331 0.047106754 0.0612992 -0.025048608 0.02383562 -0.13719061 -0.0146622695 -0.097872816 0.08057126 0.11592948 -0.00074476644 0.020525241 -0.100421295 0.14588499 0.016419774 0.13849042 0.17848597 0.20031603 0.008595262 -0.043795276 0.018532878 0.07453134 -0.028791731 -0.34203923 -0.03457027 0.059133627
30 0.040986042 -0.10835979 0.056526627 -0.05392503 0.08494716 -0.20021965 0.033401337 0.11239394 0.080535434 0.05256316 0.2616963 -0.12640488 0.015639497 0.039522372 -0.008728738 0.0068484806 0.10523612 0.056315754 -0.14127006 0.10444657 0.20946805 0.13287403 0.005163403 -0.06324477 -0.14820187 -0.009756518 -0.105866656 0.07568832 0.02682202 -0.12380582 -0.23743509 -0.045950986 0.03263081 0.05449227 -0.059620462 0.18663862 0.15409915 0.025271691 0.10306299 0.027708549 -0.115147896 0.058165476 0.08791109 -0.18373874 -0.0356536 0.017581966 0.090585485 -0.13823771 0.060725335 0.14048018 0.0032536502 0.20262198 0.1539783 0.013345291 0.12993295 -0.026417667 0.21256232 -0.0077629574 -0.03368606 -0.052579336 0.1691914 -0.13140793 -0.025174998 -0.11404432 0.21788014 -0.0018659524 0.09702253 0.14061871 -0.14448664 0.0311944 0.18639316 -0.02206848 -0.12323323 -0.017172225 0.1652211 -0.25022545 -0.045583755 -0.08489866 -0.046026003 0.24343625 0.12908469 -0.22005779 -0.015032096 0.21355848 0.10538891 0.14229617 0.16979153 -0.18426748 0.06916764 0.12672696 -0.00910723 -0.040761076 -0.023217048 0.06744324 0.12847999 0.16162588 -0.28010914 -0.39546415 -0.13113625 -0.11272901 -0.19286571 -0.015063178 0.013004058 0.014918011 0.093374886 -0.04615558 -0.028384082 -0.116394326 -0.0131570725 -0.06677299 -0.0597272 0.11582112 0.11846098 0.042513464 0.07319516 -0.057122607 -0.038182437 0.14195843 0.027078297 -0.02598977 -0.05903249 0.013914713 -0.028182425 0.03658996 0.114376485 -0.0022381088 0.103804246 0.16537538
9 0.027234584 -0.055556428 0.04053827 -0.078146905 0.08043519 -0.15562437 0.025699155 0.09930711 0.04105781 0.071566805 0.2206844 -0.10616095 0.012814149 -0.0056847963 0.021048676 -0.010908246 0.09755903 0.058359943 -0.0959168 0.08238421 0.14911108 0.10007278 0.019626744 -0.029511403 -0.14658199 0.030601084 -0.080574624 0.04552731 0.04905674 -0.07004356 -0.24655612 -0.0186943 -0.023170095 0.05708605 -0.070301525 0.13637462 0.14870957 0.05250043 0.11672538 -0.0289985 -0.027934482 0.060820706 0.03728784 -0.1212105 -0.024158603 0.022586146 0.047733076 -0.16078621 0.016893348 0.05807391 0.044382825 0.10424216 0.16144808 0.056873243 0.14351033 -0.03194049 0.16878508 0.0070731356 -0.04830997 -0.067186184 0.12213388 -0.11132362 0.021228518 -0.067910284 0.16310471 -0.029429283 0.0646771 0.10702629 -0.11087666 -0.044646524 0.14214188 -0.016011816 -0.12333275 -0.0027736272 0.05689656 -0.16968493 -0.040347826 -0.082774736 -0.060520586 0.2186712 0.081542365 -0.15797855 -0.00983099 0.1720505 0.10141197 0.08321806 0.17020854 -0.138965 0.09806453 0.105894536 -0.04230529 -0.061201148 -0.04288527 0.04656185 0.11512374 0.09585097 -0.2370659 -0.2879529 -0.056164976 -0.10781354 -0.14472672 -0.02229375 0.029157754 0.01562516 0.081543446 -0.047784973 -0.021396423 -0.10787999 0.003771184 -0.06789023 -0.025012052 0.09621925 0.09044042 0.03134055 0.025555583 -0.0048036375 -0.021737363 0.1337007 0.065308794 0.02617344 -0.04496141 -0.008414447 -0.016715297 0.04981036 0.061637398 -0.087157175 0.061964564 0.119216464
8 0.010759343 -0.01387563 0.07076009 -0.15053426 0.07696614 -0.1528302 0.024468595 0.10802076 0.015074281 0.08526691 0.2500633 -0.1010064 0.021515537 -0.04703731 0.05713405 -0.043226894 0.087836616 0.05775223 -0.06826001 0.044829514 0.11183067 0.08409671 0.019023644 -0.02168393 -0.17853768 0.08023561 -0.06195123 0.032501247 0.09126686 -0.01571623 -0.31322488 0.010050088 -0.09967101 0.06577277 -0.08176463 0.13224821 0.1882042 0.11151887 0.14784513 -0.121183634 0.06636388 0.07883455 -0.0052568824 -0.07262893 0.0028559773 0.018210748 0.023369836 -0.25577694 0.001982461 -0.017035207 0.11730537 0.041108284 0.17796105 0.10222074 0.21267492 -0.056646544 0.19168901 0.039722603 -0.07948773 -0.11278449 0.09501452 -0.14310743 0.07023103 -0.06865336 0.1502463 -0.0444161 0.04515998 0.09863414 -0.1048367 -0.1334794 0.14918944 -0.019864723 -0.1766464 0.016696814 -0.025723603 -0.12748438 -0.017586773 -0.12950093 -0.051034763 0.2353662 0.062216293 -0.14753693 0.009466514 0.19582205 0.11368791 0.047806893 0.21618855 -0.13917154 0.15466902 0.100090235 -0.098922476 -0.06942712 -0.060836278 0.046677027 0.13250186 0.0712558 -0.2663309 -0.2540921 -0.012359288 -0.12426439 -0.14462203 -0.003174583 0.061438948 0.03963288 0.10175217 -0.055691153 -0.01634353 -0.16342406 0.0042705126 -0.07354384 0.018669115 0.10271317 0.06648219 0.035819795 -0.0134319905 0.06681253 -0.014357736 0.15796727 0.113904074 0.085762516 -0.027417721 -0.024464006 0.008284913 0.067347355 0.02590215 -0.19059004 0.019782756 0.11172181
28 0.028427018 -0.07085858 0.062275644 -0.07133367 0.08745297 -0.17735665 0.0406289 0.0915243 0.06390023 0.05745783 0.24706772 -0.11173183 0.016612386 0.0073903045 0.012758222 0.0072452524 0.09048061 0.048998646 -0.11745101 0.09244394 0.17447743 0.13079226 0.01721282 -0.05203601 -0.16204147 0.034253843 -0.08225773 0.07012982 0.041348044 -0.09750327 -0.26204473 -0.04076656 -0.011767451 0.056770407 -0.07180569 0.17114466 0.15842234 0.047749393 0.12481533 -0.016807461 -0.06798816 0.06449614 0.057475667 -0.15214106 -0.019385096 0.034232683 0.07724036 -0.17333682 0.025122669 0.08313385 0.047305565 0.15718071 0.16023223 0.04025864 0.14214502 -0.04026989 0.20972142 0.0036517086 -0.04612819 -0.08499077 0.13991198 -0.13497949 0.010648033 -0.086557075 0.18535727 -0.014884374 0.08769439 0.1337556 -0.1319252 -0.006252008 0.17242484 -0.014214646 -0.13530697 0.003952291 0.10425479 -0.18851344 -0.042662196 -0.08768429 -0.04884288 0.2301397 0.11588076 -0.18650168 -0.005386982 0.2001162 0.09990858 0.099999435 0.17562963 -0.17281431 0.090881005 0.10729715 -0.032352403 -0.052719954 -0.031483613 0.051616464 0.12677033 0.123583265 -0.26742327 -0.3474277 -0.082844555 -0.12600045 -0.16784118 -0.012985162 0.03335699 0.028043767 0.09523198 -0.0487437 -0.014361911 -0.12360312 -0.0018611545 -0.066235684 -0.035724 0.113842204 0.091832764 0.03328959 0.054342598 -0.022783943 -0.02456004 0.14016716 0.05519298 0.0064353724 -0.038794156 0.016769394 -0.012067673 0.05219639 0.08858753 -0.07032329 0.07333036 0.13681798
5 0.00015226437 0.06631051 0.07476281 -0.22454919 0.04334195 -0.113776535 0.00840572 0.08827039 -0.01827873 0.10968951 0.20982464 -0.078665584 0.026165448 -0.081718124 0.09942324 -0.042752337 0.047754403 0.07169891 -0.008565201 0.026965654 0.05649872 0.066834755 0.030281292 0.011892796 -0.20700549 0.14380033 -0.044734042 -0.042670693 0.11281327 0.08481494 -0.36876053 0.02534355 -0.18722582 0.06777829 -0.07528929 0.10002547 0.20912172 0.18427463 0.1799679 -0.2291377 0.17756656 0.103489116 -0.07032766 0.019939052 0.035803925 0.042672075 -0.045761134 -0.33984733 -0.06640458 -0.13568988 0.19069779 -0.06017923 0.20777006 0.15803225 0.26372263 -0.05895476 0.17328046 0.1054119 -0.10851941 -0.175783 0.016837377 -0.14827845 0.13491794 -0.030850358 0.10148386 -0.085737124 -0.005963081 0.046875954 -0.06605481 -0.26020342 0.10638222 -0.017641587 -0.2215135 0.047042046 -0.19399148 -0.035114188 -0.019668384 -0.1357858 -0.075288996 0.23490591 0.027578177 -0.0791142 0.04739839 0.19525199 0.12335986 -0.048847407 0.24829954 -0.11535266 0.21618816 0.07679421 -0.17858028 -0.09177139 -0.11644054 0.030320585 0.14075856 -0.0018960602 -0.24329805 -0.10289897 0.08556735 -0.15333477 -0.10380047 -0.005892381 0.09816766 0.053864565 0.07334577 -0.04141037 0.009568521 -0.16076559 -0.010472373 -0.093755245 0.07075201 0.09238631 0.0040376056 0.025644321 -0.098839685 0.15283039 0.010880021 0.15147725 0.17912707 0.190153 -1.2706965e-05 -0.05850846 0.012962469 0.08700031 -0.039980397 -0.3415145 -0.05319749 0.06109473
11 0.0062407353 0.04556185 0.08096571 -0.19910857 0.053770248 -0.12818049 0.009172672 0.09784363 -0.0018858985 0.09216752 0.20461556 -0.081114724 0.024965499 -0.058360174 0.090830415 -0.044773642 0.04858654 0.075896576 -0.02347478 0.03807956 0.07566865 0.06213892 0.026370056 -0.004772559 -0.2002227 0.121258244 -0.043140866 -0.012367311 0.098243244 0.060040466 -0.33908123 0.017427485 -0.15659405 0.07049749 -0.07277069 0.10205427 0.18397874 0.16340098 0.16286242 -0.19071682 0.1297429 0.10600866 -0.052584123 -0.0022563273 0.027048798 0.041561678 -0.018401777 -0.30212566 -0.044518992 -0.09774502 0.15735589 -0.030125072 0.1902192 0.14203282 0.24582481 -0.048877694 0.16025732 0.09025206 -0.098551705 -0.15439564 0.03578415 -0.134344 0.11338312 -0.038305547 0.116296016 -0.0700201 0.001702511 0.056764018 -0.066080004 -0.21307138 0.1095801 -0.016639605 -0.20155236 0.026760701 -0.13864489 -0.054592296 -0.014392534 -0.124890484 -0.07658318 0.22595303 0.041594107 -0.09220119 0.046683718 0.18252303 0.120653 -0.036559846 0.23248914 -0.1289909 0.18477271 0.06978197 -0.15206504 -0.08923346 -0.108550474 0.0335446 0.13577048 0.017671017 -0.24430431 -0.14527789 0.06163349 -0.14795691 -0.12035447 -0.009787746 0.093417384 0.047866646 0.0663328 -0.03371909 -0.0024729571 -0.15784754 -0.005478316 -0.083979286 0.046541695 0.09274856 0.017081663 0.0295284 -0.07710082 0.1261959 0.003551913 0.13968968 0.16141248 0.15635093 -0.010783366 -0.04001878 0.01584716 0.08058245 -0.018178226 -0.28771842 -0.026287207 0.0696261
29 0.025140898 -0.06335495 0.055460803 -0.06386243 0.0794718 -0.17137544 0.043217745 0.09521979 0.045735303 0.06500709 0.24494497 -0.1122272 0.004938194 0.013953143 0.01754836 -0.0075397943 0.09796055 0.04953632 -0.11598678 0.08910306 0.16317903 0.12702799 0.0100996625 -0.046353478 -0.15312503 0.025509268 -0.086346515 0.073305525 0.037391935 -0.095465414 -0.24758765 -0.030648185 -0.01616916 0.048437305 -0.07078794 0.15171087 0.15637094 0.049575966 0.12079968 -0.008174188 -0.063772365 0.061770946 0.06362427 -0.14687708 -0.02091459 0.032320075 0.06174116 -0.1522831 0.034473512 0.09511058 0.031362966 0.15186282 0.16469647 0.03583588 0.13750204 -0.033702128 0.1892401 -0.00184056 -0.0372542 -0.06441663 0.14778645 -0.13276532 -0.00039323326 -0.08035068 0.18561779 -0.020785451 0.07281262 0.123154566 -0.13348936 -0.016046863 0.16063592 -0.01798147 -0.12524702 -0.0084310025 0.10553194 -0.19626616 -0.045314014 -0.08106027 -0.050667398 0.23213816 0.103788406 -0.18593137 -0.017376147 0.19220431 0.092579104 0.09790513 0.17792547 -0.1519853 0.09787602 0.1112717 -0.033477545 -0.05807383 -0.03717663 0.054297153 0.11480987 0.12122835 -0.25643253 -0.3362145 -0.09441292 -0.10897015 -0.16998596 -0.018993322 0.032784704 0.031070784 0.08562356 -0.045969393 -0.008942686 -0.12342456 -0.0066841715 -0.06519177 -0.031800322 0.10655676 0.10421885 0.029433966 0.048040595 -0.019892463 -0.030903872 0.14482701 0.05321462 -0.0033736518 -0.046425678 0.0137319835 -0.014983359 0.056168802 0.07869899 -0.066280216 0.08125861 0.12956464
31 0.015170744 -0.073687546 0.045865614 -0.072143465 0.083533555 -0.16979636 0.029285332 0.09736904 0.046980225 0.06483229 0.24989237 -0.10013283 0.014505298 0.0050921557 0.0150285605 -0.008655815 0.104937695 0.054023888 -0.10814254 0.07655647 0.1583 0.11845876 0.01410228 -0.043975536 -0.14117768 0.019869402 -0.07964068 0.06526021 0.030874941 -0.099128895 -0.24345663 -0.037588105 -0.0021791188 0.0569996 -0.07139715 0.15918273 0.15673506 0.044897407 0.11645294 -0.019406054 -0.055888012 0.052350245 0.05017546 -0.14797375 -0.025312563 0.023882678 0.07102084 -0.15321079 0.04104881 0.09089401 0.03021068 0.149527 0.15780936 0.048242617 0.14390458 -0.037861113 0.18403786 -0.00084848853 -0.040904295 -0.0537231 0.14364763 -0.123303875 0.008242513 -0.090631016 0.18351977 -0.005801716 0.07761572 0.12941508 -0.13372654 -0.020500613 0.16643819 -0.025751166 -0.1141114 -0.008880122 0.099603586 -0.19018939 -0.041189358 -0.09289787 -0.047973588 0.22426434 0.10289836 -0.18030968 -0.020903058 0.20143281 0.09166602 0.1096272 0.17331804 -0.16265835 0.08447521 0.10329504 -0.03528648 -0.04671383 -0.021098467 0.054264415 0.12058803 0.1272887 -0.25922734 -0.3327676 -0.0826065 -0.11467988 -0.17423569 -0.021233337 0.036375023 0.027758641 0.08799222 -0.053219367 -0.018657824 -0.11521546 -0.0009396158 -0.07042366 -0.038501866 0.10780179 0.09905616 0.037578575 0.042839788 -0.023862146 -0.03062114 0.13902104 0.044403344 0.0036663702 -0.05398186 0.0051372135 -0.009640591 0.04006316 0.07700676 -0.06280447 0.08268539 0.13722816
20 0.015861325 -0.010723436 0.06754209 -0.13775052 0.075775914 -0.15231712 0.028120298 0.097006254 0.016072892 0.075233266 0.23548019 -0.093933634 0.020137088 -0.035969436 0.055010848 -0.025586093 0.08519416 0.05499849 -0.05801163 0.06486792 0.11578086 0.08534198 0.024800412 -0.016106252 -0.1587119 0.07661806 -0.058994778 0.032930948 0.07603066 -0.020621669 -0.28507283 -0.0017571693 -0.07824524 0.061421696 -0.0778694 0.11706268 0.17063782 0.10794084 0.13393354 -0.107157394 0.047223452 0.076909 0.0017734498 -0.07377968 0.005677743 0.030463481 0.026260447 -0.22769433 0.0019790651 0.00051083055 0.0936577 0.05991032 0.17528933 0.09413116 0.18967454 -0.044074006 0.18238974 0.044972885 -0.06694288 -0.1108002 0.089831784 -0.13004461 0.063230224 -0.07102957 0.14893891 -0.045841146 0.048436627 0.08543522 -0.09370452 -0.10664582 0.13863969 -0.0222976 -0.15472712 0.011198108 -0.024798188 -0.116853215 -0.025292218 -0.10768849 -0.06490443 0.22728018 0.06710005 -0.13814461 0.0020151916 0.19007371 0.11109022 0.04747538 0.19511056 -0.14496602 0.13432062 0.095170684 -0.10162968 -0.07629363 -0.06472797 0.042162124 0.11647015 0.068912566 -0.24341781 -0.2290917 -0.008864326 -0.12364644 -0.14560466 -0.014427562 0.056484573 0.03925939 0.08916683 -0.046616398 -0.008539594 -0.14392592 -0.0047810944 -0.08056684 0.009982559 0.09881117 0.054461643 0.019463079 -0.012331092 0.042922772 -0.012058779 0.13834216 0.0992421 0.07557597 -0.03553359 -0.02183298 -8.029626e-05 0.056194056 0.022109183 -0.17219584 0.016678736 0.10406859
26 0.030315595 -0.093298346 0.0644143 -0.04447573 0.09777533 -0.17531078 0.04564714 0.07733963 0.062624976 0.0433738 0.23922566 -0.12239692 -0.0005416827 0.01868565 -0.012909462 0.00121883 0.08946886 0.050905928 -0.12631607 0.09735045 0.19220999 0.13459778 0.013282707 -0.05768894 -0.14745376 0.009125123 -0.08595694 0.09297702 0.019102871 -0.121423066 -0.22602132 -0.044188738 0.01516649 0.05023416 -0.06022141 0.165155 0.13035621 0.03046086 0.0986365 0.027694684 -0.111963905 0.050723795 0.067835316 -0.16847557 -0.024120541 0.029379012 0.102314435 -0.13419834 0.03220502 0.13392483 0.010642494 0.1909889 0.147006 0.01411534 0.10831544 -0.038182013 0.20578128 -0.021512667 -0.031112233 -0.06196628 0.16926397 -0.12686096 -0.0026375242 -0.10757819 0.18489882 -0.011301787 0.09210265 0.14544545 -0.13389799 0.04433685 0.17383258 -0.016090183 -0.1102411 -0.0051467116 0.14731957 -0.20984465 -0.051124528 -0.07483818 -0.04330794 0.22261918 0.12789236 -0.20273462 -0.018447414 0.19633703 0.09284806 0.11834938 0.16517822 -0.17781734 0.07252176 0.10671893 0.00093321013 -0.044045173 -0.01953871 0.05571219 0.11732835 0.14151639 -0.25855815 -0.37725067 -0.12999164 -0.11700896 -0.17520939 -0.019540872 0.014208392 0.023645854 0.090312175 -0.050192103 -0.016149314 -0.12139072 -0.010096975 -0.058355596 -0.058533095 0.093579106 0.11096039 0.029673172 0.06765572 -0.059710506 -0.024289895 0.1403581 0.024469662 -0.024789266 -0.048685994 0.037782542 -0.020000277 0.05071346 0.10436992 -0.017169688 0.087766975 0.15910222
25 0.023315823 -0.07603786 0.064267755 -0.06653482 0.08878733 -0.18361305 0.033850826 0.08369314 0.06645604 0.06233405 0.252146 -0.11296364 0.0143445125 0.0224467 -0.0009582273 0.005458274 0.10211682 0.05428374 -0.116091624 0.09359942 0.18451367 0.13209903 0.01354778 -0.06420503 -0.15800703 0.019882739 -0.095240854 0.06929852 0.033150367 -0.10830567 -0.2475145 -0.033181857 -0.010925593 0.06330258 -0.0607928 0.17302507 0.14192177 0.03339925 0.10528658 0.0020197579 -0.09153085 0.057911925 0.072268814 -0.16657545 -0.031061597 0.025095083 0.07497184 -0.15782031 0.0322319 0.11319299 0.03720147 0.16427036 0.14848813 0.024276707 0.12188584 -0.04112719 0.19467105 0.0001502551 -0.044149738 -0.06597684 0.15102242 -0.12524661 -0.0025790157 -0.10435948 0.1966042 -0.017050548 0.08977977 0.13851155 -0.12536281 0.010424767 0.16587631 -0.014046217 -0.13078164 -0.014457713 0.12707919 -0.21027146 -0.045291945 -0.08482915 -0.0586867 0.23193668 0.116008475 -0.19600801 -0.010262456 0.20458718 0.1037904 0.09820886 0.16841221 -0.17660983 0.07459498 0.10239883 -0.016764507 -0.060537275 -0.03714658 0.053140517 0.12895034 0.12936151 -0.25765917 -0.36497894 -0.10714737 -0.12061669 -0.1674281 -0.020484371 0.02516348 0.02717784 0.09256734 -0.053030074 -0.0145171145 -0.115762025 -0.0009301505 -0.061783448 -0.050576027 0.10254565 0.11307787 0.030293943 0.049084086 -0.031946577 -0.03375494 0.14450246 0.045847997 -0.014486722 -0.04419956 0.028968446 -0.01787523 0.04934957 0.10095936 -0.03467997 0.077583775 0.14980991
17 0.011070234 0.084275834 0.067939796 -0.22656056 0.051729996 -0.1095692 0.017862285 0.106643915 -0.018186824 0.102391444 0.19992232 -0.07353498 0.031829756 -0.07679332 0.13333091 -0.031137533 0.050498683 0.069320574 -0.002952355 0.0453322 0.047919914 0.062303815 0.017375465 0.0028197328 -0.23188323 0.1579413 -0.03824811 -0.058041666 0.11299358 0.112116896 -0.38688716 0.019796655 -0.1937832 0.07575074 -0.08605033 0.0924705 0.20068622 0.20653677 0.18568891 -0.25655797 0.1889547 0.118065186 -0.07298625 0.044061355 0.045579303 0.04466905 -0.061839875 -0.3449325 -0.07882856 -0.15235767 0.19805135 -0.08004567 0.23195294 0.17432936 0.28717348 -0.06758035 0.17356697 0.12522548 -0.10986206 -0.20420185 -0.0037404897 -0.14909051 0.1314521 -0.028980935 0.09549208 -0.09861076 -0.025441697 0.047679976 -0.071901254 -0.28117585 0.10295137 -0.011508425 -0.22498874 0.044580467 -0.21921802 -0.008561481 -0.020004192 -0.140311 -0.098648995 0.23551314 0.023386454 -0.079447806 0.056074124 0.19684973 0.12832035 -0.087190695 0.2674692 -0.11643334 0.23784311 0.073501535 -0.19981515 -0.109406516 -0.14836925 0.025444176 0.13777275 -0.006424999 -0.23410232 -0.06980473 0.11546936 -0.17587617 -0.09386494 -0.027722484 0.11063473 0.04187384 0.060343824 -0.03086022 0.015596475 -0.14662416 -0.009049419 -0.09272298 0.07999502 0.12025021 -0.0072295507 0.018869221 -0.11508843 0.17038961 0.0052398336 0.1450024 0.20355226 0.2104258 0.0059089544 -0.0628165 0.024846816 0.0875281 -0.047170307 -0.367076 -0.038341958 0.056489076
16 0.02321315 -0.061638195 0.040792126 -0.0788311 0.0813757 -0.17477633 0.0376105 0.109401114 0.04095004 0.07471464 0.2498333 -0.114917375 0.016822675 0.011763228 0.029105783 -0.0049914992 0.10181026 0.050669786 -0.103737 0.09554201 0.16435672 0.11187869 0.011187772 -0.043596186 -0.16618398 0.031548917 -0.08652822 0.06457552 0.040659677 -0.08447213 -0.26866198 -0.037800286 -0.018353388 0.059552114 -0.07037866 0.15900481 0.1529687 0.055434234 0.11648023 -0.030933516 -0.041929636 0.07393998 0.0454964 -0.13366216 -0.018396497 0.028562209 0.060406893 -0.16748461 0.032303575 0.075963594 0.04798415 0.13569608 0.17422427 0.046519108 0.15907 -0.037057985 0.1939517 0.013417731 -0.045197513 -0.071597666 0.13188319 -0.13190264 0.017252862 -0.08263356 0.18755807 -0.015771465 0.07162995 0.11949267 -0.13003242 -0.046468657 0.16145337 -0.029718658 -0.13338943 -0.009946912 0.08501524 -0.19246799 -0.032064464 -0.105462655 -0.05917331 0.23694402 0.1014605 -0.17973636 -0.016912498 0.20076253 0.10332827 0.087661445 0.19170812 -0.16015081 0.11103929 0.105029665 -0.042177543 -0.0669138 -0.033402193 0.058300424 0.12231747 0.12383997 -0.27081406 -0.32993272 -0.07164035 -0.11750617 -0.17671596 -0.025013518 0.044757772 0.024783831 0.092292994 -0.04472372 -0.02146545 -0.121728554 -0.0024721953 -0.0720715 -0.031503472 0.114150204 0.0981809 0.02786741 0.034586847 0.0010983628 -0.016543435 0.14411446 0.069763765 0.018360255 -0.05326429 0.0018924967 -0.016350674 0.054272376 0.07252622 -0.09491749 0.07669923 0.13005705
13 0.01197926 0.018253721 0.08413785 -0.1846238 0.056772083 -0.12955578 0.014771976 0.09667566 -0.0066287173 0.08870392 0.22139277 -0.07991296 0.011330889 -0.06315725 0.07796065 -0.046160962 0.0729478 0.06512983 -0.034235377 0.04052308 0.09096241 0.06724711 0.034394648 -0.0042771585 -0.18500493 0.10873538 -0.05880432 -0.008017224 0.09355986 0.02400753 -0.31240532 0.019507034 -0.13258968 0.06593554 -0.079865515 0.099883206 0.19858631 0.13613614 0.15845144 -0.16942663 0.124642976 0.09779897 -0.041060496 -0.028202955 0.021289593 0.023945022 -0.002161443 -0.28047088 -0.029548708 -0.07228636 0.14741835 -0.01540372 0.18676373 0.13204995 0.22581595 -0.044740953 0.1677782 0.07464868 -0.08929602 -0.12755942 0.05766523 -0.14218757 0.098260045 -0.036233548 0.11852443 -0.0631736 0.021589689 0.068809226 -0.077611566 -0.19251433 0.1265455 -0.022687893 -0.18147011 0.025771406 -0.107424006 -0.0721047 -0.015874822 -0.13734142 -0.058924984 0.22704457 0.04602418 -0.10929379 0.025883162 0.18928166 0.106134914 0.0029342638 0.22279851 -0.120125875 0.177544 0.08826146 -0.13984476 -0.07791475 -0.0831269 0.029138207 0.1322344 0.030657025 -0.2411759 -0.16649322 0.037681554 -0.12773916 -0.12569727 -0.00040013564 0.08606678 0.044127706 0.08171331 -0.043137576 -0.002031522 -0.14929269 0.004520246 -0.08576845 0.037988734 0.08932029 0.027482841 0.028336186 -0.05947672 0.10199067 0.0054638567 0.14976338 0.14718032 0.13381903 -0.024990072 -0.048327573 0.011689208 0.06514891 -0.01550436 -0.25248224 -0.020215016 0.07789007
10 0.02144953 -0.04630423 0.051706504 -0.101196386 0.07867782 -0.1581675 0.028458502 0.100482434 0.04468497 0.065422475 0.2443317 -0.094953924 0.0066748313 -0.009735281 0.031145 -0.005257392 0.084344216 0.051869553 -0.0847116 0.07232779 0.13867678 0.104468256 0.021858443 -0.044066235 -0.16186401 0.044210043 -0.07554876 0.053239904 0.051512044 -0.049851347 -0.27003655 -0.027558869 -0.042058107 0.054834295 -0.06471887 0.14326295 0.15719669 0.07167496 0.13332745 -0.059161156 -0.0121291485 0.06390777 0.02852502 -0.1217322 -0.002294952 0.025234232 0.05214559 -0.19592746 0.012811933 0.05337846 0.06272096 0.10029441 0.17003103 0.07115192 0.17772394 -0.046045765 0.18781365 0.027286967 -0.057396527 -0.08545972 0.110350534 -0.13024707 0.03590616 -0.075423494 0.16101088 -0.025662333 0.06522162 0.11936879 -0.12542817 -0.05635003 0.15360068 -0.021095507 -0.13379197 0.00045588508 0.04006069 -0.16640368 -0.036654186 -0.09954298 -0.059987005 0.22576739 0.097310856 -0.16538183 -0.009080979 0.2014149 0.112616666 0.07049184 0.1928896 -0.15089943 0.11750516 0.104241595 -0.064528085 -0.066870436 -0.0476625 0.04471267 0.12574637 0.100605294 -0.24660474 -0.2850136 -0.044506148 -0.12679246 -0.1545412 -0.018274166 0.042475015 0.033005964 0.0828999 -0.04882654 -0.008655933 -0.121630006 -0.012083114 -0.08337612 -0.02003013 0.11158711 0.071541294 0.035931394 0.019406563 0.014805819 -0.016197588 0.13998635 0.07991358 0.04322951 -0.044328224 0.0009290895 -0.006051099 0.058526285 0.0629125 -0.11993122 0.06137631 0.116880514
15 0.025708234 -0.078264825 0.056065053 -0.07886307 0.08780493 -0.19683659 0.035517644 0.11530847 0.04983481 0.07255168 0.27184474 -0.121448204 0.0021263983 0.015979793 0.0052863555 -0.00025361346 0.1193732 0.058778852 -0.12867743 0.09778973 0.18203448 0.12561798 0.012313292 -0.041512407 -0.15987943 0.006049421 -0.09443644 0.07737196 0.030289011 -0.114477836 -0.26082486 -0.0428169 -0.0025275606 0.05311128 -0.07286378 0.17791662 0.16157924 0.03914542 0.11826987 -0.0050874185 -0.07270912 0.061613888 0.067692764 -0.16746297 -0.038186826 0.025067504 0.08691505 -0.16345073 0.040388525 0.10537205 0.03326719 0.1685021 0.17679262 0.02994838 0.15695219 -0.04422497 0.21355705 -0.0013932965 -0.038757958 -0.06390941 0.16640353 -0.12782739 -0.005808556 -0.10472082 0.2084393 -0.015586149 0.08054445 0.14228104 -0.1487723 -0.01412374 0.1882648 -0.026177788 -0.1288261 -0.017595552 0.12017699 -0.22713694 -0.050601296 -0.10149413 -0.060014185 0.25203145 0.12255806 -0.2069088 -0.016905954 0.20761624 0.11331534 0.13073176 0.18285657 -0.1812332 0.08680749 0.12353668 -0.029366642 -0.050254695 -0.016581558 0.06601219 0.12379708 0.1446914 -0.28002006 -0.37403765 -0.09397942 -0.12583445 -0.18568122 -0.019822072 0.019141348 0.022118965 0.10185055 -0.05672247 -0.028669104 -0.11760047 -0.0066123484 -0.08287943 -0.044652224 0.11328207 0.11805856 0.03785069 0.06458194 -0.040171664 -0.02524394 0.1561327 0.047766138 -0.007410846 -0.05641498 0.007788254 -0.02614993 0.042630807 0.091347665 -0.053220134 0.099232644 0.14852342
22 0.019868542 -0.031811673 0.08134647 -0.13981941 0.07538149 -0.16127062 0.02373446 0.09590215 0.021023493 0.0828214 0.24179587 -0.09512825 0.007823781 -0.026996534 0.043841485 -0.03206572 0.09313132 0.05996592 -0.06837895 0.064265944 0.13135695 0.089906596 0.015720794 -0.01785252 -0.16505814 0.06915836 -0.07034134 0.04600546 0.07648028 -0.03810596 -0.2828635 -8.761609e-05 -0.06876886 0.07148436 -0.0725649 0.13666655 0.18244305 0.085815236 0.13632411 -0.07988994 0.019351201 0.07361622 0.0014245736 -0.08929404 0.004872195 0.015154505 0.044290032 -0.22617438 -0.0037775517 0.010828833 0.08853353 0.068718664 0.16499168 0.081904516 0.19058104 -0.040055647 0.18537149 0.031402417 -0.06837124 -0.09485993 0.10281659 -0.13308698 0.05877283 -0.06583149 0.15866897 -0.032811176 0.058520604 0.09651689 -0.10608698 -0.100101 0.15522769 -0.01955035 -0.16200158 0.0057278364 0.009177861 -0.14102194 -0.026269546 -0.11934448 -0.04545126 0.22048877 0.0650242 -0.15485455 0.005197895 0.19133627 0.096712664 0.060629737 0.19117507 -0.15095879 0.13282102 0.10430113 -0.0821139 -0.063860625 -0.046369836 0.046623252 0.13252974 0.086563505 -0.26500478 -0.27565405 -0.021622347 -0.116242945 -0.15238926 -0.0010540611 0.04637709 0.030039163 0.08856734 -0.04431994 -0.020173218 -0.1534804 -0.003502686 -0.069585174 -0.005114737 0.09003652 0.06844181 0.02940322 -0.0037044813 0.036635127 -0.011728698 0.1461125 0.08784327 0.063711464 -0.03109173 -0.024871724 -0.010106017 0.0665158 0.027694508 -0.1510757 0.018900858 0.12245315
21 0.017108468 -0.07051236 0.046663813 -0.08598121 0.08988155 -0.16131131 0.03541564 0.10648148 0.051698156 0.07071234 0.24615587 -0.108958855 0.014525208 0.019054066 0.014140729 -0.011010516 0.10485454 0.066621535 -0.11534996 0.08894097 0.163634 0.12033677 0.020864688 -0.046389755 -0.15769394 0.028924149 -0.08653099 0.048649445 0.043512918 -0.083180964 -0.26476288 -0.031345155 -0.017885149 0.06451139 -0.06739075 0.15619805 0.14970623 0.0419386 0.10899904 -0.024801565 -0.052007146 0.06656336 0.050613314 -0.14669089 -0.026253605 0.021044306 0.054134883 -0.16788128 0.039006796 0.0657494 0.04030564 0.14153887 0.17119396 0.054474123 0.14719892 -0.03401278 0.18519533 0.015854614 -0.03851552 -0.07619453 0.14056039 -0.13538395 0.0120705655 -0.07972435 0.18578678 -0.01245823 0.06976507 0.13141087 -0.13481705 -0.037863422 0.16330779 -0.029071972 -0.12939629 -0.0047208695 0.090699434 -0.19444197 -0.04085818 -0.09850172 -0.05947954 0.2296945 0.108160816 -0.18073308 -0.012612953 0.20671044 0.10327692 0.089580685 0.1851591 -0.15908296 0.09847971 0.11404058 -0.03170022 -0.05470031 -0.036692057 0.04997956 0.13308412 0.11943763 -0.26750657 -0.3281956 -0.07676729 -0.12670349 -0.16333388 -0.025984995 0.032500874 0.024768168 0.091253 -0.040404953 -0.026278572 -0.113937 0.0028841887 -0.07477498 -0.021910014 0.11260371 0.09885669 0.040447272 0.0407772 -0.009147932 -0.020418443 0.1370048 0.066439316 0.010072677 -0.050212882 0.0061725327 -0.005716401 0.05139446 0.07192882 -0.080199614 0.0726374 0.12951449
23 0.017891614 -0.069944926 0.055215076 -0.08619393 0.08213366 -0.16867083 0.032936476 0.10407672 0.038465507 0.073660746 0.2600715 -0.11108009 0.012519043 0.013784666 0.012790573 -0.012775822 0.094264194 0.057877045 -0.109966256 0.08412676 0.17135835 0.10416733 0.009664534 -0.04183533 -0.15956348 0.020740284 -0.09477033 0.058306918 0.043143116 -0.08352248 -0.2598035 -0.022326889 -0.012133855 0.052561264 -0.060706668 0.14968266 0.16279812 0.054955453 0.121728584 -0.033134848 -0.038869705 0.066367306 0.037344616 -0.14413065 -0.025682421 0.026482143 0.06086817 -0.17943606 0.037175246 0.07215905 0.046037555 0.1370745 0.16114883 0.05921609 0.15475331 -0.03992422 0.18522026 0.009780135 -0.05154707 -0.06201824 0.14131524 -0.13785279 0.019365933 -0.07675774 0.17478669 -0.011023226 0.069045156 0.13287422 -0.12852883 -0.03905221 0.15745093 -0.027094694 -0.13115194 -0.008072593 0.08979685 -0.1917572 -0.044261906 -0.108581066 -0.05279408 0.23087642 0.100735694 -0.18127267 -0.004370311 0.20296109 0.10720973 0.100833796 0.17705974 -0.16040309 0.095913224 0.10591146 -0.047783308 -0.05089951 -0.034952756 0.06067018 0.12494937 0.11423308 -0.26115566 -0.32076558 -0.07306561 -0.1162024 -0.17434219 -0.009988447 0.030781899 0.019375108 0.0866105 -0.040393468 -0.016071282 -0.11837367 0.00559137 -0.08356062 -0.027093219 0.11095096 0.098397 0.029379403 0.047928154 -0.010285456 -0.016075317 0.1505183 0.061261434 0.019441167 -0.043722663 0.0024678754 -0.007317774 0.05141883 0.068058886 -0.07623816 0.075765304 0.12932518
27 0.027925987 -0.08143515 0.06150543 -0.085204884 0.09129503 -0.19732738 0.044442113 0.10748154 0.06945224 0.07036163 0.28218743 -0.12124023 0.018496186 0.016301038 0.0038536838 0.006554499 0.109285735 0.06891604 -0.13837877 0.11018669 0.1957161 0.13434789 0.015800683 -0.057787184 -0.179617 0.007160048 -0.09928917 0.07742074 0.028664999 -0.09828414 -0.27733737 -0.050326765 -0.0060263053 0.06496839 -0.07813373 0.1861647 0.17054413 0.051582072 0.1310692 -0.0065339096 -0.08126409 0.062184073 0.073283315 -0.17839672 -0.032413386 0.027936269 0.086384974 -0.18057233 0.04019492 0.10608809 0.030010039 0.16664022 0.17129669 0.041038446 0.14808206 -0.035729587 0.21166664 -0.004972117 -0.0460846 -0.06540023 0.15550064 -0.13125263 -0.009314405 -0.110490255 0.19999097 -0.012796495 0.07821277 0.13681065 -0.15706356 -0.00951845 0.18998145 -0.03090869 -0.14087027 -0.009490953 0.12266037 -0.23336674 -0.041082267 -0.10836495 -0.055115297 0.26371917 0.13101396 -0.20201969 -0.0048769168 0.22634864 0.1055849 0.12009791 0.18516809 -0.18950668 0.10148332 0.10985742 -0.032785866 -0.062958755 -0.029655019 0.066395395 0.13553937 0.14495155 -0.2859173 -0.3661058 -0.10516924 -0.13180673 -0.19355506 -0.020414967 0.031178268 0.028754858 0.09211117 -0.047123004 -0.012769688 -0.12740506 -0.010035463 -0.079821914 -0.05009677 0.12806162 0.11761728 0.044401888 0.066460446 -0.0406289 -0.025402714 0.14623342 0.047527224 -0.010641994 -0.049711227 0.014634564 -0.02496414 0.057374693 0.094249435 -0.054735202 0.090269074 0.14790289
18 0.007291144 -0.00035664544 0.07550668 -0.15761898 0.07279585 -0.14696243 0.018016487 0.10081881 0.012224327 0.087696426 0.22863531 -0.09553557 0.013759352 -0.044108864 0.054151975 -0.032471452 0.08201193 0.06976445 -0.05732053 0.058677144 0.109379254 0.08458612 0.020415368 -0.020676602 -0.1804928 0.08283888 -0.061964087 0.019163916 0.07092583 -0.0024669282 -0.3058228 -0.0019756935 -0.102429956 0.06389788 -0.07575109 0.119538836 0.17823407 0.10511585 0.14036556 -0.12835304 0.06862264 0.0836149 -0.018476129 -0.058293875 0.0017024366 0.025855202 0.020783363 -0.25717723 -0.02173171 -0.031673178 0.12247658 0.046769865 0.17996565 0.10600301 0.2084851 -0.05387701 0.18801753 0.055206984 -0.0724395 -0.11225292 0.076589435 -0.1355948 0.081159316 -0.06265928 0.1343596 -0.049312744 0.036786877 0.08959492 -0.09578176 -0.1277726 0.13818851 -0.02005943 -0.1764218 0.022075512 -0.04896864 -0.11747841 -0.028694289 -0.125064 -0.06537582 0.22764201 0.06327707 -0.13135228 0.025606796 0.19307417 0.112444125 0.027235964 0.21462329 -0.13658857 0.14751568 0.0925579 -0.11099633 -0.0755348 -0.07970935 0.04153007 0.12897463 0.05670912 -0.25287804 -0.22439809 -0.0043323594 -0.13189448 -0.13499017 -0.0052291397 0.061184704 0.044870403 0.09596584 -0.043401457 -0.0093359435 -0.15634182 -0.0056332974 -0.080782175 0.02040048 0.0992366 0.044922296 0.032216176 -0.029303998 0.07065401 -0.0033102732 0.13674703 0.11537946 0.10005808 -0.030093089 -0.028431756 0.010066489 0.067129284 0.024980837 -0.20717093 0.00910551 0.10818765
19 0.023657331 -0.08422882 0.048756 -0.07818453 0.08243719 -0.17461672 0.03555828 0.09863856 0.06248521 0.06563026 0.26061404 -0.11592088 0.013181981 0.013694625 0.003719827 -0.006935058 0.114709444 0.06501555 -0.12171516 0.087882064 0.18434565 0.122564144 0.008433775 -0.052583918 -0.155971 0.013653148 -0.10092719 0.06649875 0.042609565 -0.106598616 -0.24454686 -0.036308438 -0.0043089306 0.05404811 -0.069287784 0.17070512 0.1520478 0.031823225 0.10981135 0.0008811648 -0.07327961 0.06479068 0.05990146 -0.16926901 -0.032840133 0.02266767 0.07988148 -0.16494785 0.036758866 0.09131754 0.032037348 0.1564583 0.1607965 0.039344095 0.14698082 -0.03369296 0.19591877 -0.0027820468 -0.044274274 -0.0657293 0.16295631 -0.13343345 -0.009857716 -0.09068963 0.20231906 -0.012104301 0.08419437 0.1335361 -0.14110087 -0.016166309 0.16749722 -0.031568035 -0.13170557 -0.0046177167 0.12537599 -0.21685082 -0.04226669 -0.08891367 -0.050459635 0.23397036 0.114946514 -0.19354025 -0.018666698 0.20127547 0.11160441 0.124585226 0.16864206 -0.17610975 0.08815035 0.11784453 -0.03233741 -0.043047257 -0.031264707 0.06225832 0.13524537 0.13259232 -0.27044797 -0.36319825 -0.10515958 -0.115842044 -0.18059209 -0.024697112 0.030695692 0.014425181 0.09908005 -0.051918123 -0.03299538 -0.12856346 0.0042417743 -0.079153344 -0.036303256 0.10903172 0.11796695 0.043311846 0.06607676 -0.02325802 -0.033423755 0.14122035 0.04324636 -0.0067158663 -0.050496142 0.0125452895 -0.020230202 0.052137725 0.08276303 -0.057382036 0.08883199 0.13745205
12 0.012565813 -0.013881206 0.07404343 -0.15177721 0.07094792 -0.15400563 0.030060012 0.09491401 0.018550789 0.087137334 0.24267209 -0.09828524 0.012724439 -0.041669227 0.06091399 -0.033707064 0.08613359 0.06342859 -0.05687123 0.054478556 0.1152274 0.08828739 0.016129866 -0.011113999 -0.17887218 0.08845281 -0.06445698 0.02379085 0.0784749 -0.004874115 -0.3114952 0.00377528 -0.0880661 0.067532785 -0.07116302 0.1329027 0.18493858 0.10576345 0.14876682 -0.117165096 0.06013888 0.091688424 -0.014187243 -0.067918524 -0.000745594 0.025514403 0.011513656 -0.24262945 -0.011635272 -0.022637865 0.11596626 0.03563859 0.18061633 0.09882857 0.19990742 -0.052929733 0.1728679 0.05398353 -0.078996934 -0.10966639 0.0817374 -0.13671577 0.07127061 -0.06461887 0.13887785 -0.051309098 0.032227807 0.086901575 -0.10115116 -0.13330401 0.1391645 -0.030600492 -0.17265232 0.011359916 -0.042203046 -0.12135214 -0.026809279 -0.12427096 -0.067379795 0.22223254 0.06507074 -0.13880026 0.013489528 0.19643006 0.11258916 0.025416203 0.21178979 -0.14386895 0.14897166 0.09927554 -0.10319908 -0.06450084 -0.06926747 0.045167815 0.13657969 0.055898484 -0.25873798 -0.2340365 -0.00095930166 -0.13431168 -0.13932142 -0.016910622 0.062963836 0.03668671 0.09227599 -0.049864434 -0.013494 -0.1387738 0.005937415 -0.08126147 0.016459372 0.09409086 0.056339514 0.022835653 -0.02612886 0.064192966 -0.008032113 0.14803797 0.106051356 0.09090945 -0.02686479 -0.029024241 0.0006238289 0.071075544 0.0136239 -0.19503143 0.01756718 0.10104753
