34 128
34 0.09249465 -0.08243279 0.114287026 -0.19857432 0.027332792 -0.12033018 -0.030908864 0.12395117 0.032955434 0.025232362 0.21560508 -0.0343956 0.013691001 0.098783284 0.06799738 -0.06418904 0.038288873 -0.0033924286 -0.18644854 -0.08326705 0.24704085 0.060673106 0.037675314 0.028284414 -0.118836895 0.09359684 -0.07554088 -0.0152915 0.09603061 -0.020358387 -0.316905 -0.04475578 0.048779953 0.07201841 -0.07379531 0.06572403 0.15876836 0.06892467 0.15658763 -0.05161436 -0.102210365 0.0016690472 -0.14155851 -0.058281764 0.03238427 -0.028227283 0.01218764 -0.108079344 0.033432964 0.009979123 -0.15791723 0.053698312 0.12422965 0.17319486 0.18890493 0.07857994 0.13997531 0.040115453 -0.13221775 0.023633009 0.05828453 -0.08958888 -0.014880181 0.011881377 0.21346715 0.024317946 0.066677615 0.08626875 -0.14082105 -0.19129695 0.1707875 0.023333801 -0.14291114 -0.09994926 0.03591963 -0.1007167 -0.06266858 -0.10043196 0.048755225 0.10972018 0.015582265 -0.20135728 0.06888481 0.34051776 -0.055116203 0.07809631 0.068744026 -0.19086562 0.11580884 0.048423003 -0.11171888 -0.010420478 -0.008631322 0.08029739 0.15815833 0.053010527 -0.2922346 -0.1963992 -0.023072038 -0.099935 -0.22010943 0.012897433 0.037022907 0.05451808 -0.04314636 -0.054847177 0.020113187 -0.1911349 0.029861242 -0.069883235 -0.07839229 0.007913798 0.036780305 0.0967712 -0.082418695 0.1045985 -0.12700902 0.20343669 0.10750999 0.06563827 -0.029161023 -0.1446143 0.05958133 0.12145383 -0.11216314 -0.08768334 -0.040362414 0.10210322
1 -0.0026884354 0.015184354 0.09114781 -0.08815813 -0.0025984475 -0.14856172 -0.06890615 0.07492238 0.039500702 0.098573685 0.1779083 -0.016680356 0.079728484 -0.11679405 0.08020256 -0.11585338 0.07706633 0.061171655 -0.07917844 -0.12684682 0.02534945 0.12319383 0.044285845 0.055157907 -0.087426536 0.10638237 0.023715567 0.055691935 0.050943192 -0.068198256 -0.23206885 -0.004533357 -0.089504234 0.0473486 -0.15524366 0.08930619 0.21005762 0.112714045 0.2729949 -0.10663138 -0.0030171026 0.009585827 -0.13029233 -0.043730076 0.03959241 0.050851308 0.018099653 -0.11023015 -0.021050833 0.050775755 -0.04738179 0.03181088 0.14681922 0.16340604 0.13275966 0.009529251 0.028200753 0.012603545 -0.11364016 0.0817652 0.07972636 -0.010277522 0.051753756 0.041506156 0.20894787 -0.051646657 -0.020849882 0.018171242 -0.037914507 -0.20766994 0.105508216 0.027495302 -0.10598397 -0.047266528 -0.046646133 -0.092922606 -0.052968662 0.021028157 0.008387925 0.21095137 -0.054545995 -0.0939839 0.02983811 0.18310156 -0.028807173 0.08867889 0.13753909 -0.12775867 0.087032236 0.03194318 -0.13242942 -0.021149 0.0036009667 0.06735908 0.071637884 0.014400104 -0.20433785 -0.22842965 0.04141985 -0.07689537 -0.23104636 -0.053000707 0.08920781 0.10718571 -0.068960145 -0.13744628 -0.019711493 -0.16394332 0.034415778 0.011617054 -0.04571497 -0.010800832 0.07715717 0.17236303 -0.17751049 0.053157654 -0.1356175 0.1558452 0.0790927 0.09756193 -0.07643449 -0.14278005 0.05420555 0.069600075 -0.057175137 -0.22336023 0.021638589 0.03239231
33 0.12119723 -0.11811897 0.09123746 -0.23607986 0.054250784 -0.10814897 -0.0035379184 0.14167784 0.028311893 0.016759478 0.22137007 -0.032671735 -0.0063291416 0.18490584 0.08098506 -0.02465963 0.03862213 -0.022266982 -0.19920042 -0.036889605 0.31464043 0.04215099 0.005507646 0.010141033 -0.11740395 0.05741554 -0.10868418 -0.04824829 0.11654425 0.005131525 -0.31605124 -0.066497155 0.10770577 0.09170293 -0.052192364 0.06658466 0.13693163 0.056065544 0.1146523 -0.019645069 -0.12776618 -0.02113039 -0.10134357 -0.064873345 0.01686787 -0.043291852 0.002821405 -0.10420542 0.059810735 -0.007309931 -0.20938791 0.06665997 0.12684387 0.16809845 0.2120204 0.100206375 0.15861943 0.052559283 -0.120281145 -0.012902684 0.06126354 -0.11640919 -0.05386482 -0.0012242609 0.22318435 0.044956986 0.08751073 0.113895416 -0.19469707 -0.17642649 0.19643782 0.021518603 -0.15000378 -0.10507148 0.067457855 -0.11731325 -0.09705876 -0.14424112 0.059985496 0.09312974 0.047585774 -0.2517033 0.052873652 0.39981705 -0.04576949 0.0755589 0.043715827 -0.21545054 0.13773501 0.049705446 -0.1004899 -0.0144175105 -0.02489174 0.0897632 0.1816578 0.07904725 -0.3111333 -0.17699872 -0.057064928 -0.11086892 -0.19988562 0.034845997 0.012096474 0.014526073 -0.06056942 -0.00796633 0.042862732 -0.18812868 0.023721986 -0.094055235 -0.094973564 0.04313918 0.02859115 0.051090777 -0.042292666 0.10097412 -0.12920646 0.21530801 0.101496115 0.030672858 -0.021668669 -0.12767653 0.03789466 0.14524165 -0.13528202 -0.023980588 -0.026851898 0.1383354
3 0.045248196 -0.040888045 0.10810361 -0.14731777 0.016743973 -0.12958656 -0.06764465 0.08740611 0.03698498 0.05794148 0.19424295 -0.031127887 0.04601743 -0.013906591 0.063625306 -0.09248165 0.03457332 0.022526968 -0.14015636 -0.10070868 0.14369182 0.0840188 0.043751817 0.04690641 -0.11957294 0.10999818 -0.034530718 0.019268619 0.062984645 -0.04190261 -0.27508628 -0.036405563 -0.030369695 0.066701524 -0.099990025 0.073894024 0.17216998 0.085383266 0.22339506 -0.06871159 -0.0525058 0.0058504962 -0.14556886 -0.042449318 0.030846149 0.009708357 0.0399446 -0.115082085 -0.0009073633 0.01323891 -0.08773573 0.036619555 0.1353435 0.16716412 0.15200529 0.051701643 0.093557484 0.026535107 -0.130434 0.058425512 0.07363718 -0.0569655 0.032036565 0.038705952 0.20647542 -0.014858231 0.031656474 0.05444511 -0.072493754 -0.1975426 0.1294976 0.00976806 -0.12543054 -0.07527237 -0.010537768 -0.09967969 -0.054607775 -0.04630422 0.036498055 0.16031054 -0.014443386 -0.14671078 0.06062892 0.25884733 -0.04471745 0.085977346 0.088433 -0.1458903 0.09533876 0.03174115 -0.10942767 -0.008060964 -0.0012164206 0.07709657 0.11177936 0.013904516 -0.24826974 -0.20874143 0.0067788195 -0.09427488 -0.22161315 -0.024061227 0.057281043 0.08080025 -0.06339295 -0.08995594 -0.00011202734 -0.18405277 0.03856175 -0.033645015 -0.06251774 -0.012049734 0.059354752 0.12532693 -0.1249434 0.07584061 -0.1294589 0.17129965 0.09880846 0.07652311 -0.060448773 -0.13232861 0.052866485 0.10582229 -0.09086215 -0.15342315 -0.017587086 0.054815065
2 0.017783342 -0.027664226 0.10040541 -0.116609044 0.0035723916 -0.14035094 -0.07418963 0.07701142 0.027050154 0.07946325 0.18435854 -0.016290598 0.05132903 -0.08034001 0.0814965 -0.12456819 0.06265631 0.049364526 -0.10744424 -0.12853579 0.06624466 0.096073374 0.042096376 0.0631806 -0.10354823 0.11477156 0.005752525 0.038343504 0.054716885 -0.0752721 -0.25634348 -0.021654008 -0.05614477 0.051450234 -0.1353373 0.08800384 0.19071504 0.0932352 0.2529012 -0.09189339 -0.016114647 0.01888506 -0.15895885 -0.036186 0.04640641 0.018181015 0.031536527 -0.11460181 -0.011831212 0.041144468 -0.054804616 0.032671977 0.1544942 0.16760173 0.13812889 0.032992195 0.051861525 0.004964161 -0.11665374 0.093713135 0.09053976 -0.02126669 0.046444137 0.06597528 0.19045915 -0.031737134 0.00066626084 0.03976705 -0.05155036 -0.21295863 0.12814401 0.013902374 -0.10607441 -0.06985472 -0.028823888 -0.08409664 -0.055840183 -0.007341294 0.032028507 0.19426954 -0.044242598 -0.122513115 0.05957391 0.21432975 -0.05176896 0.07908691 0.12566847 -0.1389276 0.09943223 0.029111393 -0.12437879 -0.008094738 0.0073697604 0.06932849 0.09004283 0.019376911 -0.22876497 -0.23386206 0.030716565 -0.08688661 -0.22306693 -0.034256388 0.07251624 0.09353255 -0.05526118 -0.112591214 -0.014223484 -0.17878999 0.049470488 0.002674054 -0.049295872 -0.0057824682 0.075665325 0.16158307 -0.1691564 0.05601342 -0.13701619 0.15901819 0.09855263 0.111612886 -0.06830243 -0.14400095 0.052128226 0.09188311 -0.07475772 -0.2006162 0.002950029 0.036757145
4 -0.009748264 0.018841784 0.11098511 -0.07824917 -0.0041868743 -0.15513304 -0.10488892 0.05731877 0.035703834 0.117788404 0.17777257 -0.031068988 0.081491776 -0.17265515 0.08480975 -0.15897363 0.08512255 0.06939623 -0.090369396 -0.16167569 -0.015166759 0.13715269 0.056718133 0.08019286 -0.11327294 0.13357842 0.036236115 0.06968804 0.025562169 -0.10563207 -0.2508651 0.002138106 -0.12798771 0.049986444 -0.17865936 0.101627775 0.24241757 0.12766774 0.3291544 -0.11503318 0.01459932 0.014432311 -0.17322603 -0.03559772 0.04166321 0.057114456 0.050077487 -0.12825793 -0.049020555 0.06563977 -0.017380556 0.034274817 0.17443301 0.16934775 0.12401618 0.0062716655 0.021266554 0.0006956359 -0.12493022 0.12948447 0.10361576 0.007983787 0.08759598 0.08442288 0.20920146 -0.069547534 -0.03136541 0.0044377083 -0.01649626 -0.23486233 0.10411557 0.028521655 -0.097112454 -0.050960764 -0.060443368 -0.092524 -0.04759781 0.044307444 0.0005471 0.23650852 -0.06607269 -0.07512678 0.045832973 0.14642161 -0.047779307 0.100655325 0.15740158 -0.109592736 0.07458841 0.03190141 -0.14128897 -0.012552916 0.015245927 0.06256772 0.055955317 0.0032705886 -0.2173934 -0.27118474 0.050993804 -0.08660334 -0.23804148 -0.07719533 0.10256813 0.13471918 -0.06320304 -0.1716883 -0.038855024 -0.17510197 0.063277476 0.035983834 -0.05327433 -0.023365127 0.108488575 0.20137759 -0.22658814 0.049585164 -0.1573292 0.15775546 0.09103101 0.13700366 -0.081212744 -0.15853488 0.058234796 0.07947199 -0.041963696 -0.25981122 0.026363535 0.023787236
32 0.08613643 -0.079746924 0.09578882 -0.19625486 0.039359473 -0.12378751 -0.032257672 0.12179727 0.043494187 0.030548519 0.211116 -0.04399431 0.019265288 0.09422999 0.07050121 -0.045099393 0.04424675 -0.007993469 -0.15818861 -0.05335358 0.24081765 0.06483382 0.02342974 0.023181833 -0.11480573 0.082345694 -0.070660345 -0.023222089 0.09975168 -0.015381236 -0.2883658 -0.05255616 0.034295324 0.08242121 -0.06704903 0.076253325 0.15104307 0.076284274 0.15688452 -0.048864122 -0.10022469 -0.015049706 -0.097663954 -0.05718102 0.033818737 -0.01933307 0.013834259 -0.10256521 0.031221379 0.0056191674 -0.17329521 0.05017533 0.13106363 0.17759025 0.1894657 0.06833643 0.12709433 0.051784724 -0.12770836 -0.0018048089 0.059345093 -0.092970446 -0.012409291 -0.0030926908 0.22730546 0.025014007 0.057291217 0.08273875 -0.14126095 -0.17551957 0.16973816 0.0109107625 -0.14626653 -0.08146498 0.028909534 -0.110030964 -0.0873718 -0.09700307 0.04558185 0.13111794 0.014306221 -0.20652327 0.048711594 0.3374041 -0.036731824 0.07592265 0.062324062 -0.18761508 0.11949039 0.03816249 -0.10200428 -0.024591958 -0.020235913 0.08380173 0.15511782 0.054594368 -0.28541863 -0.17797706 -0.033821344 -0.09702717 -0.21929555 0.009496731 0.01840517 0.051223267 -0.057855207 -0.041522805 0.023182308 -0.19011189 0.012534634 -0.077225566 -0.088668905 0.016552228 0.041324947 0.07908186 -0.07356747 0.08776419 -0.12405056 0.1990524 0.09836097 0.040536784 -0.038517695 -0.12789448 0.03686774 0.12536103 -0.109746665 -0.08792112 -0.00960761 0.112865224
24 0.12697175 -0.10782329 0.10388632 -0.24687967 0.046086196 -0.12438498 -0.021021482 0.15456674 0.036362674 0.011447753 0.22596778 -0.032937825 0.0042525725 0.16930817 0.090816006 -0.03431925 0.03764706 -0.02157937 -0.2035461 -0.04173173 0.31068277 0.04620495 0.01607542 0.010496174 -0.11919185 0.074365646 -0.09921511 -0.045377757 0.124879286 0.0037258633 -0.33263087 -0.06304052 0.099589884 0.08902853 -0.047640353 0.06822157 0.13644397 0.06942159 0.105897315 -0.019483596 -0.13262895 -0.024769515 -0.10031083 -0.054304942 0.029582795 -0.042497627 0.0015303493 -0.10529593 0.055584136 -0.0032216143 -0.2214251 0.06885316 0.13194178 0.1862892 0.21050246 0.10524556 0.15905029 0.063390486 -0.12545699 -0.020876365 0.051376514 -0.11526242 -0.04314221 -0.010323034 0.232046 0.052643415 0.086937584 0.10377403 -0.19872394 -0.19141985 0.19837905 0.010206031 -0.15619841 -0.10534796 0.064885184 -0.11451788 -0.102187805 -0.149797 0.063015886 0.092743374 0.040931042 -0.25501996 0.061871137 0.40479043 -0.050938997 0.07672563 0.042810954 -0.21351044 0.14203738 0.04355974 -0.11487749 -0.012302051 -0.011202106 0.10170132 0.17314483 0.092294045 -0.30912843 -0.1668104 -0.043358844 -0.120313495 -0.21788634 0.030587561 0.018571137 0.02616004 -0.063324384 -0.016519269 0.04728326 -0.20163888 0.0057017715 -0.094242 -0.09971388 0.042472184 0.027062021 0.060948163 -0.04368196 0.100259215 -0.12624581 0.20775983 0.10788416 0.036665417 -0.021980977 -0.14215733 0.041901607 0.14200436 -0.13744001 -0.046912275 -0.02320315 0.13604675
14 0.02652999 -0.024760714 0.10150197 -0.12759754 0.018118296 -0.12031818 -0.0676703 0.078862265 0.044711318 0.072033994 0.1785484 -0.019040635 0.052116297 -0.046955973 0.06533774 -0.10231236 0.046424326 0.03696282 -0.12507713 -0.10233262 0.093508564 0.08031104 0.039012738 0.04590065 -0.12013476 0.10872455 -0.015525517 0.029643603 0.05080207 -0.053986646 -0.25229284 -0.023809103 -0.04737901 0.057650376 -0.11683557 0.08539769 0.17492567 0.09008934 0.23766755 -0.08205021 -0.041620478 0.021212405 -0.16037825 -0.049444154 0.040683758 0.013895935 0.041750774 -0.11205532 -0.013475788 0.033535805 -0.06139397 0.045229558 0.14183612 0.1515477 0.13654076 0.044747867 0.07597073 0.02727661 -0.11140824 0.074127935 0.06573697 -0.032940887 0.034071263 0.054317586 0.19379197 -0.01706843 0.019812878 0.043441843 -0.062744774 -0.18918319 0.11620854 0.017439742 -0.10053653 -0.06679644 -0.01225603 -0.09168021 -0.03905567 -0.017464213 0.029186828 0.17025702 -0.021822074 -0.12950087 0.055475038 0.22050615 -0.047452614 0.07254646 0.110358454 -0.1371077 0.08815442 0.026233472 -0.1103106 -0.012690563 -0.0002611881 0.059264272 0.089807875 0.010483735 -0.23078497 -0.22347699 0.02094024 -0.09701893 -0.2200808 -0.035473004 0.061564915 0.0871846 -0.0508346 -0.097070314 -0.015551028 -0.17751683 0.046862986 -0.008304834 -0.05414855 -0.0020825034 0.062293142 0.13981296 -0.14799204 0.060908534 -0.13249879 0.15348601 0.09759529 0.103166245 -0.057874143 -0.13529296 0.06352241 0.09255501 -0.074884884 -0.1621964 -0.0029693353 0.039226443
28 0.09060717 -0.07378057 0.10163198 -0.20665598 0.033264335 -0.12019765 -0.043617 0.11794843 0.04738045 0.038088094 0.22231296 -0.037738673 0.025797125 0.084866576 0.08002807 -0.05867075 0.0289354 0.0053038835 -0.18219024 -0.07159012 0.23940794 0.071627125 0.032414924 0.035500135 -0.13352704 0.1052318 -0.072740786 -0.018907893 0.1022845 -0.0075050155 -0.32347435 -0.05089519 0.03382366 0.08138554 -0.087253354 0.07406278 0.17436771 0.08948365 0.18789238 -0.059314612 -0.10281259 -0.00046846262 -0.12961897 -0.06422388 0.027173322 -0.021109305 0.016546521 -0.12703939 0.027684271 -0.0046359873 -0.14264141 0.04128013 0.13701639 0.18459299 0.18695007 0.086529605 0.1418292 0.042235408 -0.14045566 0.009290652 0.055928983 -0.09390284 -0.014310438 0.007219949 0.22904404 0.02158156 0.06656115 0.07843379 -0.13937263 -0.1982921 0.16593446 0.018567283 -0.1497204 -0.08093128 0.019649003 -0.10499523 -0.07352722 -0.08636478 0.04681721 0.13639402 0.014171973 -0.20464519 0.057970494 0.3326004 -0.05021405 0.07666749 0.070679195 -0.18955657 0.12141818 0.046798047 -0.11673404 -0.011797202 -0.021165632 0.079208255 0.16117105 0.04032644 -0.29816696 -0.19351728 -0.017721316 -0.11381459 -0.22787438 -0.00081991 0.0368021 0.051116552 -0.062333502 -0.0523355 0.024834609 -0.19931954 0.019230166 -0.07215435 -0.0698222 0.015746094 0.041789062 0.10122153 -0.07828051 0.09633845 -0.1451614 0.20084812 0.114247255 0.06775513 -0.035830278 -0.14561756 0.051517356 0.13167292 -0.11526814 -0.11270405 -0.034179416 0.09408025
6 -0.07707381 0.09333781 0.0781018 0.01842677 -0.033351265 -0.21205778 -0.10742275 0.05938126 0.02806495 0.17967448 0.16607521 -0.024639318 0.1423687 -0.3124459 0.14036588 -0.18446064 0.17068183 0.12593944 -0.005324631 -0.18139991 -0.17796573 0.22004186 0.029712345 0.10121918 -0.06826385 0.104534194 0.111800864 0.105994344 -0.009686841 -0.14919773 -0.19794609 0.026577692 -0.2000697 0.02482395 -0.25126025 0.13881524 0.29675797 0.15461428 0.39882782 -0.15814808 0.064310744 -0.0029794194 -0.120280795 -0.01427085 0.04327424 0.12488497 0.007983132 -0.10479467 -0.062183708 0.1324921 0.009166148 0.042285256 0.22464004 0.16936833 0.11067066 -0.05330868 -0.08935545 -0.0015397683 -0.11111076 0.17576261 0.11775728 0.07760746 0.11013738 0.07919259 0.23904616 -0.13484497 -0.11840595 -0.03876047 0.02873615 -0.2577512 0.097227216 0.050507125 -0.09316672 -0.02683976 -0.10244071 -0.10435732 -0.078793615 0.115915544 -0.039492328 0.33146092 -0.110955246 -0.024237711 0.012278081 0.090110034 -0.022032233 0.11844828 0.2227079 -0.08687355 0.06972812 0.01858015 -0.16495502 -0.032555517 0.02255448 0.085459694 0.020222519 0.03572947 -0.17643417 -0.29920667 0.09479961 -0.08398608 -0.26273218 -0.14029667 0.15060636 0.18147068 -0.10099652 -0.23799996 -0.0376803 -0.13389088 0.049787216 0.08435426 -0.037570406 -0.015199719 0.14796382 0.276378 -0.3122313 -0.005329648 -0.16697066 0.1371119 0.04792882 0.15056151 -0.115019485 -0.16949823 0.0543522 0.022916466 0.012771877 -0.3537014 0.120067336 0.017364629
30 0.12073708 -0.11247107 0.105362065 -0.23314066 0.038137894 -0.11961177 -0.024330735 0.14113402 0.045230817 0.015523367 0.22027059 -0.036818624 0.013536711 0.15676902 0.07869234 -0.038751893 0.028644497 -0.013731066 -0.18816866 -0.0540685 0.2932977 0.047762144 0.006658606 0.013013155 -0.118383005 0.06749641 -0.096162245 -0.046056323 0.11773955 0.007852128 -0.31038895 -0.056829803 0.090894245 0.08741679 -0.049806196 0.06931774 0.14064285 0.06818961 0.12052077 -0.0304198 -0.12293531 -0.016797975 -0.10598378 -0.054383654 0.030461311 -0.047354884 0.0053760996 -0.10935391 0.05398129 -0.0020629556 -0.1967265 0.060552273 0.1149473 0.1682703 0.19972877 0.095596895 0.15118091 0.057290304 -0.12685938 -0.011278247 0.054394893 -0.109840654 -0.042952355 -0.008386484 0.2246312 0.04102575 0.072648466 0.09362383 -0.16843455 -0.17974569 0.18542843 0.017340956 -0.153889 -0.09467035 0.05812197 -0.11755004 -0.085764 -0.12722802 0.06433114 0.09818468 0.030174058 -0.23701969 0.06276553 0.37443027 -0.045349468 0.0786373 0.04588709 -0.2078406 0.12982292 0.051387154 -0.107926235 -0.0027328234 -0.022530597 0.092804 0.17099077 0.07777718 -0.29785365 -0.17252044 -0.048963558 -0.104396395 -0.20717557 0.030489348 0.011181234 0.017142639 -0.06750739 -0.014442686 0.029097687 -0.1895501 0.011208452 -0.0787834 -0.08792705 0.033529554 0.028122116 0.07246974 -0.05698507 0.09882063 -0.13085745 0.2010315 0.09975801 0.043385062 -0.023416918 -0.13959855 0.036435418 0.13371347 -0.12563719 -0.042569466 -0.032001123 0.13084525
7 -0.075678 0.09623718 0.06599639 0.037021652 -0.029187476 -0.22164972 -0.12325187 0.06487675 0.029590528 0.19906357 0.15474959 -0.027584955 0.14648275 -0.34289548 0.1432777 -0.19995344 0.18671274 0.13732024 -0.005856942 -0.19689493 -0.1985294 0.22929855 0.041984204 0.115795866 -0.057630662 0.106194094 0.12920482 0.11969824 -0.008722722 -0.16711514 -0.19262862 0.03367266 -0.2067298 0.02997927 -0.28276876 0.13756269 0.30843213 0.15294081 0.42226386 -0.14918219 0.07010074 -0.01202225 -0.12233038 -0.020008706 0.029604146 0.1272843 0.009332594 -0.09170944 -0.07430117 0.14557192 0.003943119 0.03323561 0.23912604 0.18293554 0.0992062 -0.055811156 -0.1046336 -0.02492666 -0.11524232 0.20186792 0.13576744 0.100720555 0.117342584 0.089599386 0.24915321 -0.14997686 -0.12806736 -0.046787657 0.032453187 -0.26964536 0.095357515 0.060460243 -0.084001385 -0.026987683 -0.11112054 -0.117374726 -0.093722045 0.13916196 -0.04908506 0.35252154 -0.13461706 -0.020768266 0.0014471135 0.06380981 -0.026900109 0.13140595 0.23451735 -0.078726254 0.06859139 0.028102243 -0.16455382 -0.03772717 0.031952493 0.08568689 0.006315413 0.031189863 -0.16925612 -0.32484844 0.100569494 -0.07545088 -0.26505184 -0.15239277 0.15058169 0.18146533 -0.11176361 -0.2657332 -0.05153137 -0.13180944 0.058669567 0.108133644 -0.048793606 -0.024981128 0.1698343 0.30191413 -0.33476353 -0.012621902 -0.18499555 0.14530428 0.05216914 0.15121008 -0.13258605 -0.1927986 0.048285928 0.027822783 0.016709903 -0.37284413 0.13159758 0.015643563
9 0.035448354 -0.020308327 0.09075052 -0.122123174 0.01625357 -0.127226 -0.05196359 0.09214028 0.035957236 0.06638911 0.18005003 -0.034134824 0.057645265 -0.037316225 0.08594306 -0.09677416 0.059918556 0.025026482 -0.124523446 -0.10799174 0.09834847 0.09535937 0.029872289 0.04416007 -0.10781665 0.09719131 -0.009030011 0.02691799 0.06848554 -0.04596547 -0.25967222 -0.017423943 -0.04604076 0.05636419 -0.12759107 0.08620454 0.18594953 0.09956131 0.22960384 -0.08666384 -0.037207276 0.0011093682 -0.12707314 -0.040032998 0.03226826 0.015692662 0.018901873 -0.114745654 0.00481204 0.030860541 -0.07555466 0.03297298 0.14085051 0.1535133 0.14663732 0.032505333 0.07214133 0.024745755 -0.11938647 0.055397607 0.065317914 -0.03832951 0.024999782 0.030445263 0.20321646 -0.023861784 0.011108558 0.041352928 -0.07582497 -0.19542465 0.13050324 0.028743532 -0.12253942 -0.059706826 -0.00910565 -0.0943617 -0.051599417 -0.032787688 0.028995724 0.17177887 -0.020050189 -0.13674356 0.04355855 0.22910129 -0.0385519 0.07954253 0.108195014 -0.13496377 0.09832967 0.027224652 -0.108673565 -0.015451618 0.00366243 0.07281412 0.09761169 0.031024823 -0.23498556 -0.21360964 0.008203947 -0.088656604 -0.2091591 -0.031569492 0.06500623 0.08915515 -0.052496366 -0.1054297 -0.00073656184 -0.17420104 0.03832729 -0.008597613 -0.05148526 0.001955831 0.068757564 0.13955066 -0.13550323 0.07032927 -0.13257898 0.16766433 0.09244576 0.08344504 -0.04881885 -0.13041206 0.058454577 0.09161431 -0.06552815 -0.16039208 0.007835398 0.057908546
8 0.03751511 -0.027840242 0.10532761 -0.12535079 0.0126084015 -0.13786323 -0.06099455 0.082809545 0.048112337 0.06519298 0.18604285 -0.024839098 0.06238536 -0.048553262 0.08193927 -0.09507975 0.05137581 0.033636276 -0.12741819 -0.11184806 0.10706334 0.10621469 0.044213958 0.04988388 -0.11001406 0.11564469 -0.0052645993 0.03478288 0.06940728 -0.059838273 -0.271344 -0.029136075 -0.03883012 0.057362705 -0.13284083 0.090567715 0.195251 0.095641054 0.2478513 -0.08574595 -0.04313925 0.009356061 -0.14216262 -0.049326748 0.039292503 0.026175428 0.033787355 -0.12363982 -0.0068942294 0.02759147 -0.07219775 0.04553007 0.14276926 0.16984928 0.1439865 0.040149536 0.07849077 0.021394597 -0.1266215 0.058787316 0.072296605 -0.039535016 0.036531962 0.049809296 0.20471197 -0.021601621 0.021667773 0.04431487 -0.06853892 -0.19145113 0.13404173 0.026664935 -0.122290134 -0.055979017 -0.011535334 -0.08721512 -0.05869203 -0.018490946 0.03126365 0.17584997 -0.020121297 -0.13187288 0.056826465 0.23076001 -0.042435613 0.08661691 0.10244805 -0.15158549 0.08996347 0.030115206 -0.12190525 -0.009138075 0.0048720916 0.07078263 0.10144794 0.023526456 -0.24083567 -0.22769848 0.023252182 -0.09692699 -0.22249363 -0.02697703 0.07002985 0.090892665 -0.058077086 -0.10544264 -0.002822474 -0.17971987 0.043190546 -0.011423261 -0.05472856 0.002643177 0.059940122 0.15144505 -0.13863744 0.06376764 -0.13679798 0.16408119 0.096559286 0.09561798 -0.054670654 -0.139908 0.059215914 0.09811794 -0.070404075 -0.18310352 -0.003012383 0.049631298
25 0.10527192 -0.087758064 0.09153692 -0.2331027 0.037053507 -0.10269013 -0.0221606 0.117241785 0.04561432 0.022226505 0.21618447 -0.0467493 0.013333828 0.14558154 0.054032717 -0.020371873 0.015962308 -0.027327746 -0.19310029 -0.054266192 0.29985812 0.056090828 0.032871664 0.02629122 -0.1259172 0.088940315 -0.099367335 -0.046444606 0.12608631 0.010461243 -0.3333352 -0.063228495 0.05402205 0.080929704 -0.050870348 0.07435883 0.14662224 0.077691294 0.14707886 -0.045810826 -0.11888831 -0.020717837 -0.11764397 -0.0673087 0.029025786 -0.025562586 0.0031803348 -0.12508692 0.039063267 -0.020549547 -0.1844243 0.05199442 0.12074868 0.17051175 0.19114237 0.092008695 0.16719642 0.066119015 -0.13648087 -0.027649526 0.040432103 -0.11389547 -0.02774688 -0.008147046 0.23089951 0.035690278 0.08630085 0.08945077 -0.15986277 -0.18309094 0.17128493 0.012755661 -0.16482478 -0.082057856 0.031194849 -0.11623944 -0.08870949 -0.116367504 0.0601935 0.11155347 0.03755964 -0.22574267 0.054838877 0.38206694 -0.032810234 0.07694347 0.037698865 -0.20198147 0.13137403 0.040007748 -0.10106796 -0.020010687 -0.018248541 0.089082345 0.17089088 0.043218765 -0.3031938 -0.15859523 -0.047540877 -0.10828306 -0.21415773 0.029800769 0.003120915 0.045552462 -0.052404344 -0.029769178 0.03972524 -0.20389272 0.007515275 -0.10295982 -0.083236374 0.010566779 0.024017397 0.05926422 -0.04698601 0.1088118 -0.11975086 0.21711314 0.11220209 0.04041338 -0.021608587 -0.12877594 0.03594512 0.14707053 -0.13395621 -0.06893453 -0.05125096 0.10715995
20 0.033275582 -0.01432304 0.10425906 -0.12612064 0.011470745 -0.14511576 -0.07278066 0.09392962 0.03744645 0.08168651 0.17747392 -0.031119885 0.058541387 -0.054621488 0.096793585 -0.11677642 0.06301891 0.04754851 -0.11661247 -0.11880991 0.08450498 0.1032708 0.038260918 0.056648146 -0.1131485 0.10294868 0.005323715 0.04216478 0.054641802 -0.061606217 -0.2622816 -0.023518872 -0.05246659 0.058487397 -0.13969266 0.08515583 0.18849471 0.10688088 0.2484978 -0.08660051 -0.037523944 0.009038422 -0.14521919 -0.036043964 0.035248484 0.032596927 0.034656 -0.11100316 -0.011119892 0.041889887 -0.08431468 0.039961766 0.15514402 0.16712838 0.15017915 0.03949135 0.0493085 0.02538172 -0.12177605 0.077353396 0.07948057 -0.018183954 0.040859897 0.05134356 0.21513212 -0.03179267 -0.0066018044 0.030326359 -0.063431725 -0.21174467 0.12804472 0.030263579 -0.11212775 -0.06811786 -0.021047309 -0.093236975 -0.06296305 -0.010247039 0.016174773 0.18729992 -0.025535151 -0.12481487 0.049317386 0.2129269 -0.0411623 0.07857879 0.12034944 -0.1477714 0.090802506 0.022480344 -0.123600945 -0.016848333 0.0050266706 0.07421706 0.09092711 0.031015165 -0.23830087 -0.23358072 0.023681248 -0.09701568 -0.22920398 -0.044464614 0.07819259 0.09693321 -0.07673955 -0.11301454 -0.014384213 -0.17468163 0.041835606 -8.077969e-05 -0.067101486 -0.0068914224 0.07367934 0.16074559 -0.16876021 0.06355535 -0.138152 0.16390055 0.096365206 0.10071443 -0.06523399 -0.14192045 0.054426376 0.09509192 -0.06738097 -0.18748023 0.016724555 0.05001911
11 -0.07011121 0.095785595 0.073036216 0.027218597 -0.03807496 -0.21393824 -0.10213453 0.06400438 0.02018124 0.18015553 0.16076648 -0.02190321 0.1302627 -0.29785654 0.15032816 -0.18726599 0.17328915 0.11742821 -0.010724192 -0.18880308 -0.1841938 0.22478469 0.025705803 0.10306681 -0.05190235 0.101078235 0.12227984 0.11767679 -0.007883283 -0.15414563 -0.18265267 0.025768494 -0.19019501 0.017916491 -0.26030844 0.12246763 0.28674594 0.14677167 0.38610157 -0.13804057 0.055051036 -0.0128712235 -0.09820608 -0.014889579 0.034101136 0.122341126 -0.0034586778 -0.077242225 -0.05468184 0.14142816 -0.0131588485 0.042313818 0.22443675 0.16919343 0.10028779 -0.049619865 -0.09697625 -0.019169042 -0.10500667 0.18622734 0.12994689 0.08136324 0.09003663 0.07971878 0.24527359 -0.13477547 -0.12755363 -0.042470995 0.012647256 -0.2580346 0.099562846 0.055171385 -0.087652706 -0.034510225 -0.08893577 -0.11026085 -0.09485796 0.12518713 -0.038279764 0.32840544 -0.12117954 -0.033206955 0.0013292708 0.07902853 -0.037320923 0.1180113 0.21739584 -0.07999264 0.07224997 0.02395282 -0.1647893 -0.032459356 0.027129265 0.08851136 0.0067571755 0.04077959 -0.16422036 -0.30078116 0.08204164 -0.06884105 -0.2580628 -0.13799357 0.14723058 0.18016218 -0.11108519 -0.23991156 -0.031115107 -0.13256334 0.04403625 0.09814294 -0.040380783 -0.016312968 0.1584364 0.27729905 -0.30356723 -0.004607376 -0.18233809 0.1422383 0.04682568 0.12588748 -0.11793393 -0.17322388 0.048986256 0.033282846 0.008998539 -0.34840426 0.12995547 0.014137653
5 -0.08653133 0.09737811 0.06620927 0.02165877 -0.031985126 -0.21489796 -0.12001475 0.05961762 0.028084323 0.18950868 0.16589019 -0.014923879 0.15057227 -0.32772776 0.15241691 -0.19002947 0.1825187 0.12349561 -0.0007903642 -0.20606412 -0.20117208 0.23115355 0.02824484 0.10849364 -0.055099998 0.10782649 0.13741343 0.11692926 -0.021076826 -0.1619683 -0.19123542 0.014656694 -0.19538864 0.02942447 -0.27451435 0.14580958 0.3032758 0.15934165 0.41155288 -0.16629252 0.06555619 -0.01867334 -0.1294209 -0.013884372 0.039549462 0.12556139 0.016599242 -0.09271846 -0.06285381 0.14266424 0.000110945344 0.049088247 0.22741061 0.1760149 0.10769954 -0.06137724 -0.096244134 -0.00841168 -0.108944826 0.19549382 0.11979859 0.093716614 0.11207875 0.071117215 0.25087142 -0.12638725 -0.1276692 -0.043635305 0.019553985 -0.26744995 0.10340203 0.050683696 -0.07778744 -0.02547204 -0.10486171 -0.10465688 -0.08642518 0.1230491 -0.03834889 0.3337059 -0.12223337 -0.020837398 -0.0048695174 0.08181855 -0.03892259 0.1273508 0.2253606 -0.09093877 0.05895805 0.009712983 -0.17045873 -0.022591624 0.044653475 0.08628602 0.0037198076 0.042839043 -0.17171471 -0.30769226 0.09866399 -0.08330969 -0.271365 -0.15207611 0.15766501 0.18911852 -0.11047558 -0.2578464 -0.046555977 -0.13151045 0.04922865 0.1027176 -0.04823957 -0.016256833 0.152713 0.2920048 -0.32975933 -0.0075240405 -0.18421449 0.13516137 0.039521016 0.1493531 -0.12745073 -0.18352085 0.057908844 0.017420284 0.013697509 -0.36527905 0.1343824 0.020416915
26 0.10616299 -0.084729075 0.098207675 -0.22407629 0.0470413 -0.11288012 -0.011457897 0.12807967 0.04039941 0.007675071 0.21769261 -0.04099982 0.02076891 0.14177126 0.07353127 -0.027783914 0.027381245 -0.023621209 -0.17854542 -0.03967662 0.2845821 0.045370393 0.026420156 0.02025138 -0.10692685 0.084962994 -0.0855781 -0.030429112 0.12359802 0.01224021 -0.3042135 -0.054355603 0.068481624 0.07940602 -0.05499917 0.053055074 0.12723407 0.07285376 0.11703359 -0.042826492 -0.115126714 -0.012170206 -0.10318767 -0.057680767 0.02890254 -0.03005479 0.0049245805 -0.10829326 0.058019076 -0.011024244 -0.18088631 0.05539969 0.11217763 0.16750537 0.18298692 0.09354603 0.15636899 0.06477899 -0.12644883 -0.026814705 0.039130572 -0.1061245 -0.0321802 -0.019726302 0.22363985 0.035387155 0.08721223 0.081324376 -0.1466788 -0.16068052 0.16731489 0.0106337005 -0.15157683 -0.08849644 0.042040974 -0.09957892 -0.072176546 -0.11574553 0.049079373 0.099450186 0.035463553 -0.217525 0.04930904 0.36112413 -0.031202996 0.075595364 0.028614054 -0.20017502 0.112303555 0.03756163 -0.105218455 -0.022020513 -0.021601725 0.08532601 0.15597668 0.050964616 -0.2821661 -0.14840175 -0.038125135 -0.10316609 -0.2081929 0.01925534 0.012416614 0.040437475 -0.0464215 -0.022027351 0.03751012 -0.19694728 0.00967616 -0.095230214 -0.07119352 0.01935062 0.017364504 0.052722603 -0.039149977 0.09518433 -0.11939565 0.18807265 0.10018436 0.031585697 -0.026740529 -0.122386515 0.046994396 0.1261291 -0.12761353 -0.053983033 -0.049036954 0.10512479
31 0.07234135 -0.061687957 0.10685796 -0.16851233 0.034739137 -0.12974629 -0.04369482 0.1040014 0.03021674 0.054488197 0.20099676 -0.037048984 0.032384604 0.023436345 0.09110642 -0.088681385 0.048711404 0.02192421 -0.15148987 -0.090538025 0.17617758 0.09124901 0.02746493 0.044722375 -0.12269091 0.097146325 -0.035027903 0.014763615 0.07587428 -0.036676027 -0.29679236 -0.04256254 0.014398947 0.07042474 -0.10959044 0.07263362 0.1698402 0.0957213 0.20111966 -0.0608494 -0.07484814 -0.0075691035 -0.14438625 -0.04180068 0.039570216 0.00043718884 0.031793587 -0.113081284 0.005297908 0.032538652 -0.1331375 0.058318075 0.15167965 0.17269847 0.16459607 0.05958369 0.1049463 0.029122086 -0.123191245 0.0426934 0.07937667 -0.06341088 0.01755375 0.027774604 0.2114995 -0.0083883125 0.028560348 0.06771991 -0.11751698 -0.19843246 0.1623184 0.024501832 -0.12583369 -0.07391811 0.009232992 -0.10109727 -0.082719356 -0.06388878 0.038658462 0.15680645 0.00070910103 -0.1805858 0.050423242 0.29506695 -0.052100237 0.08213594 0.10002624 -0.17823419 0.12105775 0.038410068 -0.1193615 -0.009257164 -0.0013964842 0.08360497 0.12210969 0.053519867 -0.26952174 -0.21829124 -0.012437722 -0.11167377 -0.22411591 -0.020751212 0.050707154 0.06478592 -0.07559959 -0.07779612 0.011951192 -0.18704352 0.029298035 -0.030556303 -0.07689243 0.0096112145 0.057475507 0.12358066 -0.12875664 0.06986905 -0.13210522 0.18774763 0.09748 0.08556662 -0.050527498 -0.14149329 0.048795983 0.12257703 -0.09678823 -0.13929135 -0.008558917 0.09316948
29 0.07140327 -0.05959799 0.10316826 -0.17795694 0.026961861 -0.13094455 -0.04668155 0.10207157 0.03980141 0.04942346 0.1999558 -0.03142488 0.03222149 0.05193665 0.07581014 -0.06301765 0.057835616 0.01165213 -0.14352731 -0.079962775 0.19537856 0.07820718 0.03158614 0.02803479 -0.1120967 0.08775946 -0.055610377 -0.013631529 0.09015899 -0.03456906 -0.2852489 -0.034624998 0.009455302 0.07942145 -0.09226094 0.082072236 0.16326973 0.077786446 0.1778224 -0.059288546 -0.08160929 -0.009565296 -0.11480165 -0.056794368 0.025359033 -0.0091316765 0.011935702 -0.11657616 0.016337045 0.022913406 -0.13119374 0.043772142 0.13161983 0.16569933 0.16276488 0.058426276 0.09890066 0.044391878 -0.12779786 0.027552832 0.06651047 -0.06262056 -0.0013402653 0.011769312 0.21678817 -0.0017357891 0.043631986 0.06858065 -0.11048992 -0.18679096 0.15345496 0.024234371 -0.13680185 -0.08433563 0.01640595 -0.103882544 -0.08179341 -0.07392374 0.02904168 0.14196208 0.004169879 -0.18080369 0.0534443 0.30089307 -0.03359247 0.07225944 0.07288262 -0.1789634 0.1029099 0.033505753 -0.110987596 -0.022561373 -0.013040659 0.07838611 0.13637555 0.048380204 -0.25800604 -0.1994099 -0.015561774 -0.10209489 -0.20625478 -0.0060532414 0.039882362 0.060384914 -0.05958227 -0.07251634 0.01673897 -0.1732357 0.03226084 -0.047947157 -0.08284451 0.008981764 0.056155123 0.10311399 -0.109806396 0.07959349 -0.13027702 0.18879361 0.09996525 0.060865805 -0.040729232 -0.13054667 0.03998226 0.111097276 -0.09159266 -0.105264075 -0.015784724 0.09478805
27 0.11934658 -0.10437602 0.09964301 -0.22192462 0.054578874 -0.10296324 -0.022569882 0.13235219 0.040793482 0.015857395 0.20458831 -0.03274624 0.008815977 0.138892 0.084383175 -0.037982143 0.040027514 -0.024490211 -0.19597636 -0.05385464 0.27585688 0.047166545 0.011054332 0.0183591 -0.13420412 0.08875151 -0.08520645 -0.043330435 0.10806723 -4.4367658e-05 -0.31357294 -0.0645559 0.07517948 0.09643468 -0.069473185 0.06568054 0.13201676 0.06357307 0.13869768 -0.034039248 -0.11847638 -0.016653454 -0.12750775 -0.0503577 0.030155644 -0.04915084 0.017537441 -0.1067142 0.028656237 -0.013538401 -0.18465514 0.049121305 0.13125972 0.1727278 0.18724291 0.08403133 0.15306126 0.053152695 -0.12243844 -0.0076879794 0.052952122 -0.10003283 -0.03670605 0.014664058 0.20975628 0.031014083 0.06792452 0.09955177 -0.17243353 -0.18457243 0.18041322 0.015949987 -0.14073205 -0.09592512 0.04949854 -0.10046122 -0.08799398 -0.12491816 0.05288341 0.09106245 0.023515612 -0.22967184 0.06462546 0.35603327 -0.05729973 0.06373743 0.042509586 -0.19319783 0.13134427 0.045522694 -0.10481091 -0.010767761 -0.021915568 0.082832694 0.1527565 0.05885912 -0.28078368 -0.16541629 -0.03470178 -0.11509285 -0.18832111 0.009639328 0.007433315 0.018103711 -0.06225932 -0.023323834 0.024722675 -0.18180412 0.034681484 -0.06690237 -0.087806374 0.037376128 0.037095584 0.0696337 -0.06773791 0.10209398 -0.13833483 0.19508283 0.1139772 0.04689901 -0.022078604 -0.14162007 0.046919566 0.14819618 -0.13352379 -0.058577534 -0.024451358 0.11753525
18 0.022468831 -0.010692402 0.09768373 -0.11089999 0.008436897 -0.1497716 -0.07340088 0.08351272 0.03592095 0.09390028 0.1871429 -0.034073047 0.073003806 -0.080408856 0.095541865 -0.11867409 0.06963021 0.040861536 -0.11093951 -0.11871912 0.069519185 0.11319826 0.040608294 0.061668966 -0.123274006 0.12402192 0.0066258637 0.05001031 0.04716684 -0.072789244 -0.2759431 -0.025781926 -0.06638772 0.06395865 -0.15007626 0.098539285 0.20537423 0.111170165 0.27139235 -0.09882772 -0.028411215 0.01829211 -0.16339566 -0.036566693 0.044565946 0.033366524 0.03594449 -0.11615229 -0.01899673 0.04975829 -0.057560947 0.043451317 0.16255513 0.16096042 0.13574016 0.029790109 0.057455424 0.02367528 -0.12219437 0.08978908 0.07425372 -0.021987893 0.056371804 0.05323176 0.21671619 -0.03511635 -0.003937773 0.023347558 -0.054858916 -0.22353368 0.12448709 0.016660849 -0.113823935 -0.066006124 -0.026548022 -0.099702716 -0.048189532 -0.013299691 0.015477003 0.20155975 -0.038723044 -0.12025833 0.044419006 0.21541514 -0.05035987 0.07906254 0.13487917 -0.14060989 0.09941121 0.024318451 -0.12622581 -0.021895586 0.013461212 0.0759846 0.08313974 0.026371105 -0.2439862 -0.24751385 0.03056246 -0.09498489 -0.24251087 -0.05816706 0.08784932 0.10651693 -0.06435712 -0.12609987 -0.018807687 -0.1781716 0.047152486 0.010557706 -0.06272097 -0.0067114476 0.081359476 0.15906149 -0.18363005 0.06794544 -0.13541208 0.16136926 0.09894294 0.110014714 -0.07244675 -0.15127729 0.054212976 0.09535789 -0.06584052 -0.21229854 0.009888097 0.04342997
13 0.013321507 -0.00030982564 0.10479442 -0.094307214 -0.00038897299 -0.14546214 -0.07684734 0.07345511 0.030971669 0.09446153 0.17585847 -0.02324932 0.064752765 -0.11772919 0.09291723 -0.12517814 0.08165596 0.0527164 -0.094165735 -0.12617376 0.037450057 0.122086145 0.048560493 0.068706036 -0.10653398 0.10985086 0.0134032 0.047049873 0.039982792 -0.08791542 -0.23661458 -0.012492215 -0.08202888 0.043740723 -0.16027835 0.08549932 0.21441135 0.1052343 0.27891478 -0.10252405 -0.0025966545 0.01219044 -0.1439451 -0.038374074 0.03944303 0.041514695 0.038409773 -0.10699657 -0.023479981 0.055898223 -0.0443021 0.033935953 0.16605893 0.16044863 0.12324648 0.02449838 0.03381946 0.019956391 -0.11516642 0.10029693 0.08655907 -0.010474829 0.053487007 0.0639822 0.205383 -0.054327954 -0.01596609 0.019067595 -0.038243942 -0.21424262 0.121153235 0.025561862 -0.096698694 -0.050304487 -0.04282504 -0.08867118 -0.059232406 0.0061590234 0.018977204 0.21616831 -0.038547024 -0.10586493 0.03580691 0.18999209 -0.0461197 0.096852876 0.13566653 -0.121522725 0.089232825 0.027868316 -0.12934677 -0.0131341405 0.018086387 0.06523521 0.07056597 0.017353348 -0.21222582 -0.23297326 0.03361017 -0.085578665 -0.23114811 -0.054522544 0.090404056 0.11253632 -0.06969451 -0.13802543 -0.011898427 -0.15879083 0.048865493 0.01055813 -0.052861076 -0.015360051 0.07906673 0.17424917 -0.18864478 0.04055548 -0.13164043 0.15924633 0.09008181 0.109452575 -0.08119664 -0.15030798 0.054431446 0.06953773 -0.060281467 -0.21438253 0.021939632 0.028428497
21 0.07697936 -0.07046978 0.09014705 -0.17031054 0.029653022 -0.12834707 -0.04604777 0.118309096 0.0424255 0.04409251 0.20648272 -0.025173087 0.0278116 0.045147367 0.09051419 -0.06690325 0.052175466 0.0065586832 -0.14612544 -0.0886775 0.176639 0.0781415 0.025191411 0.030590264 -0.10534605 0.08358034 -0.042981017 0.0019805834 0.08310827 -0.026247201 -0.27855286 -0.048139594 0.028839018 0.06704789 -0.09076567 0.071172014 0.15464775 0.07238158 0.18213692 -0.054133657 -0.07691499 -0.017180422 -0.12117796 -0.05161745 0.03688768 -0.01537585 0.019746726 -0.10168998 0.020203646 0.028409133 -0.14305773 0.0456747 0.13895923 0.1733818 0.17659208 0.058512226 0.1011858 0.03959269 -0.123969086 0.041176613 0.063234486 -0.06302414 0.0008862802 0.027151559 0.20997764 0.005954787 0.04098594 0.0742803 -0.12914707 -0.18645479 0.16189127 0.021162027 -0.12125378 -0.08315945 0.019460142 -0.108597785 -0.08174576 -0.070042804 0.036342178 0.13673484 0.004756423 -0.18447065 0.045345772 0.3009738 -0.03913652 0.08357166 0.08057527 -0.17041385 0.110298365 0.043634396 -0.11736928 -0.012090925 -0.0034542517 0.08034543 0.12956566 0.057414774 -0.25108287 -0.19443381 -0.0047579226 -0.102096386 -0.20471238 -0.012885065 0.037986986 0.0570938 -0.06958676 -0.06900897 0.01543208 -0.16661368 0.02425715 -0.0475872 -0.07711761 0.023300236 0.046584297 0.11924377 -0.107919075 0.07804655 -0.13509238 0.17620336 0.0957296 0.07032878 -0.048915617 -0.13912117 0.04693251 0.11707147 -0.09009481 -0.11655971 0.003291743 0.08679378
17 -0.059310988 0.08328871 0.085111044 -0.010685883 -0.026796956 -0.21326846 -0.10774016 0.071995854 0.022029165 0.17369737 0.17292576 -0.026068866 0.11857153 -0.27653715 0.13591129 -0.17508665 0.16446258 0.11314254 -0.022512838 -0.17572996 -0.15066129 0.2010381 0.030183634 0.104975514 -0.07091905 0.09764472 0.107134335 0.10530659 -0.008270996 -0.14487122 -0.19730483 0.01374558 -0.1797319 0.027374584 -0.24433015 0.12926199 0.27405763 0.14237002 0.37040615 -0.14209439 0.05024941 -0.006851441 -0.114039354 -0.018454494 0.028331911 0.106894165 0.021648124 -0.09689102 -0.060543995 0.11990988 -0.005210532 0.03859648 0.22109914 0.16494787 0.11864068 -0.048512217 -0.06295503 -0.006882485 -0.109387375 0.16517267 0.1251491 0.0750357 0.090390906 0.06575455 0.24292454 -0.12329635 -0.11370588 -0.027967466 0.005284473 -0.25779814 0.11172322 0.04785174 -0.09105177 -0.038723387 -0.09173222 -0.10872123 -0.08787216 0.09672964 -0.037970927 0.31601372 -0.10142876 -0.044018563 0.0136832595 0.092496105 -0.02771596 0.12079945 0.20546596 -0.100867435 0.06837962 0.02473852 -0.16087368 -0.026080642 0.034128923 0.08673918 0.018160883 0.03975924 -0.18253176 -0.2999272 0.08729153 -0.08746381 -0.25723603 -0.12773883 0.13029318 0.16555822 -0.09775474 -0.22960354 -0.04342206 -0.13450028 0.045892086 0.07566196 -0.047496304 -0.016754622 0.14808998 0.26314893 -0.28499955 -0.0035671815 -0.1673089 0.14695944 0.055228118 0.13154192 -0.11162959 -0.17200215 0.044079848 0.031800114 7.412303e-05 -0.33012733 0.11530136 0.021502936
15 0.07805119 -0.059502576 0.103426434 -0.18183897 0.031280536 -0.12663166 -0.039037593 0.11381585 0.03168764 0.056510326 0.19870661 -0.030196626 0.029435357 0.05583208 0.09319118 -0.07143972 0.05967142 0.011814389 -0.15273704 -0.07652756 0.19032179 0.08015183 0.017729502 0.043003242 -0.116452284 0.08976739 -0.050044715 0.0014195404 0.09168888 -0.028422426 -0.29007423 -0.03708423 0.02205954 0.078631945 -0.09718389 0.07442349 0.16989318 0.07944511 0.18126673 -0.050267056 -0.08915957 -0.012054819 -0.12451876 -0.046107687 0.034605075 -0.01248428 0.018942256 -0.106598385 0.01457307 0.017420042 -0.14359604 0.048803084 0.13990004 0.16574556 0.17766677 0.07214235 0.10415384 0.042058058 -0.12382571 0.03247984 0.06065562 -0.06636383 -0.0014724873 0.025513573 0.22578536 0.0070040114 0.042493902 0.062979385 -0.12698252 -0.20128047 0.1654686 0.03023051 -0.13640273 -0.08140985 0.02396085 -0.104372546 -0.07667798 -0.07876901 0.04562018 0.13708438 -0.0011023721 -0.18874139 0.04614457 0.30284694 -0.054421406 0.0818523 0.079044744 -0.17800903 0.11744368 0.04130787 -0.11311013 -0.015058572 0.0003870476 0.082862064 0.13714957 0.060086336 -0.2763821 -0.2074288 -0.0054388614 -0.10124758 -0.2168678 -0.0075940294 0.04117241 0.055387367 -0.07253961 -0.06262099 0.012687507 -0.18508443 0.02565045 -0.039485723 -0.077660985 0.011327222 0.052933697 0.11174159 -0.111331046 0.07998564 -0.13400432 0.18913737 0.095127635 0.0690235 -0.038825303 -0.14857851 0.04413802 0.12123862 -0.10653812 -0.11461828 -0.0145764 0.099061385
16 0.08284842 -0.081819154 0.095108196 -0.19067201 0.0412265 -0.11432613 -0.03433418 0.12331361 0.039540894 0.039829046 0.1981311 -0.030743327 0.026159843 0.09098634 0.081813894 -0.066117324 0.056801707 0.010543814 -0.17363504 -0.074728645 0.21615325 0.07729021 0.026691752 0.02884917 -0.111146905 0.08725859 -0.057421662 -0.021604558 0.094942085 -0.02336011 -0.3007455 -0.045640476 0.042889755 0.08879537 -0.086736746 0.07637726 0.1571432 0.06874125 0.15814096 -0.04351294 -0.10100603 -0.012560509 -0.11776619 -0.057072602 0.026651997 -0.024233839 0.007551415 -0.105705835 0.036107484 0.008550467 -0.16574444 0.06334441 0.14354768 0.17861338 0.17585714 0.07667155 0.11365894 0.048942916 -0.117607445 0.019840715 0.06857005 -0.08408266 -0.010990651 0.0179928 0.22540765 0.021643914 0.048096035 0.08230487 -0.14926903 -0.19707929 0.17359698 0.015022061 -0.13673042 -0.08741772 0.039392754 -0.11373175 -0.08474449 -0.09632254 0.040819433 0.12633206 0.015204083 -0.20555837 0.051841345 0.33557767 -0.050929066 0.07700582 0.07745329 -0.18570371 0.118651524 0.04847667 -0.10591585 -0.009929192 -0.0058833617 0.08386695 0.15039507 0.06793954 -0.28311482 -0.19927047 -0.022257246 -0.11188564 -0.20878966 -0.007085132 0.033661302 0.050458997 -0.06365371 -0.050543252 0.012296115 -0.17907931 0.030848455 -0.05097936 -0.07771354 0.025145205 0.052032858 0.106446706 -0.095719345 0.08575074 -0.13346939 0.18584122 0.102192566 0.055237237 -0.04011873 -0.1429189 0.052443832 0.12556559 -0.10874932 -0.09557824 -0.012978662 0.106475905
19 0.093361564 -0.09215057 0.10749068 -0.2049001 0.039699994 -0.11712801 -0.03547254 0.1262017 0.033482175 0.0390985 0.22221701 -0.03683378 0.02185633 0.10742688 0.079467654 -0.06703587 0.035296053 0.0019754625 -0.18843508 -0.07421125 0.2523665 0.057246465 0.016623944 0.027840154 -0.13364053 0.083915174 -0.08034677 -0.01890717 0.10147437 -0.017855508 -0.3191148 -0.04304454 0.057746995 0.07927592 -0.07462626 0.06829168 0.16064589 0.07832642 0.16782075 -0.048199855 -0.10314288 -0.005930886 -0.13970649 -0.06136958 0.025540354 -0.025085697 0.01660584 -0.12068941 0.036850806 0.007033704 -0.16364394 0.059461497 0.13472106 0.18587068 0.1868024 0.0812385 0.12823664 0.044662714 -0.13576771 0.026123412 0.07008804 -0.096866034 -0.013092498 0.025007123 0.21775258 0.028450288 0.056098346 0.09599545 -0.15023123 -0.19934788 0.17011726 0.0191367 -0.1432037 -0.09449017 0.04682214 -0.1118322 -0.08646364 -0.11062203 0.051852804 0.123716734 0.017044839 -0.21780437 0.068661004 0.34585196 -0.049388338 0.08087448 0.06632377 -0.1954186 0.12101817 0.040140886 -0.11633204 -0.004436815 -0.012200461 0.09237317 0.1540739 0.056753587 -0.29257327 -0.20109013 -0.025956314 -0.11266509 -0.22399476 0.01094366 0.028791433 0.0377814 -0.06923742 -0.04114273 0.023796994 -0.19025178 0.038921818 -0.06671465 -0.081370264 0.02675981 0.051175732 0.09668774 -0.08184117 0.09315801 -0.1355309 0.20979907 0.111009695 0.06833866 -0.029556867 -0.14553478 0.05818821 0.13798472 -0.12029898 -0.08593848 -0.017554987 0.10553429
23 0.11297303 -0.10223496 0.1072189 -0.22552855 0.041229796 -0.11914409 -0.020293903 0.13261655 0.039955616 0.021013224 0.22397733 -0.032155916 0.014182583 0.1342049 0.08692369 -0.0468433 0.037307423 -0.0087087685 -0.19122969 -0.05571756 0.26989916 0.051577307 0.015043292 0.018542822 -0.12271389 0.06716996 -0.08182472 -0.026128668 0.09938977 0.0023950147 -0.3040224 -0.062287506 0.080981486 0.08531949 -0.06495738 0.06199513 0.13678731 0.065894864 0.1268976 -0.026226914 -0.117060944 -0.02113747 -0.10503563 -0.057683326 0.024696108 -0.04239964 0.01613462 -0.10246676 0.0477974 0.004322196 -0.1923973 0.051654734 0.12228739 0.17559117 0.18771696 0.09415522 0.1389637 0.043087535 -0.12894201 0.011476991 0.056789692 -0.09405707 -0.040362637 -0.0012609698 0.21724157 0.035918243 0.06251419 0.0887946 -0.17790309 -0.18854108 0.19265 0.012908584 -0.14819755 -0.09854489 0.055925533 -0.11656872 -0.081712656 -0.13091296 0.05931383 0.11106047 0.03371683 -0.22563341 0.064577006 0.36961386 -0.059608866 0.08086803 0.048884764 -0.20690131 0.13392262 0.038401023 -0.11349395 -0.012365381 -0.009816528 0.0941471 0.16540405 0.07775647 -0.29719943 -0.17899944 -0.043251902 -0.11142097 -0.21472482 0.015817039 0.026342902 0.034906767 -0.06903193 -0.02773136 0.037136607 -0.19077215 0.0207482 -0.07417778 -0.09296365 0.037390858 0.041689575 0.085589476 -0.060237974 0.08931391 -0.13073532 0.19438133 0.0992245 0.040793423 -0.025081683 -0.13810475 0.040487394 0.1424105 -0.12260107 -0.05901013 -0.025258813 0.118082754
22 0.014389169 -0.001669126 0.09695143 -0.10652403 0.008781586 -0.14317423 -0.07411549 0.08553058 0.032274008 0.095393285 0.17456633 -0.029844617 0.06357986 -0.09287563 0.08939752 -0.11841697 0.076494046 0.05400077 -0.10131278 -0.12006046 0.04888072 0.11439464 0.03651683 0.057727903 -0.10463474 0.10194249 0.01272985 0.04676768 0.03859091 -0.06623253 -0.24647322 -0.019726105 -0.06871751 0.04883226 -0.15100177 0.08241285 0.20027857 0.097712785 0.25815448 -0.09865529 -0.0125628775 0.005421929 -0.14877734 -0.03324808 0.03185353 0.033635262 0.031872857 -0.11395283 -0.023851499 0.045629255 -0.05553811 0.046595372 0.15831828 0.16275176 0.13718449 0.021854227 0.049550433 0.02150119 -0.11269855 0.096606776 0.07424072 -0.013315653 0.05430591 0.051466264 0.20078072 -0.042913456 -0.01266401 0.024054771 -0.05454619 -0.20341828 0.121621996 0.028621687 -0.10846374 -0.05180938 -0.034842398 -0.101586804 -0.06203781 -0.004653585 0.013028953 0.19889222 -0.037845496 -0.11183093 0.045605212 0.20108521 -0.041479927 0.088033624 0.13416816 -0.12719636 0.08842817 0.029404476 -0.13093613 -0.017336525 0.0044646887 0.07205468 0.0765544 0.023152484 -0.22054577 -0.23145947 0.023358898 -0.08775919 -0.22169487 -0.048529368 0.07910518 0.10911475 -0.061410505 -0.1265588 -0.013799432 -0.17309935 0.03875342 0.008810631 -0.052493975 -0.005671558 0.071110666 0.16927555 -0.17973174 0.058208253 -0.13207728 0.14841647 0.086348556 0.108472064 -0.074101165 -0.14845186 0.0596288 0.0832916 -0.05165164 -0.20779188 0.018460296 0.04755414
10 0.039838534 -0.034733377 0.0904732 -0.13966478 0.010572628 -0.123574086 -0.060103696 0.08472813 0.043705277 0.06455536 0.18464276 -0.027631463 0.050811164 -0.024775656 0.07700316 -0.09300114 0.06471989 0.03468216 -0.12620112 -0.10631212 0.122133404 0.09331338 0.028829748 0.040995944 -0.11082125 0.09981469 -0.026904743 0.014659889 0.07271528 -0.052948624 -0.2566756 -0.027258309 -0.03415686 0.058844283 -0.116137035 0.08684282 0.1761485 0.08654064 0.21850121 -0.06935987 -0.050869178 0.0034339249 -0.13188325 -0.051863518 0.032641456 0.01341629 0.026996918 -0.11659476 -0.0062119705 0.024077566 -0.09224666 0.03683401 0.1420889 0.16708115 0.153553 0.04361024 0.07099428 0.025859918 -0.12378861 0.052795637 0.079986095 -0.045474287 0.0157956 0.040954918 0.2106285 -0.017169531 0.017511375 0.045708623 -0.08496039 -0.20131373 0.12618218 0.014013569 -0.12205913 -0.061032966 0.0006883045 -0.097258836 -0.06460141 -0.027598318 0.029335493 0.1616466 -0.018342271 -0.14006634 0.046401292 0.2369966 -0.03387191 0.08611712 0.090826415 -0.15009183 0.09740002 0.032303542 -0.11992652 -0.0067306594 -0.0056778183 0.07650291 0.11097937 0.03127589 -0.23346896 -0.2111718 0.0020792068 -0.09058661 -0.21471828 -0.034067333 0.062055096 0.07249033 -0.058969118 -0.09644789 -0.0082770465 -0.17755277 0.04136443 -0.024830457 -0.059157547 0.001285339 0.07378397 0.13993064 -0.12631321 0.07347461 -0.14025831 0.16294998 0.08852794 0.08050524 -0.05003972 -0.13437662 0.04799143 0.10345903 -0.08229226 -0.1613041 0.007808385 0.05480111
12 -0.004882324 0.016540622 0.100423016 -0.08314201 -0.001189793 -0.16777435 -0.07818469 0.07348275 0.04010999 0.11580623 0.18559124 -0.031012768 0.08349738 -0.14908847 0.10514905 -0.1383679 0.09875702 0.068571016 -0.07829891 -0.1431102 0.0019674476 0.1402474 0.033153303 0.07784385 -0.10002133 0.116228424 0.03478095 0.06405077 0.038636297 -0.082211405 -0.24995992 0.00044322113 -0.096800976 0.04946929 -0.17266713 0.108104914 0.23455295 0.11884759 0.30559903 -0.111172386 -4.9017137e-05 0.012060586 -0.14793539 -0.035565756 0.030814914 0.05682802 0.01991848 -0.11189306 -0.031390775 0.06484851 -0.038406327 0.033004917 0.17380919 0.16519336 0.12850232 0.0025368677 0.009715054 0.020461354 -0.12397109 0.109786645 0.08536742 0.0050132186 0.06550144 0.048674934 0.21490543 -0.06781964 -0.04072565 0.0058074896 -0.035820834 -0.22228938 0.11327917 0.024915904 -0.108816795 -0.05122309 -0.053977147 -0.10289715 -0.0650115 0.022955619 -0.0036117851 0.2250096 -0.05365673 -0.09844438 0.03229306 0.17828019 -0.031150818 0.090357274 0.15369938 -0.12774347 0.08292003 0.031269316 -0.13702698 -0.010882046 0.012596808 0.07827528 0.07176344 0.017572083 -0.2214516 -0.25747305 0.045646098 -0.0960347 -0.24034649 -0.07883382 0.097847186 0.122685015 -0.070089824 -0.16255143 -0.024178747 -0.16121244 0.049593 0.022336816 -0.051098146 -0.016154353 0.09567496 0.18644126 -0.21011412 0.042780045 -0.1468801 0.15839949 0.07211982 0.114960745 -0.079364896 -0.15736288 0.055611745 0.074257545 -0.05002739 -0.2406726 0.044255517 0.03722934
