34 128
34 0.14187008 -0.02155066 0.15730311 -0.05019808 0.049160976 -0.10208578 0.09960649 0.027099233 -0.026400967 0.051653266 0.23613842 -0.13727973 -0.08921719 -0.0077479235 0.0792736 -0.015272606 -0.024396053 0.046686094 -0.09185406 0.07585519 0.20966011 0.13604681 0.05152007 0.08464273 -0.19611357 0.1280258 -0.122215666 0.13777962 0.03875013 0.06664572 -0.30585477 0.043385874 0.07816936 -0.012774242 -0.094712414 -0.08583511 0.22837614 0.051223 0.15878339 -0.055288408 -0.07737962 0.110918045 -0.09914934 -0.092222504 -0.013927306 -0.0262884 0.027938576 -0.14822395 -0.06838522 0.043982323 0.14509903 -0.03465472 0.1141919 0.08480337 0.11575562 0.04113505 0.2535184 -0.040384334 -0.17992558 -0.01053137 0.00347703 -0.15898454 0.07117093 -0.069605805 0.06103548 -0.090886295 0.104746506 0.056788653 -0.055306308 -0.023969026 0.1387567 0.13285616 -0.14647523 0.04276842 -0.04334973 -0.058855876 0.019127788 -0.06936745 -0.049296476 0.1138709 0.06137927 -0.13320194 -0.019623404 0.13244583 -0.012958099 0.048154913 0.18413062 -0.122908294 0.119310774 0.20969653 -0.086856924 -0.041608073 -0.06280637 -0.022132102 0.20714308 -0.012738084 -0.28694564 -0.26697752 0.017691283 -0.093454264 -0.16103667 -0.020255532 0.07166297 0.005987064 0.009722296 -0.06720654 0.08794316 -0.0766813 -0.049567953 -0.09607452 0.06027631 -0.050338715 -0.037426125 0.06929633 0.010552125 0.04871974 0.00609128 0.21352349 0.08652724 0.15044084 0.0033523906 -0.12454236 0.04438723 0.084227294 0.030137252 -0.17752182 -0.18713884 0.11462179
1 0.09368625 0.022010837 0.17879452 -0.1204597 0.062258396 -0.23120722 0.0012670166 0.10928008 0.04825251 0.11511923 0.25606114 -0.14413463 0.03558118 -0.0691499 -0.03453619 -0.015691632 0.07404774 0.115815796 0.04203679 0.10962961 0.21388482 0.04549189 0.07328971 0.034867954 -0.12444683 0.12983763 -0.13482863 0.018544646 0.18209815 0.086406074 -0.26874253 0.1758069 -0.073550224 0.07661213 -0.07484789 -0.07023117 0.20348324 0.08156018 0.13721853 -0.14402136 0.05298456 0.12230419 -0.03589122 -0.08116166 -0.025651947 -0.031068068 -0.09385765 -0.20801167 -0.08833311 -0.0031791993 0.13553807 -0.09927457 0.043383885 0.15414698 0.08677749 -0.06494167 0.13962486 0.028822184 -0.16874826 -0.09151895 0.015445484 -0.09431162 0.108774245 -0.1347771 0.0878614 -0.17916211 0.028920628 0.0036155016 0.13297074 -0.0019239704 -0.009269494 0.08736435 -0.20071074 0.0141974725 -0.16115633 -0.104146734 -0.034288168 0.0038259649 -0.17753081 0.18631321 -0.13716604 -0.08297999 0.047110595 0.057856992 0.18503317 0.010397279 0.1273808 -0.11804827 0.049488578 0.2262461 -0.15797964 -0.15541361 -0.24011892 -0.0014709022 0.11779536 -0.12440514 -0.092452854 -0.12116883 0.06784019 0.011044978 -0.10026902 0.025607657 -0.07359294 -0.064890645 0.04442115 -0.050958797 -0.030500598 -0.0746634 -0.034657933 -0.085587196 0.052211776 -0.05062009 -0.012368564 -0.017424282 -0.049961433 0.05568139 0.010517376 0.15149775 0.09523729 0.08337468 -0.04305777 -0.14633432 -0.026517877 0.007915784 0.009889244 -0.14743501 -0.17607678 0.1195588
33 0.14250419 -0.02864873 0.14963812 -0.05721501 0.055194575 -0.094484456 0.11165448 0.017771818 -0.036521927 0.056404784 0.2440673 -0.12767604 -0.107045636 0.0012354597 0.10252302 -0.01311445 -0.033207268 0.044722576 -0.09740566 0.08989321 0.21618553 0.14398801 0.043888427 0.09189911 -0.21380985 0.1348487 -0.12984791 0.1516347 0.041092753 0.065873645 -0.3219671 0.031000888 0.08913782 -0.012204233 -0.09685543 -0.08042112 0.24295466 0.054566596 0.17641014 -0.044230983 -0.08071146 0.11908708 -0.09518535 -0.10032571 -0.013582125 -0.018771896 0.03967814 -0.16067168 -0.063892 0.035612352 0.15681434 -0.033808064 0.13120574 0.078040056 0.12620145 0.059681565 0.25654012 -0.042903636 -0.17470479 -0.015619714 0.01078686 -0.17384782 0.06645891 -0.048958644 0.066235244 -0.08430062 0.12031533 0.0678584 -0.07903665 -0.035491526 0.15548958 0.12880874 -0.14515285 0.04608492 -0.03614021 -0.056871854 0.013054512 -0.082135655 -0.034785558 0.12297918 0.08600117 -0.15015347 -0.03618079 0.1466579 -0.02162086 0.046745423 0.1954271 -0.12789224 0.1400637 0.2089849 -0.0828925 -0.034870997 -0.051269226 -0.024129882 0.22065486 -0.00463197 -0.3140729 -0.2889528 0.020428056 -0.1121432 -0.16850248 -0.019827833 0.089263834 0.0037589767 -0.0011300237 -0.056561965 0.10413359 -0.08439386 -0.0476119 -0.10329091 0.06327511 -0.037310988 -0.03727485 0.062444262 0.021933705 0.04189554 0.00329348 0.22276495 0.091332875 0.15257685 0.0023803122 -0.11248033 0.03945713 0.1028431 0.01614814 -0.1855192 -0.17831469 0.10607188
3 0.1151439 -0.0022536041 0.17171791 -0.07517324 0.055737786 -0.15755329 0.057472993 0.056921426 -0.0040172553 0.07328985 0.25182858 -0.1369474 -0.045327563 -0.036692057 0.039719313 -0.019487161 0.0064556026 0.07518708 -0.04298928 0.10191757 0.21587732 0.0999806 0.05690214 0.07268802 -0.1869575 0.14763513 -0.13652067 0.09398639 0.09561827 0.07846145 -0.30834252 0.096061595 0.004242708 0.028838363 -0.07316342 -0.07862072 0.21159726 0.05818125 0.15935004 -0.083075956 -0.027261445 0.12536617 -0.07139346 -0.07863459 -0.020902101 -0.024618609 -0.018306669 -0.1719656 -0.07738144 0.0062642572 0.15658553 -0.07569417 0.095654584 0.117709085 0.105656095 -0.00015440583 0.19952838 -0.01122083 -0.18102954 -0.046074796 0.012026494 -0.1434396 0.09032804 -0.08370606 0.070929304 -0.12825981 0.07554805 0.04824969 0.024032615 -0.028330589 0.07872269 0.09802581 -0.17847829 0.018490018 -0.09391029 -0.07124648 -0.005129316 -0.05458569 -0.098307006 0.14445995 -0.016169976 -0.12239095 0.019854013 0.112769075 0.06329354 0.022328563 0.1591384 -0.11279267 0.09887758 0.2115161 -0.10791102 -0.081743106 -0.13481763 -0.0049444754 0.18224005 -0.06943351 -0.2179916 -0.20889607 0.055260602 -0.068529755 -0.14281237 -0.012541585 0.0193998 -0.02206102 0.015495745 -0.054888006 0.05043039 -0.078414865 -0.035969697 -0.10439849 0.06523898 -0.05206741 -0.019420726 0.02679227 -0.00364351 0.049405746 0.00696168 0.19192988 0.09888231 0.116767265 -0.016470168 -0.12403115 0.021413341 0.06381288 0.0053792964 -0.17953713 -0.17331503 0.101785466
2 0.0837836 0.0077648866 0.17290512 -0.11541615 0.051990233 -0.21763211 0.014175189 0.09273522 0.021414973 0.10167952 0.26846015 -0.14435324 -0.0004799785 -0.057251487 -0.013251454 -0.02555405 0.06211612 0.10713488 0.025480226 0.10409555 0.20611522 0.043995827 0.061899785 0.05757746 -0.14007652 0.14023769 -0.1349401 0.019363638 0.16385879 0.07321036 -0.2871687 0.15483221 -0.06277228 0.057918284 -0.05932236 -0.055577982 0.20093927 0.07399784 0.14242889 -0.14015394 0.037698496 0.13479482 -0.05018487 -0.07356432 -0.013895062 -0.0366104 -0.091698095 -0.20163089 -0.071895815 -0.005301521 0.14417402 -0.103511155 0.06695583 0.14789088 0.09085406 -0.050758224 0.13352562 0.020961022 -0.16830242 -0.07441701 0.019272264 -0.101748705 0.10099443 -0.1099764 0.070243225 -0.15591837 0.03146538 0.02092736 0.11125174 -0.019966142 0.017288182 0.06853404 -0.19946921 -0.0019600252 -0.14880191 -0.08142309 -0.035661932 -0.0153867 -0.15277845 0.18291084 -0.11189301 -0.09861481 0.0616958 0.082649045 0.15344298 -0.008591284 0.13372041 -0.11860326 0.06763262 0.20802999 -0.14246997 -0.13617584 -0.21791695 0.0030972539 0.14620137 -0.11271842 -0.1290661 -0.12839822 0.07194172 -0.0127820615 -0.11003362 0.022651106 -0.0639147 -0.048102602 0.05553831 -0.037399765 -0.0030200745 -0.07705583 -0.03025085 -0.10659805 0.06620638 -0.048315886 -0.006090225 -0.016742725 -0.034977432 0.04694541 0.01447781 0.16053256 0.104228824 0.09935267 -0.026122108 -0.13018665 -0.019980624 0.023327183 0.0006838824 -0.15916166 -0.16615762 0.102804676
32 0.15019387 -0.029717548 0.15731995 -0.058512647 0.06259953 -0.08641104 0.08970026 0.008356106 -0.0279024 0.04962188 0.22586869 -0.14287153 -0.09413529 -0.007632736 0.08214733 -0.023138516 -0.032467745 0.04291065 -0.09287794 0.076542534 0.20764844 0.13326313 0.05338613 0.088248916 -0.2054072 0.13740757 -0.12371394 0.13527699 0.037747912 0.06496676 -0.30777946 0.047930583 0.0794185 -0.0053342693 -0.09064134 -0.09350821 0.22000611 0.061702248 0.15336463 -0.04250362 -0.07338609 0.099868834 -0.10278912 -0.08554364 -0.012130045 -0.029710041 0.04567932 -0.15654321 -0.07406238 0.045602042 0.14211859 -0.029625926 0.11459791 0.07913665 0.10103119 0.05168774 0.25059718 -0.044428654 -0.1728741 -0.0075937705 0.013235402 -0.15507124 0.080805235 -0.05032678 0.054796226 -0.089881934 0.11125977 0.050900083 -0.058325008 -0.025731437 0.13729437 0.13175236 -0.13323562 0.047442973 -0.040891472 -0.049599454 0.01573908 -0.06230346 -0.04978639 0.10994156 0.06880682 -0.12776485 -0.024047732 0.11721225 -0.022663597 0.048887525 0.17538725 -0.11746441 0.11342667 0.20388931 -0.08861306 -0.03573286 -0.060425036 -0.030162184 0.1951277 -0.009983806 -0.28277004 -0.2651846 0.009100391 -0.10160518 -0.14396153 -0.028339447 0.07058737 0.005236808 0.0044704424 -0.06521769 0.08545858 -0.080515884 -0.03932566 -0.083823204 0.051343907 -0.04372962 -0.026244905 0.06269942 -0.00088716205 0.043268465 -0.008779183 0.2042975 0.08784866 0.16080193 0.009535731 -0.11682389 0.036802363 0.10003795 0.030421909 -0.16871358 -0.18936321 0.11839163
4 0.09731067 0.0022020675 0.17624462 -0.101603806 0.05932739 -0.19185773 0.03075519 0.08084479 0.02132606 0.08870261 0.2637563 -0.14923541 -0.024513206 -0.045360386 0.0028415152 -0.017400224 0.04458059 0.08873238 0.0053825723 0.11267771 0.21467762 0.06411466 0.058805622 0.05709035 -0.16808377 0.14730597 -0.13822201 0.04786333 0.1358452 0.07220403 -0.2883077 0.13129394 -0.043250922 0.053206995 -0.05993103 -0.056639798 0.2143287 0.073619686 0.15843107 -0.12279181 0.0049877707 0.13428174 -0.055313963 -0.084568545 -0.0076649087 -0.03186524 -0.054508798 -0.18957889 -0.082170986 -0.00196079 0.13724004 -0.09316298 0.079111844 0.14420639 0.10670913 -0.038194988 0.15676634 0.019319708 -0.17363285 -0.074545614 0.013667675 -0.12598072 0.10123901 -0.1007563 0.077888265 -0.13279663 0.044734765 0.033850696 0.06827624 -0.019366758 0.041808624 0.07326195 -0.18788281 0.011902712 -0.12344758 -0.07700815 -0.026647277 -0.03296504 -0.13407266 0.16433199 -0.07356821 -0.10878918 0.038147096 0.090248115 0.11940619 -0.0014597034 0.14470062 -0.11752553 0.07835756 0.20717521 -0.12606747 -0.11905648 -0.18712403 -0.0056390767 0.16397007 -0.093791895 -0.1657729 -0.15428479 0.06329071 -0.030206772 -0.12885919 0.008702031 -0.038063854 -0.037664887 0.04176322 -0.037259437 0.008575368 -0.074880436 -0.03564485 -0.112219565 0.053311214 -0.047823906 -0.012702821 -0.009888525 -0.016317192 0.050469447 0.01824128 0.17114094 0.099081226 0.09774521 -0.019528026 -0.12211357 -0.0067539774 0.039041862 0.0043901694 -0.16221237 -0.1495604 0.10693979
14 0.103757225 0.015114272 0.1724612 -0.101861365 0.04952826 -0.18779425 0.027319197 0.08686831 0.018029215 0.08190039 0.24392352 -0.13147704 -0.018019833 -0.046455808 0.010853693 -0.015165433 0.037224017 0.088745125 -0.006282258 0.11471428 0.21480462 0.06435752 0.06710845 0.050659038 -0.15884776 0.14430103 -0.13891272 0.052497704 0.14106433 0.076379076 -0.29478008 0.13551086 -0.032671783 0.042860616 -0.061833687 -0.06273852 0.21545942 0.077966265 0.14358415 -0.10858409 0.009093482 0.13143088 -0.051921554 -0.0783662 -0.0139671145 -0.021685708 -0.057759643 -0.19247669 -0.08005245 -0.001062987 0.14030983 -0.081732914 0.07999337 0.14011936 0.10540475 -0.02184875 0.16600814 0.021657027 -0.16721657 -0.079451576 0.005470958 -0.1254523 0.09820528 -0.100368805 0.075580895 -0.13408446 0.060564548 0.02700984 0.057333283 -0.026127959 0.03814446 0.07805533 -0.18519334 0.01308136 -0.119670585 -0.075813785 -0.02347101 -0.03989236 -0.13160177 0.15235172 -0.062278975 -0.10891595 0.03659477 0.08955835 0.120456226 0.007950061 0.1436678 -0.108328946 0.080867715 0.21094818 -0.13804719 -0.1122772 -0.17316157 -0.00045459013 0.14955102 -0.08224559 -0.16154566 -0.15556672 0.07402561 -0.04178761 -0.13077618 0.01066065 -0.014673671 -0.036015898 0.040731598 -0.048564345 0.021437086 -0.08060507 -0.043331344 -0.109272435 0.05683568 -0.0404265 -0.022049414 -0.005955235 -0.009503934 0.051316343 0.020051 0.16558658 0.101324394 0.105790704 -0.01910969 -0.13225415 0.0008085243 0.03200986 0.0035807146 -0.16766544 -0.15682787 0.10028718
24 0.15088397 -0.02767867 0.15013246 -0.050651018 0.065559104 -0.07306813 0.11304797 0.007135891 -0.029253194 0.052977256 0.23604415 -0.13280725 -0.10955543 -0.0012693857 0.10242037 -0.014500411 -0.045562867 0.03885195 -0.11173221 0.091057144 0.20725188 0.14477648 0.04315205 0.09369077 -0.22611736 0.13515306 -0.12658092 0.16211909 0.021742888 0.071538694 -0.316129 0.027038636 0.10028648 -0.022566134 -0.09727858 -0.090325505 0.22774224 0.055198357 0.16949709 -0.036261328 -0.10244938 0.11273614 -0.11501455 -0.10230386 -0.0052034273 -0.028717035 0.059510924 -0.14739169 -0.07485337 0.05967698 0.15579967 -0.018226206 0.13678005 0.06598212 0.113545574 0.07217129 0.2791521 -0.04379098 -0.17468274 0.00012490188 -0.0037727335 -0.16830724 0.068005145 -0.047816377 0.062038038 -0.07786849 0.1303283 0.064316414 -0.08952249 -0.022003427 0.16075665 0.14460868 -0.12866884 0.05407044 -0.024563074 -0.056966096 0.029085089 -0.07272592 -0.028582895 0.11744039 0.09983488 -0.15265948 -0.04262506 0.14306973 -0.045094132 0.048453383 0.20192127 -0.12600923 0.138008 0.2072468 -0.07579083 -0.03240024 -0.040425897 -0.036194764 0.2151465 -0.00035852497 -0.32316878 -0.30428213 0.011593776 -0.1264032 -0.17496979 -0.03605343 0.088389225 0.014321683 -0.0020470717 -0.06353633 0.10736832 -0.0895877 -0.052698247 -0.09119016 0.06139311 -0.040578004 -0.03971243 0.07856803 0.010037773 0.035017114 -0.0050369245 0.22271551 0.09282092 0.17793773 0.009269966 -0.12120626 0.05516726 0.110488676 0.02894937 -0.18107304 -0.19102533 0.11246418
9 0.114689104 0.004122133 0.15151593 -0.08695413 0.061692607 -0.15652539 0.037207182 0.06115674 0.012190585 0.08239871 0.22886851 -0.14536108 -0.02698358 -0.029568732 0.025800338 -0.009073029 0.024829336 0.08343016 -0.018337583 0.11023537 0.21079731 0.08370397 0.06099662 0.06530584 -0.16281766 0.13535923 -0.13083488 0.058381822 0.116210125 0.07925971 -0.28587735 0.116379015 -0.0022306032 0.038239554 -0.08109387 -0.0792463 0.21145076 0.07277481 0.13851322 -0.101795495 -0.01311909 0.11638383 -0.05143309 -0.08365581 -0.028817615 -0.033168893 -0.041163586 -0.18450896 -0.074929506 0.012148082 0.14413263 -0.072263405 0.08181382 0.11978869 0.08524318 -0.0046947235 0.18563858 0.00091762526 -0.16886869 -0.06062542 0.00421315 -0.11848262 0.089162156 -0.10304994 0.073503755 -0.13132839 0.06985788 0.021261277 0.048416555 -0.007385796 0.056069523 0.10771173 -0.17191401 0.033011034 -0.10937454 -0.07063956 -0.019142637 -0.02441105 -0.12561335 0.15362033 -0.04021775 -0.10524939 0.014940454 0.0770253 0.0893898 0.014464648 0.14381737 -0.112870544 0.071445264 0.2097635 -0.12009634 -0.104676895 -0.16462088 -0.018510336 0.1591795 -0.07455115 -0.17840889 -0.17145628 0.04488155 -0.045899723 -0.11287935 -0.0019752525 -0.0139254425 -0.03315806 0.030667849 -0.048564974 0.032063033 -0.06842845 -0.043879032 -0.09179034 0.060159657 -0.04479425 -0.020235822 0.012650047 -0.016871294 0.043052703 -0.00016471103 0.17014997 0.09770197 0.11876472 -0.014201808 -0.13081083 0.0013244967 0.044020336 0.026201844 -0.15583178 -0.17940636 0.11774526
8 0.08269491 0.018342854 0.17010555 -0.09908822 0.04778438 -0.20113507 0.02695054 0.08578918 0.021602752 0.096794255 0.26152712 -0.14036241 -0.00037987018 -0.056107506 -0.004580808 -0.015234958 0.05691978 0.10049201 0.020289052 0.11447471 0.2007563 0.060878675 0.05462959 0.047778346 -0.15551552 0.13781695 -0.14545545 0.025626244 0.15098229 0.07830614 -0.28996944 0.15268256 -0.06361755 0.049673527 -0.051003926 -0.054426618 0.21215686 0.07878219 0.14896826 -0.13528256 0.030228015 0.13486867 -0.042465784 -0.07485814 -0.008103097 -0.02222154 -0.08600241 -0.20272908 -0.078766234 -0.0026895609 0.14903522 -0.094935946 0.07379999 0.13992356 0.10571488 -0.049387157 0.13934642 0.03230648 -0.16931863 -0.08433724 0.008761756 -0.118360765 0.10164994 -0.102530055 0.07429297 -0.15494913 0.037523985 0.026443029 0.094626315 -0.023838958 0.020640561 0.07763107 -0.20063819 0.008571277 -0.13991144 -0.07900335 -0.02609456 -0.022991259 -0.1499307 0.17511646 -0.08967721 -0.09563266 0.05082491 0.08935768 0.15017924 -0.004192037 0.14321846 -0.109607555 0.0753643 0.20988685 -0.14080124 -0.13111328 -0.21155106 0.0010086 0.15495533 -0.10024599 -0.13686875 -0.12950467 0.07666375 -0.024713349 -0.11315455 0.012019284 -0.04123234 -0.042397384 0.04685623 -0.037931293 0.009356514 -0.06611212 -0.033868898 -0.11351478 0.06785344 -0.039509628 -0.011874878 -0.016120173 -0.02757357 0.050864205 0.021666504 0.16359787 0.0972497 0.10447395 -0.015240034 -0.12062935 -0.009391192 0.021111308 0.007958492 -0.16271403 -0.15344502 0.1034797
6 0.09235183 0.03458761 0.20146836 -0.17736222 0.08516809 -0.3379152 -0.08649348 0.17641333 0.10696263 0.1656113 0.2668217 -0.20075203 0.13150072 -0.10315769 -0.11972416 -0.02008839 0.15189484 0.17267805 0.12584585 0.14518988 0.24740906 -0.018801756 0.085436694 0.010731737 -0.07426069 0.112944566 -0.16141838 -0.09127785 0.2830216 0.102868326 -0.2502787 0.2843593 -0.16087435 0.14431445 -0.064171664 -0.07215778 0.19483666 0.10215866 0.098142795 -0.20545372 0.14016943 0.11993097 0.015659273 -0.06422727 -0.059669062 -0.06131907 -0.18306522 -0.26565462 -0.097245656 -0.013775636 0.1308581 -0.12921913 -0.0043397406 0.19636533 0.051410668 -0.12679891 0.09341766 0.080758944 -0.17935218 -0.13282724 0.022147376 -0.04084595 0.14718573 -0.21203932 0.1175574 -0.26338735 -0.009280823 -0.058008473 0.29567713 0.04284717 -0.10419514 0.08610249 -0.26452908 0.005007797 -0.2492064 -0.16809161 -0.07843562 0.060213782 -0.28864455 0.26252946 -0.2821632 -0.06197345 0.10896642 0.0021900595 0.33977178 0.0069385413 0.090194814 -0.12019668 -0.020667708 0.26600686 -0.21520135 -0.24957335 -0.3997188 0.014423985 0.06708635 -0.20038292 0.02364883 -0.03753112 0.06434312 0.09285225 -0.044456027 0.06221366 -0.20609327 -0.117736965 0.08815931 -0.04728368 -0.11693873 -0.08403282 -0.032872703 -0.07173387 0.044816818 -0.06333412 0.011649787 -0.068893805 -0.120523915 0.055305768 -0.002771063 0.117496155 0.10629577 0.066391215 -0.07988049 -0.19542305 -0.08821912 -0.050601617 0.036603604 -0.10429122 -0.20873633 0.18053412
7 0.09679443 0.032840542 0.18152075 -0.1587092 0.095447175 -0.32003218 -0.07796966 0.16772196 0.09698212 0.17291771 0.25906324 -0.20256145 0.114022516 -0.108993955 -0.11231418 -0.016949402 0.1545782 0.16530238 0.11165951 0.14103983 0.23920451 -0.010070477 0.09573923 0.02225726 -0.0733994 0.10681086 -0.15552275 -0.075364575 0.26448295 0.09145592 -0.24690767 0.26886347 -0.14663999 0.13816464 -0.080244176 -0.07853888 0.19707598 0.09091062 0.11082094 -0.18939391 0.12846334 0.10656818 0.0059053656 -0.07676328 -0.06864555 -0.056717165 -0.17031325 -0.24966082 -0.10929854 -0.0040928284 0.124064095 -0.1321061 0.011935561 0.1992267 0.049417514 -0.11888701 0.098218486 0.06112662 -0.18280488 -0.11217798 0.02278961 -0.03237779 0.15052426 -0.19511586 0.11019391 -0.2605932 0.0025651196 -0.04992877 0.2714519 0.04357496 -0.0938631 0.09955885 -0.2464756 0.00878119 -0.2445202 -0.16607547 -0.08372473 0.06348698 -0.28778246 0.2588318 -0.26793945 -0.057467844 0.09004993 -0.0029951844 0.32171848 0.014174939 0.09310302 -0.11168478 -0.016843924 0.2623405 -0.1997585 -0.25327405 -0.37692437 0.0055542537 0.07013075 -0.19737794 0.017097946 -0.049198594 0.063691474 0.08767442 -0.03874088 0.05107402 -0.19857113 -0.11029831 0.08507487 -0.060542267 -0.10607169 -0.072386034 -0.025192829 -0.072427474 0.03377028 -0.06736607 0.016440935 -0.059505116 -0.11646781 0.04908207 -0.0016834975 0.12539235 0.10489103 0.069764964 -0.07930707 -0.19534683 -0.085088685 -0.03753612 0.042296797 -0.10598667 -0.20280267 0.17685412
30 0.13914596 -0.016985012 0.1401985 -0.052855097 0.06193909 -0.09363697 0.09239038 0.032778602 -0.01732047 0.052634753 0.21664236 -0.13834044 -0.07150191 -0.014030995 0.083833426 -0.015395679 -0.020663913 0.042822577 -0.08579368 0.08273546 0.2010633 0.124069 0.045582358 0.07621051 -0.19931985 0.12531221 -0.114834845 0.13089283 0.062321033 0.075415455 -0.30250326 0.058185093 0.060351893 -0.0027755687 -0.100692615 -0.081729144 0.22187592 0.06328822 0.15540537 -0.06175222 -0.059993483 0.10440044 -0.08276203 -0.08724662 -0.016140018 -0.03259315 0.024147471 -0.16532384 -0.061858255 0.035744887 0.15078515 -0.04436322 0.11272117 0.08222976 0.10907458 0.03705792 0.24594766 -0.033634353 -0.17423871 -0.02576426 -0.00081391324 -0.15110536 0.072786406 -0.06915556 0.06341914 -0.094252154 0.10395404 0.050393477 -0.04911531 -0.023271095 0.13257292 0.13454585 -0.15185413 0.053309474 -0.044723846 -0.06279325 0.018598014 -0.072201885 -0.04824329 0.12595622 0.05553073 -0.1360061 -0.024013553 0.11675212 0.0019552282 0.043102786 0.18120731 -0.111795194 0.12270444 0.19919401 -0.08122321 -0.051792152 -0.06676917 -0.022203129 0.19120745 -0.013625985 -0.27100345 -0.25737873 0.014213866 -0.09059024 -0.14156875 -0.01635598 0.05978387 0.00047580543 0.013339794 -0.06424296 0.08125188 -0.08530127 -0.044384863 -0.07784052 0.062201157 -0.036334522 -0.028629592 0.06472491 0.008437691 0.04830218 0.00044928645 0.20622651 0.09638289 0.14723888 0.0062988536 -0.117613204 0.041218944 0.08799627 0.03576222 -0.16988702 -0.17702453 0.11497995
28 0.13654976 -0.017447527 0.16525097 -0.060565207 0.06267261 -0.13021992 0.081987865 0.026727507 -0.0076147323 0.056107126 0.2280655 -0.144418 -0.057048842 -0.029914543 0.06606578 -0.0102307815 -0.007077569 0.06412802 -0.06243159 0.09553652 0.21808955 0.13052599 0.0596454 0.08437488 -0.18772915 0.14683084 -0.11793885 0.1125909 0.08114508 0.061074484 -0.31585094 0.07253915 0.05216603 0.007503224 -0.09910711 -0.075625785 0.22555113 0.06407567 0.15619893 -0.07413192 -0.05193718 0.1147448 -0.08327513 -0.08459725 -0.013937282 -0.018212918 0.00964342 -0.17871358 -0.074290596 0.03148177 0.15322945 -0.032628167 0.10663927 0.09674369 0.087871514 0.023870865 0.23044293 -0.02386763 -0.17316096 -0.04245009 0.010972628 -0.14085864 0.089509435 -0.07090596 0.06030197 -0.11435375 0.09872636 0.044332102 -0.0050870106 -0.0049203536 0.11607676 0.12668158 -0.16163498 0.050825175 -0.06744993 -0.04910712 -0.007184752 -0.0457444 -0.07561142 0.13560052 0.031014137 -0.1232011 0.0037650694 0.11125084 0.029771294 0.038031753 0.16303779 -0.1323461 0.0968039 0.2044342 -0.10311909 -0.059911646 -0.0979533 -0.01840105 0.18445419 -0.032687247 -0.2453696 -0.24011216 0.03210922 -0.08991747 -0.13555884 -0.01050006 0.03909546 -0.007590413 0.02152241 -0.06082973 0.07160906 -0.078058526 -0.03855207 -0.08532695 0.0643836 -0.041646812 -0.03447622 0.047174152 -0.0032462254 0.028833203 0.0058161058 0.18835825 0.09030103 0.1478883 0.002098997 -0.119429976 0.02632038 0.07159279 0.033198636 -0.17626818 -0.1896128 0.117763296
20 0.10572514 0.006608714 0.15286094 -0.09475944 0.05623974 -0.16981164 0.029851636 0.06327328 0.021249399 0.09479972 0.23559716 -0.15072897 -0.011261575 -0.04373885 0.0031889828 -0.008185794 0.031255648 0.082806535 -0.008517619 0.09910912 0.20814332 0.08024692 0.06259861 0.062034093 -0.15321432 0.128098 -0.13193423 0.044324394 0.12776832 0.077829756 -0.28475863 0.12103041 -0.025762353 0.03838058 -0.071061864 -0.06660247 0.20339869 0.07176443 0.14117715 -0.10900713 0.0036388584 0.10528452 -0.055428114 -0.079284504 -0.021200031 -0.028053023 -0.052738845 -0.18871358 -0.08308967 0.013184958 0.13611887 -0.070375025 0.07579985 0.11796947 0.08266834 -0.020427186 0.17953101 0.012285368 -0.16909504 -0.061895885 0.003898216 -0.111296326 0.09765481 -0.10339028 0.077476226 -0.14498243 0.059687514 0.016055001 0.0659509 -0.010196917 0.044571463 0.10223681 -0.18412171 0.03224022 -0.12364803 -0.089699894 -0.026913995 -0.017016066 -0.12574385 0.16807835 -0.056693327 -0.10127383 0.024556285 0.08894035 0.1117522 0.020542884 0.13940987 -0.11250949 0.07455808 0.2067843 -0.12344096 -0.114204444 -0.17234161 -0.007455017 0.14873661 -0.08576062 -0.16188858 -0.15958568 0.03831767 -0.032922387 -0.1099084 0.00853801 -0.03520732 -0.028245298 0.035436604 -0.054576926 0.021570092 -0.07608286 -0.043682236 -0.09120587 0.05435825 -0.052655105 -0.016538253 0.010165234 -0.034516398 0.047068994 0.0063363495 0.17367 0.09501162 0.11610938 -0.018859394 -0.1325851 -0.009634273 0.045371767 0.02156755 -0.15719815 -0.18070158 0.11703699
31 0.1347233 -0.0076844916 0.16679336 -0.077069536 0.05205559 -0.12314541 0.08066099 0.04354531 -0.010878436 0.06091485 0.23763435 -0.13455962 -0.07570642 -0.009599356 0.07401026 -0.020684123 -0.01915675 0.06482822 -0.06697822 0.092808194 0.21595538 0.11219433 0.056745905 0.07790983 -0.20596354 0.14191543 -0.12758546 0.12463092 0.07858723 0.078690305 -0.31803176 0.07158506 0.03944288 0.0049622143 -0.08545246 -0.08002603 0.22422592 0.07164549 0.16600502 -0.073435985 -0.05756432 0.13098468 -0.0915396 -0.090675965 -0.004520642 -0.019580176 0.011045793 -0.17383249 -0.068663314 0.026281213 0.14327784 -0.054629445 0.110593975 0.0992724 0.12158204 0.038250625 0.21727604 -0.013164522 -0.17602761 -0.036594667 0.0023486544 -0.14785226 0.07860129 -0.060238365 0.07317811 -0.0978522 0.09037306 0.0456525 -0.025264557 -0.037154462 0.11179409 0.11777238 -0.15659897 0.03130137 -0.06407587 -0.057212688 0.011096962 -0.05809548 -0.06819158 0.13036878 0.040457383 -0.1296594 -0.005713606 0.11895757 0.025348322 0.02251304 0.17940308 -0.12734665 0.11780834 0.19955929 -0.100237064 -0.06456717 -0.09216527 -0.01954493 0.19723365 -0.031055726 -0.26280114 -0.24298516 0.04120827 -0.09061987 -0.16047409 -0.012893235 0.05596787 -0.0030263304 0.0045544235 -0.05066723 0.06862709 -0.08614391 -0.046971023 -0.099810004 0.058113668 -0.045073062 -0.03495776 0.051459156 0.0007285038 0.052803874 0.009497073 0.20189859 0.104449525 0.14672843 -0.0009966879 -0.116984725 0.032474373 0.08318933 0.014925003 -0.18237297 -0.17575775 0.09627869
29 0.14151412 -0.01387818 0.16773818 -0.05704821 0.054326445 -0.12203924 0.09473443 0.032683026 -0.020964924 0.061058696 0.24011834 -0.1396832 -0.07706246 -0.014180241 0.08627502 -0.022226093 -0.012459388 0.056959525 -0.07829664 0.09204632 0.21201532 0.1389075 0.04816732 0.08684698 -0.2016351 0.14619258 -0.124145575 0.13671464 0.06518792 0.066355236 -0.3168959 0.06378931 0.058880832 -0.001614755 -0.10108256 -0.08796474 0.23437274 0.0647913 0.16926715 -0.057477567 -0.0691801 0.119666524 -0.08367676 -0.08938118 -0.010339303 -0.018410515 0.012714909 -0.1566785 -0.06732412 0.042123705 0.14236115 -0.035133533 0.122349106 0.09496837 0.10287001 0.04095412 0.23155603 -0.030796954 -0.17449805 -0.021346569 0.015045934 -0.15888464 0.07312152 -0.061330788 0.074090764 -0.10541175 0.092639156 0.046083994 -0.039047107 -0.027775925 0.12606193 0.12217754 -0.15547945 0.03896244 -0.048834264 -0.06338534 0.00091850513 -0.05680067 -0.062118847 0.13598327 0.0416714 -0.1403015 -0.015902411 0.12577684 0.0014536828 0.038345378 0.1829506 -0.122540794 0.122452825 0.21214634 -0.10127048 -0.055553116 -0.0861896 -0.015068422 0.19295676 -0.022047285 -0.272227 -0.2618886 0.022721471 -0.090932205 -0.16409785 -0.023844035 0.062840685 0.0020454517 0.0005128714 -0.058571633 0.085395254 -0.08671835 -0.04725203 -0.088069536 0.064917795 -0.042340264 -0.025751015 0.056456313 0.001828614 0.040024124 -0.0036440084 0.2055607 0.092836104 0.13953584 -0.0042756065 -0.12452219 0.03479485 0.09094858 0.018970948 -0.1870414 -0.1762911 0.10754672
26 0.14514595 -0.028927496 0.14513189 -0.047717575 0.06533867 -0.09461751 0.09520695 0.011173803 -0.026854139 0.05150171 0.2279074 -0.13842878 -0.07977541 -0.020084698 0.10165375 -0.015996065 -0.024804357 0.050234325 -0.08944142 0.080469325 0.20549692 0.15251318 0.046245366 0.093500234 -0.19871876 0.13119276 -0.11033752 0.14245631 0.03292315 0.059587266 -0.31022024 0.033653542 0.09696706 -0.009058428 -0.11078068 -0.0837907 0.23305699 0.06636462 0.16286273 -0.05383322 -0.08165159 0.09513513 -0.10022194 -0.08664835 -0.012773832 -0.02202379 0.047137156 -0.15528826 -0.06678735 0.059859917 0.1423606 -0.014352688 0.12700637 0.08435096 0.10133491 0.05413058 0.2550863 -0.042936962 -0.17599416 -0.0044356952 0.0077941283 -0.15047891 0.08053241 -0.06854264 0.06496879 -0.08762915 0.11429898 0.051892553 -0.05968091 -0.01707105 0.15266038 0.13841414 -0.1333008 0.059757184 -0.0404087 -0.049209803 0.00735985 -0.06330099 -0.041433323 0.1261166 0.07490947 -0.13591278 -0.034663726 0.13350108 -0.026912834 0.058931865 0.18396334 -0.13150619 0.1143864 0.19453509 -0.08896716 -0.032011453 -0.049325794 -0.023463236 0.1986522 0.004308164 -0.2912759 -0.27416143 0.009977999 -0.112393446 -0.16072643 -0.03423266 0.08137957 0.009605469 -0.004749967 -0.07150384 0.09842614 -0.079940096 -0.050827164 -0.08029859 0.054399002 -0.03953203 -0.035162624 0.078717865 -0.007104417 0.024959352 -0.009727214 0.20508179 0.07892027 0.16774888 -0.001762846 -0.12415484 0.0437512 0.08677551 0.0376355 -0.1804527 -0.18284203 0.12947826
5 0.091285236 0.03424671 0.18755342 -0.14810722 0.082295045 -0.28079572 -0.028696468 0.1362505 0.06395635 0.13496523 0.26866862 -0.17815247 0.07563985 -0.085902914 -0.060603447 -0.015065082 0.118210316 0.13183002 0.08017863 0.13542719 0.2262422 0.017965559 0.08118441 0.034818746 -0.100277394 0.1285625 -0.14127254 -0.0271575 0.22345328 0.087859064 -0.26282045 0.21812128 -0.11464744 0.104835376 -0.07540041 -0.076370105 0.19742534 0.095854215 0.117627636 -0.17810342 0.0934307 0.12065879 -0.01118298 -0.07037573 -0.040802196 -0.039356485 -0.13149591 -0.23248859 -0.085731246 -0.005625842 0.13204983 -0.10787672 0.036278542 0.17479187 0.06892621 -0.08975309 0.12515812 0.060344137 -0.17380203 -0.11261666 0.016103726 -0.06987629 0.13020587 -0.17318206 0.10600059 -0.21848883 0.017983392 -0.028186189 0.20563157 0.021484882 -0.04438389 0.08195348 -0.22859249 0.007693994 -0.20473208 -0.12400616 -0.056026593 0.024527278 -0.23460262 0.2280729 -0.19193316 -0.074607864 0.068272784 0.040514633 0.2532983 0.009838121 0.10404925 -0.12160622 0.013567392 0.23408449 -0.18553735 -0.2063035 -0.30739793 0.006166332 0.09035948 -0.15917563 -0.045168076 -0.074095756 0.066661574 0.04014115 -0.07837451 0.032462183 -0.13294567 -0.073566675 0.07451425 -0.050014522 -0.05904791 -0.08256429 -0.03208851 -0.09051054 0.052223418 -0.056294587 -0.0018223817 -0.052533578 -0.08023202 0.0477483 0.0052232505 0.13479842 0.100913 0.07463438 -0.061283868 -0.16341603 -0.051089883 -0.01788435 0.01824848 -0.13106509 -0.19096865 0.14489287
25 0.14931974 -0.027691327 0.15248568 -0.04761389 0.07444146 -0.09941646 0.0995137 0.008269639 -0.03244641 0.050100274 0.21467803 -0.15342502 -0.08544026 -0.017667754 0.0849904 -0.02045731 -0.029366275 0.06120667 -0.0806212 0.09425937 0.21833085 0.14550614 0.051112127 0.093265064 -0.19981031 0.1327764 -0.113875076 0.14170033 0.04604008 0.06730961 -0.3157831 0.049765166 0.08662572 -0.007054187 -0.099986024 -0.096794315 0.20599422 0.06690054 0.14029026 -0.0448701 -0.078632824 0.09915988 -0.09868833 -0.07499175 -0.011795901 -0.020320062 0.039261125 -0.15768673 -0.07695802 0.061437525 0.14177862 -0.0145737855 0.12259725 0.075226806 0.08304675 0.046521537 0.25122306 -0.045246497 -0.16775723 -0.020588284 0.018231608 -0.14581604 0.09135695 -0.073573545 0.050427783 -0.109905936 0.10553303 0.05023793 -0.036431056 -0.00029088976 0.13700919 0.1396541 -0.13895069 0.05798505 -0.04995882 -0.05000155 -0.0025735088 -0.05343226 -0.057632867 0.12801488 0.0670722 -0.13469319 -0.02370248 0.120963275 -0.004583004 0.04280835 0.18466404 -0.13095312 0.117315054 0.20133391 -0.08259897 -0.046047576 -0.071440116 -0.021755803 0.1888372 -0.006083591 -0.27281854 -0.2678871 0.00034096616 -0.109383814 -0.14234552 -0.030851044 0.059750922 -0.0009762632 -0.0011982645 -0.063322835 0.09278599 -0.082536794 -0.05416255 -0.0754073 0.05725969 -0.051170204 -0.031460676 0.063246965 -0.01247218 0.019889992 0.005022993 0.20252895 0.083900854 0.16524062 -0.0014947496 -0.11138307 0.031770714 0.094039835 0.038682863 -0.17467125 -0.19713801 0.13531117
11 0.091994524 0.03111119 0.18444672 -0.15100458 0.078884766 -0.2815005 -0.05450674 0.13365585 0.078325205 0.14737405 0.25419715 -0.17460372 0.08365167 -0.0799251 -0.08213975 -0.0134447245 0.12674943 0.14066276 0.088838324 0.12219835 0.22715649 0.010218585 0.085465625 0.015175746 -0.09390076 0.11414121 -0.15014406 -0.046887364 0.23034395 0.08522485 -0.25146687 0.23526718 -0.12561332 0.11963689 -0.07164948 -0.0734061 0.19117396 0.082752906 0.10526676 -0.17337613 0.09395419 0.10931078 -0.0034118488 -0.08099901 -0.056064148 -0.05534347 -0.1423899 -0.24372388 -0.09831453 0.003541643 0.13772573 -0.119852394 0.0151495915 0.17346779 0.05665897 -0.100171424 0.11268608 0.056566674 -0.18109137 -0.10161118 0.017291814 -0.053015657 0.13172647 -0.18006653 0.1058995 -0.22949672 0.018004192 -0.029499331 0.22357927 0.027427023 -0.060311433 0.10013996 -0.23649722 0.0032709423 -0.20519024 -0.14460072 -0.062900424 0.032765575 -0.25228646 0.22851644 -0.21236876 -0.07148245 0.07760503 0.025994428 0.27124536 0.0041634254 0.10168133 -0.12096781 -0.00031722023 0.24295427 -0.18602626 -0.222008 -0.32847485 0.0004097951 0.09449731 -0.16456701 -0.022970999 -0.08393855 0.057723816 0.054627355 -0.05420154 0.042160742 -0.14884013 -0.08692953 0.07508134 -0.060713556 -0.07230835 -0.072739266 -0.026608402 -0.07444198 0.0363675 -0.061907347 0.0113411965 -0.043993056 -0.09912983 0.0601073 -0.0030478046 0.14102641 0.10920235 0.07582258 -0.05976106 -0.17106427 -0.062271178 -0.018389259 0.041167982 -0.11409248 -0.20543489 0.1643868
18 0.11165028 0.003320083 0.16919023 -0.09665339 0.063695766 -0.17982572 0.039320085 0.07985702 0.019785795 0.083706066 0.24578355 -0.14130314 -0.01617336 -0.041537512 0.01661087 -0.01256493 0.043040495 0.08175241 -0.008050721 0.10492083 0.21226414 0.071073875 0.054477714 0.055915236 -0.16438708 0.14238255 -0.13054983 0.047284495 0.1316963 0.080209345 -0.28998652 0.1235818 -0.023408333 0.049305666 -0.07722164 -0.07035112 0.20080411 0.0717739 0.14818935 -0.11615254 0.0028655478 0.122801796 -0.06388409 -0.07420138 -0.0131889535 -0.03410962 -0.05479253 -0.18241802 -0.086850874 0.004586429 0.13335511 -0.08397211 0.08301903 0.13511743 0.09676945 -0.032250136 0.1732205 0.014532371 -0.17074803 -0.07084382 0.008782701 -0.11780031 0.090979055 -0.09913116 0.07281277 -0.14792436 0.046360943 0.030507978 0.060074124 -0.017977899 0.046418305 0.093358725 -0.18254939 0.0149527015 -0.1221596 -0.0744934 -0.027081653 -0.027999649 -0.13506386 0.15730588 -0.068882644 -0.11103935 0.036222782 0.09289936 0.10933183 0.0031901186 0.1426739 -0.1190154 0.08245445 0.21144773 -0.13341388 -0.11545897 -0.18609934 -0.0060296166 0.14908625 -0.090038106 -0.15641868 -0.15457216 0.0583491 -0.039639834 -0.1143061 -0.0007669367 -0.03218268 -0.042933676 0.03135359 -0.046842683 0.015175149 -0.07050383 -0.029512854 -0.09219867 0.05582486 -0.040766284 -0.01672036 0.0011756243 -0.031473104 0.05182402 0.003610163 0.16950847 0.10088451 0.108480364 -0.018550733 -0.1343669 0.0014284602 0.04472026 0.004266448 -0.15974097 -0.1618782 0.11170725
23 0.1485962 -0.02227828 0.14608286 -0.05166479 0.059517603 -0.1029924 0.09504936 0.02500296 -0.026651185 0.059440862 0.22192255 -0.14154549 -0.07869464 -0.0038333572 0.09557491 -0.013877057 -0.022948684 0.04482779 -0.082112394 0.09700448 0.21107943 0.13270083 0.048059776 0.08475057 -0.20791148 0.1362798 -0.12119148 0.14524041 0.04679717 0.066084735 -0.31253883 0.044180915 0.07995812 0.00095583766 -0.09886702 -0.08600319 0.22118975 0.056985866 0.15076846 -0.047830783 -0.07505939 0.11678208 -0.09449392 -0.0861024 -0.013882047 -0.027018458 0.035670374 -0.15716788 -0.06716143 0.047272146 0.15228136 -0.029436698 0.12126647 0.07470289 0.10192739 0.052713417 0.2483126 -0.03236409 -0.17237864 -0.011804868 0.0014431452 -0.15308118 0.08099824 -0.059978563 0.069502465 -0.09064272 0.11116069 0.042797145 -0.049906705 -0.029814867 0.1363326 0.12633702 -0.14485258 0.0441975 -0.03718105 -0.06379361 0.021148805 -0.07630338 -0.05410622 0.122112155 0.06419787 -0.13653809 -0.03035798 0.12278812 -0.010841676 0.04105475 0.1867714 -0.12311868 0.124260515 0.20257787 -0.0858547 -0.05294705 -0.057489946 -0.019946856 0.19545253 -0.0029504318 -0.28831294 -0.278276 0.019486293 -0.09884878 -0.15815444 -0.029795792 0.07788315 0.0010704432 0.003774515 -0.06157208 0.08322954 -0.08060429 -0.046095587 -0.07827609 0.053753905 -0.040843952 -0.029606227 0.061261397 -0.0029024028 0.047776915 0.0058094696 0.20169893 0.09621059 0.15453278 -0.0042506745 -0.12427138 0.0331229 0.09558881 0.031763516 -0.18178032 -0.18803172 0.11455371
21 0.14375745 -0.01611513 0.16578948 -0.06494156 0.056217488 -0.10900082 0.08798263 0.02775385 -0.021099387 0.061051358 0.23038635 -0.13686141 -0.08024134 -0.01908372 0.07527262 -0.014969737 -0.008989054 0.057111174 -0.07196921 0.096362 0.21736918 0.12429868 0.05914564 0.084387206 -0.20214061 0.13308188 -0.13347384 0.117226295 0.06399794 0.06374487 -0.2994883 0.06741178 0.056470513 -0.0011275951 -0.0987921 -0.0914418 0.22961327 0.058892105 0.15728606 -0.06532548 -0.05266052 0.11646252 -0.0851006 -0.09266903 -0.015537767 -0.027396204 0.022231858 -0.1618743 -0.07003522 0.03695028 0.15179606 -0.04642414 0.116271265 0.09049111 0.097933516 0.043948557 0.23166312 -0.020645052 -0.1738147 -0.021613393 0.0079034995 -0.15170279 0.07421445 -0.061980966 0.06604007 -0.1057468 0.09937983 0.044317536 -0.028849442 -0.027653197 0.12422876 0.12617345 -0.14558303 0.047410578 -0.060101863 -0.05710913 0.006682378 -0.06748963 -0.058149476 0.1352464 0.04957137 -0.1335744 -0.0203312 0.12172578 0.007631007 0.04491257 0.17677745 -0.11900195 0.11677118 0.20693883 -0.097839735 -0.057064183 -0.07914915 -0.026826669 0.19205357 -0.028167583 -0.25837108 -0.24422663 0.02197878 -0.08687793 -0.15183732 -0.014073066 0.059354603 -0.0035277929 0.0063998247 -0.060642336 0.08234271 -0.073003 -0.04058127 -0.09286515 0.05919828 -0.048830103 -0.033928454 0.055042803 -0.0034462363 0.03613332 0.009664947 0.20776394 0.09818578 0.14723986 -0.0068279346 -0.1280457 0.03213909 0.07375665 0.018975027 -0.17091544 -0.18765692 0.106017426
27 0.13921624 -0.022725657 0.14899458 -0.07395069 0.05918051 -0.12214575 0.067934744 0.043825213 -0.0010650189 0.05989689 0.23914915 -0.13300338 -0.070404686 -0.019111749 0.06329786 -0.0094750505 -0.009966396 0.057148583 -0.05751905 0.08420379 0.20561036 0.11076286 0.057271007 0.071158096 -0.18309909 0.12969953 -0.12461734 0.11399841 0.07668774 0.08079151 -0.2970192 0.06673764 0.052464545 0.0064729415 -0.084116116 -0.08565033 0.21083951 0.054944042 0.15320049 -0.06775112 -0.046901073 0.10186418 -0.0843473 -0.09260413 -0.010135498 -0.038747627 0.012506066 -0.1691235 -0.071801275 0.036533833 0.14126354 -0.055382363 0.099987656 0.100564435 0.10909276 0.025152825 0.22539322 -0.018946424 -0.17547294 -0.024268711 0.000729296 -0.13873027 0.08242866 -0.07023673 0.062203836 -0.10347212 0.098429136 0.046839852 -0.024256831 -0.014993161 0.11042812 0.118645534 -0.14707471 0.03816234 -0.06726978 -0.07325491 0.0006958123 -0.05259248 -0.07547857 0.12625548 0.029364025 -0.12789357 -0.013440859 0.11387454 0.036452893 0.040878728 0.16504633 -0.11726569 0.10310471 0.21222301 -0.10495289 -0.06400771 -0.09581353 -0.021657484 0.18415953 -0.030912768 -0.23328799 -0.22961605 0.03269162 -0.07993308 -0.13364345 -0.013739989 0.032675687 -0.011498634 0.01006708 -0.060753718 0.06480504 -0.07328092 -0.05072775 -0.09531716 0.054350793 -0.037462953 -0.035545833 0.0558217 -0.0033593874 0.04654121 -0.00047719525 0.1847662 0.09313493 0.14265521 -0.010118012 -0.12452261 0.023232307 0.079213195 0.031121632 -0.16748823 -0.17517535 0.10811971
22 0.10086702 0.014911543 0.17617476 -0.10956846 0.055786923 -0.19612129 0.032923885 0.08525443 0.010447786 0.09725292 0.26477253 -0.14738047 -0.024941612 -0.047306024 0.0045767785 -0.013714004 0.046197355 0.092420176 -0.002950437 0.10763566 0.20576592 0.066903464 0.058965467 0.064984635 -0.16414449 0.13189909 -0.13480803 0.051127728 0.1318531 0.07595383 -0.29328278 0.12924935 -0.042237874 0.041802082 -0.0685276 -0.062173165 0.2067812 0.074425995 0.14822553 -0.12065023 0.013435352 0.12507 -0.052031532 -0.07959734 -0.021461518 -0.02834153 -0.051800154 -0.19562855 -0.08401144 0.0006962484 0.14948484 -0.08814041 0.08456987 0.12798752 0.109038725 -0.038948298 0.17463508 0.015371436 -0.17021672 -0.075118855 0.017611958 -0.11543853 0.09291405 -0.10995084 0.08068804 -0.15098603 0.043509185 0.031690523 0.0662265 -0.025732098 0.04862563 0.088357545 -0.19113131 0.011401325 -0.13130532 -0.08561195 -0.02836733 -0.032250445 -0.14117017 0.17490062 -0.06478233 -0.109093666 0.03829745 0.08599587 0.12807931 0.014026528 0.14574139 -0.121770784 0.07809034 0.21609598 -0.13433687 -0.11604377 -0.17862129 -0.00056493754 0.1514759 -0.08785776 -0.16269551 -0.16178551 0.06693358 -0.04068635 -0.1217306 0.008728904 -0.039369866 -0.03960417 0.04096815 -0.0492516 0.010692292 -0.071373135 -0.040819634 -0.11074721 0.061252225 -0.04674187 -0.010393219 0.00046170445 -0.01719699 0.043435037 0.016130175 0.17886457 0.101162374 0.10580257 -0.019524308 -0.12940983 -0.010552604 0.03427838 0.007879536 -0.1650449 -0.1604353 0.10691373
19 0.1509206 -0.020343564 0.16155782 -0.06551291 0.059729505 -0.09703593 0.097665586 0.02213257 -0.029249325 0.059376035 0.22765276 -0.13433678 -0.094447985 -0.0048921923 0.09531668 -0.016352577 -0.022156078 0.050348073 -0.082643524 0.09880643 0.21433759 0.13327003 0.044531748 0.093447186 -0.21203116 0.13997652 -0.12810352 0.14661537 0.057265352 0.07284255 -0.31334892 0.05506366 0.07695803 -0.0008994773 -0.09669161 -0.09025926 0.23588866 0.05799028 0.159784 -0.04632114 -0.083442375 0.112356514 -0.09853209 -0.08946361 -0.0046238657 -0.03326762 0.03954637 -0.16453126 -0.078126095 0.038585488 0.15152551 -0.040794 0.120131835 0.08200716 0.11679631 0.058459554 0.2523758 -0.033405147 -0.17877942 -0.020208254 -0.001561809 -0.16044143 0.079462126 -0.055741314 0.0688763 -0.08795776 0.116256505 0.048410956 -0.057711072 -0.031575847 0.1454242 0.13773061 -0.15055743 0.050210353 -0.039651334 -0.054860033 0.017204473 -0.07678455 -0.041852523 0.11581225 0.06191551 -0.14365457 -0.029622043 0.12530981 -0.018127318 0.0448784 0.1834935 -0.1258859 0.13020535 0.21258634 -0.08871865 -0.046770234 -0.05737039 -0.025658557 0.21085085 -0.0038989107 -0.2976131 -0.27833787 0.029456189 -0.101247855 -0.16090629 -0.019632066 0.06970662 -0.0033791917 -0.0013682854 -0.055565093 0.08803792 -0.08997647 -0.054443732 -0.08806631 0.05939576 -0.047060672 -0.036390048 0.06476795 0.007496583 0.042411026 0.006401568 0.21124622 0.09263355 0.1599561 0.008247951 -0.12963077 0.034405094 0.09863124 0.020901762 -0.1825232 -0.19625819 0.120215
10 0.12936595 -0.021131992 0.15847021 -0.06740092 0.064974256 -0.1124233 0.08049608 0.036850527 -0.010515046 0.06153847 0.22938417 -0.13478991 -0.06784875 -0.011459485 0.06599499 -0.024229608 -0.004154543 0.06718999 -0.07040035 0.092108525 0.20719159 0.12417377 0.060274485 0.07847732 -0.19112994 0.14451489 -0.12278915 0.112568565 0.07162157 0.06982949 -0.30894545 0.072456 0.048528887 0.017291646 -0.088829964 -0.08116176 0.21780765 0.05236045 0.14853495 -0.062028423 -0.059877034 0.11959186 -0.08466037 -0.093369044 -0.016478451 -0.030916685 0.0060342317 -0.16485035 -0.06472049 0.025233911 0.14543559 -0.04087457 0.11675106 0.10346802 0.09805949 0.03219498 0.22059746 -0.017044691 -0.16886267 -0.03230072 0.01348942 -0.154888 0.0851563 -0.06588706 0.071158335 -0.10095671 0.09251759 0.05232069 -0.02857337 -0.029856998 0.116698064 0.11018716 -0.15530674 0.037817474 -0.05690363 -0.06761462 0.003572885 -0.06490266 -0.07676339 0.12913732 0.036856312 -0.13481621 -0.0112912115 0.12719314 0.020941438 0.030895228 0.18109666 -0.12264005 0.11120595 0.21629317 -0.09236543 -0.058746155 -0.09074407 -0.020720962 0.19895996 -0.028259706 -0.26095077 -0.2506454 0.03237497 -0.09463791 -0.14643618 -0.02672086 0.04781642 -0.006018419 0.0137197515 -0.056543022 0.062367793 -0.07614478 -0.037298817 -0.090906866 0.06576467 -0.043093573 -0.024096133 0.05466151 -0.002805963 0.044264708 0.006270864 0.19352044 0.09858663 0.13776855 -0.0076099364 -0.12396439 0.03684046 0.08216277 0.01931583 -0.17917341 -0.18236521 0.1103626
13 0.11271591 -0.0052071237 0.16795303 -0.0869898 0.063207135 -0.16143379 0.044307496 0.061627667 0.005017225 0.091419235 0.25263104 -0.15498461 -0.025753835 -0.028615506 0.017034564 -0.018984841 0.021620397 0.08485649 -0.022776868 0.10241218 0.2215235 0.07746425 0.052365467 0.06606597 -0.17482714 0.1263634 -0.14125638 0.06691042 0.11495627 0.07576513 -0.29228377 0.124379784 0.0006394173 0.0330388 -0.07217166 -0.08370402 0.21482535 0.071595535 0.14941022 -0.10661798 -0.009373301 0.119744934 -0.07232196 -0.09003228 -0.028290473 -0.03020878 -0.036988243 -0.1934839 -0.07501123 0.01733785 0.14621541 -0.07017065 0.0802885 0.12920348 0.08954529 -0.015664063 0.18193938 0.002374868 -0.18362634 -0.045540333 0.015462331 -0.13024104 0.100543454 -0.092434876 0.06950871 -0.1345361 0.059060097 0.036394365 0.05120514 -0.014692042 0.05582796 0.10652795 -0.18042517 0.027135588 -0.10110999 -0.083539486 -0.023468541 -0.041181613 -0.12345386 0.1603375 -0.04068817 -0.11381809 0.02664519 0.09287163 0.09884336 0.02438793 0.14701167 -0.122821085 0.07505939 0.2105747 -0.12579915 -0.10025344 -0.16327721 -0.005050742 0.16532731 -0.079476915 -0.18526433 -0.18609491 0.043205258 -0.04644138 -0.12828396 0.0041876636 -0.019713376 -0.037711345 0.0233639 -0.04709648 0.03119597 -0.06841598 -0.02831134 -0.10086726 0.05855779 -0.047624074 -0.011550241 0.014077418 -0.016348016 0.043859705 0.011729441 0.18839623 0.0968968 0.12406228 -0.010437964 -0.13108794 0.008903395 0.05298521 0.019509546 -0.15312554 -0.17471303 0.11658051
15 0.13666658 -0.017160226 0.15577742 -0.067862384 0.054183263 -0.11233141 0.084363446 0.027369615 -0.0077450345 0.05830136 0.23183927 -0.13442975 -0.065405004 -0.018891124 0.06604867 -0.0117872115 -0.015328984 0.05946878 -0.07368702 0.08898083 0.20617047 0.11727253 0.05254491 0.07614642 -0.19412278 0.12278467 -0.120624274 0.12099149 0.05901776 0.078578554 -0.2939589 0.05859698 0.05396817 0.007285173 -0.095159024 -0.080599934 0.21973146 0.06373287 0.15622562 -0.059788946 -0.057274863 0.104179375 -0.079804875 -0.09231036 -0.016966883 -0.030110328 0.021239363 -0.16493131 -0.069019586 0.034869757 0.1409856 -0.051736586 0.09999054 0.09244265 0.09606739 0.035686076 0.22694622 -0.03262802 -0.17610973 -0.019771807 0.0038907938 -0.14006238 0.0700224 -0.07657855 0.059474975 -0.100912355 0.08830435 0.03805793 -0.035934173 -0.023054702 0.120958045 0.115667656 -0.15317775 0.043443073 -0.057212673 -0.06932795 0.012788279 -0.065386735 -0.062097244 0.13259602 0.04220541 -0.12299068 -0.007695675 0.11817547 0.011507026 0.04284306 0.16566087 -0.12438905 0.11518256 0.19898613 -0.099842645 -0.06010043 -0.08414879 -0.016385984 0.18973148 -0.024644556 -0.25532666 -0.23797183 0.018444512 -0.08589487 -0.14942813 -0.016649257 0.05180149 -0.004138872 0.005888418 -0.05880938 0.07637725 -0.080876656 -0.0462604 -0.08896349 0.05289386 -0.037616134 -0.024069276 0.059162907 0.0054352754 0.038430054 0.0024820808 0.19244325 0.087344795 0.13583077 0.00033110334 -0.12232911 0.023854638 0.08708204 0.02517909 -0.16944724 -0.18268177 0.10917931
17 0.08767601 0.043199796 0.18639825 -0.15755878 0.09004055 -0.29645222 -0.063481815 0.15472479 0.0786035 0.1587226 0.25058466 -0.19412392 0.09559858 -0.0970438 -0.094730906 -0.016108375 0.13765143 0.15578899 0.096410856 0.13863885 0.23008327 0.0034900943 0.08715976 0.020719158 -0.08806821 0.1112017 -0.14692669 -0.05543196 0.23143819 0.09672079 -0.2500536 0.24206556 -0.13709652 0.12023843 -0.07985093 -0.08846789 0.18949214 0.08466424 0.09969015 -0.19076079 0.11955871 0.10904229 -0.0057226084 -0.065624565 -0.06788785 -0.052185446 -0.14887561 -0.24834462 -0.10666679 -0.01273392 0.1381089 -0.11046366 0.01705146 0.1858392 0.05485396 -0.111726806 0.11967708 0.06513329 -0.17302929 -0.10454392 0.01150842 -0.04654403 0.14726609 -0.19314806 0.099391565 -0.24248411 0.004592354 -0.04358561 0.24484923 0.044064637 -0.07556034 0.097118355 -0.2421125 0.016572563 -0.2313078 -0.15289652 -0.07344231 0.039585613 -0.26946712 0.23972574 -0.23234476 -0.05904619 0.089376956 0.009781086 0.2893626 0.009212797 0.09990853 -0.10848017 -0.012829941 0.24656883 -0.19802032 -0.23275033 -0.35327244 0.0047990275 0.07138384 -0.18412194 -0.0040534334 -0.05493849 0.05241621 0.06856746 -0.046765465 0.047718976 -0.17083241 -0.08568085 0.08768586 -0.055298872 -0.08445852 -0.08328965 -0.03429831 -0.07553028 0.045770068 -0.06386794 0.000263324 -0.050235964 -0.10725719 0.05861698 0.004009574 0.12054807 0.105282255 0.07640246 -0.075070046 -0.18451071 -0.06036987 -0.030211465 0.04498096 -0.12301245 -0.2048469 0.17218141
16 0.14021215 -0.020668663 0.14838773 -0.0664355 0.05375434 -0.09385123 0.08984098 0.020182429 -0.015803773 0.0548707 0.22831886 -0.13536465 -0.082731396 -0.013287305 0.08163004 -0.017153818 -0.014166178 0.056757934 -0.080730855 0.08610889 0.21242826 0.1278163 0.045831785 0.080069736 -0.20561805 0.13571145 -0.13160765 0.12777795 0.061834358 0.067760825 -0.3009258 0.05471357 0.06260112 -0.006490674 -0.09356062 -0.08151078 0.21927105 0.053882774 0.15222271 -0.05017021 -0.070658065 0.11509398 -0.0926631 -0.09716864 -0.013808511 -0.027878502 0.031955633 -0.16754071 -0.07439475 0.031221481 0.15004101 -0.042778503 0.116376 0.08705 0.111729704 0.04739412 0.23769468 -0.030379394 -0.17537726 -0.02558891 0.010706031 -0.15560189 0.066376425 -0.057462793 0.07089943 -0.09235723 0.10786193 0.048951708 -0.051487457 -0.033148203 0.12547904 0.11990758 -0.14924245 0.05201207 -0.04033182 -0.05872368 0.012764892 -0.061837163 -0.051360235 0.11787099 0.060007565 -0.13379101 -0.02548388 0.11894086 0.0049166186 0.04740725 0.17214346 -0.124544896 0.12061465 0.20469049 -0.0947523 -0.041710135 -0.07275246 -0.020829346 0.20526329 -0.015596368 -0.2723188 -0.26077044 0.016074944 -0.09650272 -0.15308365 -0.027945738 0.06837508 -0.0068867756 0.010144999 -0.06224332 0.07576412 -0.087609164 -0.041730084 -0.09534336 0.06348395 -0.04381626 -0.0251668 0.06529531 0.014584583 0.048339393 -0.0026879632 0.19672276 0.088859625 0.14908639 0.0056747617 -0.11700395 0.03461947 0.091919675 0.021529557 -0.17938127 -0.17811652 0.1019268
12 0.10394805 0.00041795248 0.16973867 -0.10035839 0.06231353 -0.18906944 0.03245289 0.072603896 0.024438998 0.09643341 0.24674645 -0.1509068 -0.009494534 -0.04984938 0.006296568 -0.020233823 0.049889036 0.08923803 0.008755807 0.0945611 0.2038581 0.06334834 0.050823897 0.061095078 -0.14649305 0.12837182 -0.12850669 0.045189925 0.13488242 0.07919525 -0.27477294 0.13992897 -0.022600362 0.050318357 -0.06767452 -0.064941674 0.20141642 0.06679692 0.13686042 -0.1123077 0.016561981 0.11984657 -0.057019804 -0.07707468 -0.031524245 -0.03417105 -0.06346894 -0.18273549 -0.07836206 0.0094853835 0.1381924 -0.08515512 0.067864306 0.12473027 0.08241385 -0.03738431 0.15268815 0.01930129 -0.17230465 -0.057866067 0.010665154 -0.10571431 0.09772322 -0.11295523 0.07129146 -0.15253077 0.039550874 0.014224708 0.076786764 -0.008240849 0.034121994 0.08818605 -0.18347473 0.016681703 -0.12612903 -0.090828285 -0.028426977 -0.02581074 -0.14372823 0.15708475 -0.07159586 -0.10429329 0.030147208 0.08051119 0.12911776 0.010809141 0.13867578 -0.12097233 0.06293843 0.21196328 -0.13086963 -0.110218026 -0.1843842 -0.0014880977 0.14728057 -0.09573013 -0.15016095 -0.15989704 0.047066428 -0.028829968 -0.10688097 0.0037579138 -0.040064797 -0.042707622 0.04170214 -0.056080777 0.0031007791 -0.065125436 -0.024337368 -0.0893625 0.052167222 -0.053394105 -0.009828701 -0.004522413 -0.03998332 0.04647418 0.0062313494 0.16844091 0.084412135 0.10480878 -0.021593004 -0.13595577 -0.009632987 0.037496008 0.012179531 -0.14327249 -0.16450885 0.11825414
