34 10
1 -0.014876 -0.229356 0.023806 0.067841 0.090910 -0.144880 0.150130 0.075787 0.046873 -0.025290
34 -0.043236 -0.184561 0.086898 0.155603 0.126673 -0.103197 0.194487 -0.020264 -0.096339 0.018373
33 -0.037151 -0.193182 0.077220 0.145653 0.123061 -0.110840 0.185281 -0.003266 -0.074293 0.013228
3 -0.028561 -0.205411 0.056815 0.105204 0.107464 -0.127154 0.173082 0.029493 -0.026830 -0.005606
2 -0.014195 -0.206891 0.039293 0.085593 0.095233 -0.124536 0.156750 0.051983 0.001926 -0.015428
4 -0.014641 -0.203711 0.034961 0.085020 0.095704 -0.131868 0.150660 0.056755 0.011886 -0.016651
32 -0.028685 -0.213070 0.047301 0.108818 0.109415 -0.128147 0.176653 0.027303 -0.025159 -0.004165
24 -0.029315 -0.189772 0.068621 0.134244 0.113263 -0.111526 0.179366 0.006049 -0.055758 0.008379
14 -0.027129 -0.198493 0.061423 0.105227 0.107909 -0.116048 0.165620 0.021164 -0.039371 0.000798
30 -0.029805 -0.195961 0.067188 0.138667 0.112269 -0.110647 0.186154 -0.000130 -0.064409 0.011206
6 0.002078 -0.268463 -0.003595 0.061690 0.088494 -0.169720 0.158606 0.118915 0.104116 -0.043795
28 -0.031933 -0.197667 0.064274 0.115887 0.109673 -0.112831 0.172487 0.015226 -0.045440 0.000922
9 -0.028741 -0.211076 0.054543 0.113454 0.112192 -0.125957 0.179462 0.027106 -0.028922 -0.004419
8 -0.017865 -0.211108 0.047087 0.089959 0.095930 -0.129200 0.162559 0.046570 -0.004375 -0.008637
7 0.004536 -0.254080 -0.005178 0.057268 0.083031 -0.160793 0.152251 0.109620 0.097156 -0.041831
11 -0.011104 -0.238662 0.017651 0.075369 0.092326 -0.150237 0.153379 0.086072 0.059588 -0.030736
26 -0.023020 -0.198035 0.052784 0.110189 0.107711 -0.121333 0.171473 0.021895 -0.032644 -0.004038
5 -0.004594 -0.243196 0.005785 0.065577 0.090126 -0.153967 0.154449 0.088095 0.073435 -0.034911
20 -0.018263 -0.203119 0.044032 0.096708 0.093959 -0.128945 0.162148 0.043488 -0.007986 -0.009540
29 -0.029217 -0.192326 0.054517 0.112169 0.109076 -0.116282 0.168307 0.012174 -0.039994 0.001809
25 -0.035282 -0.206988 0.058312 0.120805 0.111692 -0.122058 0.177212 0.011913 -0.038791 0.000927
31 -0.024721 -0.196744 0.058380 0.113582 0.105830 -0.121297 0.167197 0.019532 -0.034359 0.000843
22 -0.013324 -0.230635 0.030984 0.088591 0.098398 -0.146396 0.163462 0.062319 0.023642 -0.020648
18 -0.015417 -0.214277 0.033568 0.083404 0.097872 -0.136150 0.154404 0.056222 0.014330 -0.011620
15 -0.038742 -0.181860 0.076422 0.131426 0.114511 -0.098082 0.178220 -0.010870 -0.073351 0.011362
21 -0.037420 -0.185872 0.075212 0.132879 0.113678 -0.109162 0.182616 -0.006157 -0.069429 0.015099
17 -0.003820 -0.258748 0.007511 0.073799 0.087261 -0.166561 0.164332 0.103193 0.086301 -0.032979
27 -0.032797 -0.195288 0.069216 0.133867 0.116239 -0.108610 0.185740 0.001955 -0.069550 0.011745
13 -0.016251 -0.202210 0.044203 0.088466 0.096507 -0.126337 0.159309 0.039759 -0.004149 -0.007473
16 -0.035511 -0.202433 0.074765 0.137003 0.120944 -0.118830 0.192556 0.003611 -0.063796 0.008194
10 -0.027585 -0.194088 0.059197 0.119915 0.110972 -0.109276 0.174774 0.014288 -0.042095 -0.000858
19 -0.027732 -0.191410 0.071374 0.126421 0.111070 -0.107876 0.176676 0.002585 -0.056623 0.007753
23 -0.033210 -0.184668 0.068293 0.134566 0.114270 -0.104607 0.178711 0.001390 -0.065522 0.009054
12 -0.021273 -0.227668 0.038558 0.090407 0.099022 -0.140312 0.164310 0.052033 0.009098 -0.013410
